{"learner":{"attributes":{"scikit_learn":"{\"_estimator_type\": \"regressor\"}"},"feature_names":["year","month","day","day_of_week","day_of_year","is_weekend","dow_sin","dow_cos","month_sin","month_cos","doy_sin","doy_cos","is_holiday","is_statutory_holiday","holiday_type","is_adjusted_workday","days_to_next_holiday","next_holiday_type","days_from_prev_holiday","prev_holiday_type","days_to_nearest_holiday","holiday_proximity","holiday_phase","holiday_day_num","total_holiday_length","holiday_progress","days_to_cny","cny_window","cny_pre","cny_post","cny_day","year_normalized","dow_mean","dow_std","month_mean","month_std","holiday_type_mean","holiday_type_std","cny_offset_mean","lag_1","lag_2","lag_3","lag_7","lag_14","lag_21","lag_28","roll_7","roll_14","roll_30","std_7","std_14","trend_7","slope_7","slope_14","accel_7","recent_change_3d","delta_vs_roll7","delta_vs_lag7"],"feature_types":["float","float","float","float","float","float","float","float","float","float","float","float","float","float","float","float","float","float","float","float","float","float","float","float","float","float","float","float","float","float","float","float","float","float","float","float","float","float","float","float","float","float","float","float","float","float","float","float","float","float","float","float","float","float","float","float","float","float"],"gradient_booster":{"model":{"cats":{"enc":[],"feature_segments":[],"sorted_idx":[]},"gbtree_model_param":{"num_parallel_tree":"1","num_trees":"800"},"iteration_indptr":[0,1,2,3,4,5,6,7,8,9,10,11,12,13,14,15,16,17,18,19,20,21,22,23,24,25,26,27,28,29,30,31,32,33,34,35,36,37,38,39,40,41,42,43,44,45,46,47,48,49,50,51,52,53,54,55,56,57,58,59,60,61,62,63,64,65,66,67,68,69,70,71,72,73,74,75,76,77,78,79,80,81,82,83,84,85,86,87,88,89,90,91,92,93,94,95,96,97,98,99,100,101,102,103,104,105,106,107,108,109,110,111,112,113,114,115,116,117,118,119,120,121,122,123,124,125,126,127,128,129,130,131,132,133,134,135,136,137,138,139,140,141,142,143,144,145,146,147,148,149,150,151,152,153,154,155,156,157,158,159,160,161,162,163,164,165,166,167,168,169,170,171,172,173,174,175,176,177,178,179,180,181,182,183,184,185,186,187,188,189,190,191,192,193,194,195,196,197,198,199,200,201,202,203,204,205,206,207,208,209,210,211,212,213,214,215,216,217,218,219,220,221,222,223,224,225,226,227,228,229,230,231,232,233,234,235,236,237,238,239,240,241,242,243,244,245,246,247,248,249,250,251,252,253,254,255,256,257,258,259,260,261,262,263,264,265,266,267,268,269,270,271,272,273,274,275,276,277,278,279,280,281,282,283,284,285,286,287,288,289,290,291,292,293,294,295,296,297,298,299,300,301,302,303,304,305,306,307,308,309,310,311,312,313,314,315,316,317,318,319,320,321,322,323,324,325,326,327,328,329,330,331,332,333,334,335,336,337,338,339,340,341,342,343,344,345,346,347,348,349,350,351,352,353,354,355,356,357,358,359,360,361,362,363,364,365,366,367,368,369,370,371,372,373,374,375,376,377,378,379,380,381,382,383,384,385,386,387,388,389,390,391,392,393,394,395,396,397,398,399,400,401,402,403,404,405,406,407,408,409,410,411,412,413,414,415,416,417,418,419,420,421,422,423,424,425,426,427,428,429,430,431,432,433,434,435,436,437,438,439,440,441,442,443,444,445,446,447,448,449,450,451,452,453,454,455,456,457,458,459,460,461,462,463,464,465,466,467,468,469,470,471,472,473,474,475,476,477,478,479,480,481,482,483,484,485,486,487,488,489,490,491,492,493,494,495,496,497,498,499,500,501,502,503,504,505,506,507,508,509,510,511,512,513,514,515,516,517,518,519,520,521,522,523,524,525,526,527,528,529,530,531,532,533,534,535,536,537,538,539,540,541,542,543,544,545,546,547,548,549,550,551,552,553,554,555,556,557,558,559,560,561,562,563,564,565,566,567,568,569,570,571,572,573,574,575,576,577,578,579,580,581,582,583,584,585,586,587,588,589,590,591,592,593,594,595,596,597,598,599,600,601,602,603,604,605,606,607,608,609,610,611,612,613,614,615,616,617,618,619,620,621,622,623,624,625,626,627,628,629,630,631,632,633,634,635,636,637,638,639,640,641,642,643,644,645,646,647,648,649,650,651,652,653,654,655,656,657,658,659,660,661,662,663,664,665,666,667,668,669,670,671,672,673,674,675,676,677,678,679,680,681,682,683,684,685,686,687,688,689,690,691,692,693,694,695,696,697,698,699,700,701,702,703,704,705,706,707,708,709,710,711,712,713,714,715,716,717,718,719,720,721,722,723,724,725,726,727,728,729,730,731,732,733,734,735,736,737,738,739,740,741,742,743,744,745,746,747,748,749,750,751,752,753,754,755,756,757,758,759,760,761,762,763,764,765,766,767,768,769,770,771,772,773,774,775,776,777,778,779,780,781,782,783,784,785,786,787,788,789,790,791,792,793,794,795,796,797,798,799,800],"tree_info":[0,0,0,0,0,0,0,0,0,0,0,0,0,0,0,0,0,0,0,0,0,0,0,0,0,0,0,0,0,0,0,0,0,0,0,0,0,0,0,0,0,0,0,0,0,0,0,0,0,0,0,0,0,0,0,0,0,0,0,0,0,0,0,0,0,0,0,0,0,0,0,0,0,0,0,0,0,0,0,0,0,0,0,0,0,0,0,0,0,0,0,0,0,0,0,0,0,0,0,0,0,0,0,0,0,0,0,0,0,0,0,0,0,0,0,0,0,0,0,0,0,0,0,0,0,0,0,0,0,0,0,0,0,0,0,0,0,0,0,0,0,0,0,0,0,0,0,0,0,0,0,0,0,0,0,0,0,0,0,0,0,0,0,0,0,0,0,0,0,0,0,0,0,0,0,0,0,0,0,0,0,0,0,0,0,0,0,0,0,0,0,0,0,0,0,0,0,0,0,0,0,0,0,0,0,0,0,0,0,0,0,0,0,0,0,0,0,0,0,0,0,0,0,0,0,0,0,0,0,0,0,0,0,0,0,0,0,0,0,0,0,0,0,0,0,0,0,0,0,0,0,0,0,0,0,0,0,0,0,0,0,0,0,0,0,0,0,0,0,0,0,0,0,0,0,0,0,0,0,0,0,0,0,0,0,0,0,0,0,0,0,0,0,0,0,0,0,0,0,0,0,0,0,0,0,0,0,0,0,0,0,0,0,0,0,0,0,0,0,0,0,0,0,0,0,0,0,0,0,0,0,0,0,0,0,0,0,0,0,0,0,0,0,0,0,0,0,0,0,0,0,0,0,0,0,0,0,0,0,0,0,0,0,0,0,0,0,0,0,0,0,0,0,0,0,0,0,0,0,0,0,0,0,0,0,0,0,0,0,0,0,0,0,0,0,0,0,0,0,0,0,0,0,0,0,0,0,0,0,0,0,0,0,0,0,0,0,0,0,0,0,0,0,0,0,0,0,0,0,0,0,0,0,0,0,0,0,0,0,0,0,0,0,0,0,0,0,0,0,0,0,0,0,0,0,0,0,0,0,0,0,0,0,0,0,0,0,0,0,0,0,0,0,0,0,0,0,0,0,0,0,0,0,0,0,0,0,0,0,0,0,0,0,0,0,0,0,0,0,0,0,0,0,0,0,0,0,0,0,0,0,0,0,0,0,0,0,0,0,0,0,0,0,0,0,0,0,0,0,0,0,0,0,0,0,0,0,0,0,0,0,0,0,0,0,0,0,0,0,0,0,0,0,0,0,0,0,0,0,0,0,0,0,0,0,0,0,0,0,0,0,0,0,0,0,0,0,0,0,0,0,0,0,0,0,0,0,0,0,0,0,0,0,0,0,0,0,0,0,0,0,0,0,0,0,0,0,0,0,0,0,0,0,0,0,0,0,0,0,0,0,0,0,0,0,0,0,0,0,0,0,0,0,0,0,0,0,0,0,0,0,0,0,0,0,0,0,0,0,0,0,0,0,0,0,0,0,0,0,0,0,0,0,0,0,0,0,0,0,0,0,0,0,0,0,0,0,0,0,0,0,0,0,0,0,0,0,0,0,0,0,0,0,0,0,0,0,0,0,0,0,0,0,0,0,0,0,0,0,0,0,0,0,0,0,0,0,0,0,0,0,0,0,0,0,0,0,0,0,0,0,0,0,0,0,0,0,0,0,0,0,0,0,0,0,0,0,0,0,0,0,0,0,0,0,0,0,0,0,0,0,0,0,0,0,0,0,0,0,0,0,0,0,0,0,0,0,0,0,0,0,0,0,0,0,0,0,0,0,0,0,0,0,0,0,0,0,0,0,0],"trees":[{"base_weights":[4.6189376E-3,-5.8557284E-1,7.0826304E-1,-8.871287E-1,1.6748768E-1,2.5316456E-2,8.116505E-1,-1.4285715E-2,-9.299363E-1,3.0939227E-1,-4.782609E-2,-5.0980395E-1,4.8275862E-2,5.4901963E-1,9.2011017E-1,-1.6129032E-2,-4.852608E-2,3.370787E-2,-2.1505377E-3,-4.1935485E-2,-0E0,-2.4E-2,3.7209302E-2,3.521127E-2,4.8464164E-2],"categories":[],"categories_nodes":[],"categories_segments":[],"categories_sizes":[],"default_left":[0,0,0,0,0,0,0,0,0,0,0,0,0,0,0,0,0,0,0,0,0,0,0,0,0],"id":0,"left_children":[1,3,5,7,9,11,13,-1,15,17,-1,19,-1,21,23,-1,-1,-1,-1,-1,-1,-1,-1,-1,-1],"loss_changes":[2.6993497E2,8.035054E1,2.0925018E1,6.367798E0,1.6337433E1,2.0119375E1,7.0822754E0,0E0,5.6484528E0,1.1647758E1,0E0,4.275775E0,0E0,1.554211E1,1.5854645E0,0E0,0E0,0E0,0E0,0E0,0E0,0E0,0E0,0E0,0E0],"parents":[2147483647,0,0,1,1,2,2,3,3,4,4,5,5,6,6,8,8,9,9,11,11,13,13,14,14],"right_children":[2,4,6,8,10,12,14,-1,16,18,-1,20,-1,22,24,-1,-1,-1,-1,-1,-1,-1,-1,-1,-1],"split_conditions":[4.513E3,4.6529326E3,4.303E3,4.121E3,3.986895E2,5.056E3,2E0,-8.05E0,1.2973802E2,4.474933E3,-8.400001E0,2E0,5.0600002E1,4.596E3,4.4899E3,-2.45E0,-1.355E1,2.55E0,-4E-1,-6.6E0,-6.5E0,-5.8E0,1.035E1,7.15E0,1.545E1],"split_indices":[39,32,42,41,49,39,3,0,50,34,0,3,0,39,34,0,0,0,0,0,0,0,0,0,0],"split_type":[0,0,0,0,0,0,0,0,0,0,0,0,0,0,0,0,0,0,0,0,0,0,0,0,0],"sum_hessian":[6.49E2,3.53E2,2.96E2,2.52E2,1.01E2,3.9E1,2.57E2,1.7E1,2.35E2,9E1,1.1E1,2.5E1,1.4E1,7.6E1,1.81E2,1.5E1,2.2E2,4.4E1,4.6E1,1.5E1,1E1,1.2E1,6.4E1,3.5E1,1.46E2],"tree_param":{"num_deleted":"0","num_feature":"58","num_nodes":"25","size_leaf_vector":"1"}},{"base_weights":[-0E0,-5.521024E-1,4.131327E-1,4.6031747E-2,-7.42268E-1,-5.7877813E-2,7.60095E-1,-8.888889E-1,-0E0,-8.2191783E-1,1.7573221E-1,-9.52381E-3,8.0798006E-1,-4.6701845E-2,-1.1111111E-2,-2.9032258E-2,1.764706E-2,-1.904762E-2,-4.9056605E-2,-5.464481E-4,3.8596492E-2,2.556391E-2,4.7583643E-2],"categories":[],"categories_nodes":[],"categories_segments":[],"categories_sizes":[],"default_left":[0,0,0,0,0,0,0,0,0,0,0,0,0,0,0,0,0,0,0,0,0,0,0],"id":1,"left_children":[1,3,5,-1,7,9,11,13,15,17,19,-1,21,-1,-1,-1,-1,-1,-1,-1,-1,-1,-1],"loss_changes":[1.457505E2,7.693919E1,5.9753063E1,0E0,2.6391754E1,2.782701E1,9.658508E0,5.991211E0,8.402277E0,2.3757095E0,1.3303009E1,0E0,8.304825E0,0E0,0E0,0E0,0E0,0E0,0E0,0E0,0E0,0E0,0E0],"parents":[2147483647,0,0,1,1,2,2,4,4,5,5,6,6,7,7,8,8,9,9,10,10,12,12],"right_children":[2,4,6,-1,8,10,12,14,16,18,20,-1,22,-1,-1,-1,-1,-1,-1,-1,-1,-1,-1],"split_conditions":[4.422E3,2E0,4.489E3,4.6369995E1,4E0,4E0,-1.033E3,4.826E3,1.1725999E2,-5.9126145E-1,1.25666664E2,-3.317505E0,4.67714E3,-1.132251E1,-9.725E0,-2.330005E0,1.8699951E0,-4.77251E0,-1.302251E1,-2.7250978E-1,5.942505E0,4.2274904E0,1.917749E1],"split_indices":[42,16,40,0,3,3,57,40,49,11,55,0,34,0,0,0,0,0,0,0,0,0,0],"split_type":[0,0,0,0,0,0,0,0,0,0,0,0,0,0,0,0,0,0,0,0,0,0,0],"sum_hessian":[6.38E2,2.73E2,3.65E2,3.1E1,2.42E2,1.55E2,2.1E2,2.02E2,4E1,3.6E1,1.19E2,1E1,2E2,1.89E2,1.3E1,1.5E1,2.5E1,1E1,2.6E1,9.1E1,2.8E1,6.6E1,1.34E2],"tree_param":{"num_deleted":"0","num_feature":"58","num_nodes":"23","size_leaf_vector":"1"}},{"base_weights":[-1.5396458E-3,-5.079929E-1,3.85346E-1,8.301887E-1,-6.4579254E-1,-7.2727275E-1,5.1437217E-1,2.857143E-2,4.848485E-2,-7.895981E-1,4.494382E-2,-4.9122807E-2,-0E0,-1.4678898E-1,6.437613E-1,-4.3256998E-2,9.677419E-3,-1.3114753E-2,3.448276E-2,3.809524E-2,-1.7977528E-2,-1.6949152E-3,3.6161616E-2],"categories":[],"categories_nodes":[],"categories_segments":[],"categories_sizes":[],"default_left":[0,0,0,0,0,0,0,0,0,0,0,0,0,0,0,0,0,0,0,0,0,0,0],"id":2,"left_children":[1,3,5,7,9,11,13,-1,-1,15,17,-1,-1,19,21,-1,-1,-1,-1,-1,-1,-1,-1],"loss_changes":[1.2736057E2,5.217694E1,5.308777E1,6.7957306E-1,2.5397003E1,7.145136E0,2.8320549E1,0E0,0E0,1.579155E1,8.905025E0,0E0,0E0,1.0673736E1,1.4902985E1,0E0,0E0,0E0,0E0,0E0,0E0,0E0,0E0],"parents":[2147483647,0,0,1,1,2,2,3,3,4,4,5,5,6,6,9,9,10,10,13,13,14,14],"right_children":[2,4,6,8,10,12,14,-1,-1,16,18,-1,-1,20,22,-1,-1,-1,-1,-1,-1,-1,-1],"split_conditions":[4.432E3,2E0,-2.2914285E2,1.23E2,4E0,4.6649517E3,4.3582856E3,4.1108986E1,4.206399E1,1E0,1.08333336E2,-1.2221387E1,-7.966382E0,4.338E3,-8.758917E-1,-1.0943896E1,2.088623E0,-2.213501E0,5.198999E0,1.8161134E0,-1.1338867E0,-5.0888675E-1,1.0281128E1],"split_indices":[42,16,54,4,3,32,46,0,0,27,55,0,0,43,10,0,0,0,0,0,0,0,0],"split_type":[0,0,0,0,0,0,0,0,0,0,0,0,0,0,0,0,0,0,0,0,0,0,0],"sum_hessian":[6.49E2,2.81E2,3.68E2,2.6E1,2.55E2,3.8E1,3.3E2,1E1,1.6E1,2.11E2,4.4E1,2.8E1,1E1,5.4E1,2.76E2,1.96E2,1.5E1,3E1,1.4E1,1E1,4.4E1,2.9E1,2.47E2],"tree_param":{"num_deleted":"0","num_feature":"58","num_nodes":"23","size_leaf_vector":"1"}},{"base_weights":[-4.5891933E-2,-5.7759786E-1,5.99018E-1,-8.044693E-1,1.9512195E-2,-3.0508474E-1,6.9439423E-1,-1.8461539E-1,-8.879493E-1,2.6845637E-1,-6.315789E-1,2.857143E-2,-3.846154E-2,-1.904762E-2,7.354597E-1,-4.8275862E-2,2.1621622E-2,-4.7961634E-2,-1.754386E-2,2.727273E-2,-1.3725491E-2,-9.52381E-3,-4.3243244E-2,2.5842696E-2,4.7565546E-2],"categories":[],"categories_nodes":[],"categories_segments":[],"categories_sizes":[],"default_left":[0,0,0,0,0,0,0,0,0,0,0,0,0,0,0,0,0,0,0,0,0,0,0,0,0],"id":3,"left_children":[1,3,5,7,9,11,13,15,17,19,21,-1,-1,-1,23,-1,-1,-1,-1,-1,-1,-1,-1,-1,-1],"loss_changes":[2.3180357E2,5.0198463E1,2.644915E1,1.3811676E1,1.6698524E1,1.2221271E1,1.235022E1,1.5869009E1,8.885956E0,1.1279715E1,2.8503704E0,0E0,0E0,0E0,1.23293E1,0E0,0E0,0E0,0E0,0E0,0E0,0E0,0E0,0E0,0E0],"parents":[2147483647,0,0,1,1,2,2,3,3,4,4,5,5,6,6,7,7,8,8,9,9,10,10,14,14],"right_children":[2,4,6,8,10,12,14,16,18,20,22,-1,-1,-1,24,-1,-1,-1,-1,-1,-1,-1,-1,-1,-1],"split_conditions":[4.522E3,4.6529326E3,4.360143E3,1.1599548E2,4.8570392E2,4.145E3,4.462E3,2.1E1,4E0,5E0,1.4E1,4.9390383E0,-5.0979247E0,-2.95459E-1,4.5862E3,-1.1245948E1,1.9841797E0,-1.2272827E1,-2.0729492E0,4.4428225E0,-1.529297E-1,-4.4409423E0,-2.102832E0,7.5595703E0,1.7281324E1],"split_indices":[39,32,46,49,35,41,38,2,3,3,2,0,0,0,36,0,0,0,0,0,0,0,0,0,0],"split_type":[0,0,0,0,0,0,0,0,0,0,0,0,0,0,0,0,0,0,0,0,0,0,0,0,0],"sum_hessian":[6.75E2,3.7E2,3.05E2,2.68E2,1.02E2,2.9E1,2.76E2,3.2E1,2.36E2,7.4E1,2.8E1,1E1,1.9E1,1E1,2.66E2,1.4E1,1.8E1,2.08E2,2.8E1,4.9E1,2.5E1,1E1,1.8E1,1.33E2,1.33E2],"tree_param":{"num_deleted":"0","num_feature":"58","num_nodes":"25","size_leaf_vector":"1"}},{"base_weights":[-1.5186029E-2,-5.523012E-1,6.2562394E-1,-8.023483E-1,6.763285E-2,-3.5555556E-1,7.037702E-1,-2.3728813E-1,-8.741722E-1,-4.8E-2,2.0765027E-1,1.904762E-2,-4.8E-2,-8.888889E-2,7.719298E-1,-2.820513E-2,1.904762E-2,-7.692308E-3,-4.698795E-2,2.8235296E-2,-5.050505E-3,-4.0000003E-2,3.809524E-2,2.7467811E-2,4.7686834E-2],"categories":[],"categories_nodes":[],"categories_segments":[],"categories_sizes":[],"default_left":[0,0,0,0,0,0,0,0,0,0,0,0,0,0,0,0,0,0,0,0,0,0,0,0,0],"id":4,"left_children":[1,3,5,7,9,11,13,15,17,-1,19,-1,-1,21,23,-1,-1,-1,-1,-1,-1,-1,-1,-1,-1],"loss_changes":[2.268211E2,5.5599197E1,2.3166115E1,1.0265686E1,1.4991926E1,1.0199366E1,1.5080917E1,6.0679207E0,1.06284485E1,0E0,1.0112637E1,0E0,0E0,1.39174595E1,1.0117401E1,0E0,0E0,0E0,0E0,0E0,0E0,0E0,0E0,0E0,0E0],"parents":[2147483647,0,0,1,1,2,2,3,3,4,4,5,5,6,6,7,7,8,8,10,10,13,13,14,14],"right_children":[2,4,6,8,10,12,14,16,18,-1,20,-1,-1,22,24,-1,-1,-1,-1,-1,-1,-1,-1,-1,-1],"split_conditions":[4.522E3,4.6529326E3,4.3557144E3,1.3786528E2,-4.59E2,4.158E3,-1.8966667E2,-7.3333335E0,4.169E3,-8.362915E0,4.474933E3,4.69209E0,-5.8735595E0,5.3274287E3,4.6357144E3,-2.6843019E0,3.8598634E-2,-7.89668E0,-1.1095557E1,4.1499267E0,-4.0454102E-1,-2.806885E-1,1.0319312E1,4.267261E0,2.5926563E1],"split_indices":[39,32,46,50,56,41,55,55,41,0,34,0,0,46,46,0,0,0,0,0,0,0,0,0,0],"split_type":[0,0,0,0,0,0,0,0,0,0,0,0,0,0,0,0,0,0,0,0,0,0,0,0,0],"sum_hessian":[6.58E2,3.58E2,3E2,2.55E2,1.03E2,2.2E1,2.78E2,2.9E1,2.26E2,1.2E1,9.1E1,1E1,1.2E1,2.2E1,2.56E2,1.9E1,1E1,1.9E1,2.07E2,4.2E1,4.9E1,1.2E1,1E1,1.16E2,1.4E2],"tree_param":{"num_deleted":"0","num_feature":"58","num_nodes":"25","size_leaf_vector":"1"}},{"base_weights":[-5.3851906E-2,-5.52381E-1,5.538972E-1,-8.470067E-1,-8.421053E-2,3.8443935E-1,4.97006E-2,-3.4666666E-1,-9.442971E-1,2.2695035E-1,-3.862069E-1,-1.8705036E-1,6.4882946E-1,-4.848485E-2,6.9767446E-3,-4.9811322E-2,-4.0707964E-2,2.173913E-2,-3.3333335E-2,-2.9411767E-2,2.5925925E-2,-4.871795E-2,5.9405942E-3,3.7454545E-2,-2.4E-2],"categories":[],"categories_nodes":[],"categories_segments":[],"categories_sizes":[],"default_left":[0,0,0,0,0,0,0,0,0,0,0,0,0,0,0,0,0,0,0,0,0,0,0,0,0],"id":5,"left_children":[1,3,5,7,9,11,-1,13,15,17,19,21,23,-1,-1,-1,-1,-1,-1,-1,-1,-1,-1,-1,-1],"loss_changes":[2.0269548E2,5.065547E1,2.2295067E1,1.0813278E1,1.3434472E1,3.3075203E1,0E0,1.142709E1,8.683319E-1,1.32383585E1,1.3404072E1,1.6794039E1,1.7099907E1,0E0,0E0,0E0,0E0,0E0,0E0,0E0,0E0,0E0,0E0,0E0,0E0],"parents":[2147483647,0,0,1,1,2,2,3,3,4,4,5,5,7,7,8,8,9,9,10,10,11,11,12,12],"right_children":[2,4,6,8,10,12,-1,14,16,18,20,22,24,-1,-1,-1,-1,-1,-1,-1,-1,-1,-1,-1,-1],"split_conditions":[4.522E3,4E0,4.732E3,1.2400519E2,5E0,2E0,6.480452E1,2.1E1,4.363E3,4.8570392E2,1.6271428E2,4.4535713E3,5.5680066E2,-1.1392115E1,3.666992E-2,-1.3504395E1,-7.518262E0,3.9424317E0,-9.343262E-1,-2.863086E0,1.5625489E0,-4.677881E0,1.1157227E0,8.160108E0,-2.666504E-1],"split_indices":[39,3,38,49,3,3,0,2,39,35,56,46,37,0,0,0,0,0,0,0,0,0,0,0,0],"split_type":[0,0,0,0,0,0,0,0,0,0,0,0,0,0,0,0,0,0,0,0,0,0,0,0,0],"sum_hessian":[6.68E2,3.67E2,3.01E2,2.25E2,1.42E2,2.18E2,8.3E1,3.7E1,1.88E2,7E1,7.2E1,6.9E1,1.49E2,1.6E1,2.1E1,1.32E2,5.6E1,5.7E1,1.3E1,5.9E1,1.3E1,1.9E1,5E1,1.37E2,1.2E1],"tree_param":{"num_deleted":"0","num_feature":"58","num_nodes":"25","size_leaf_vector":"1"}},{"base_weights":[-7.245283E-2,-5.5452865E-1,2.5987262E-1,8.4210527E-1,-7.175258E-1,1.02643855E-1,9.6503496E-1,4.864865E-2,2.857143E-2,-7.7321815E-1,2.173913E-2,-2.580645E-1,2.857143E-1,4.9593497E-2,3.809524E-2,-4.6953406E-2,-2.5945947E-2,4.4444446E-2,-2.7745664E-2,-1.3043478E-2,2.428115E-2],"categories":[],"categories_nodes":[],"categories_segments":[],"categories_sizes":[],"default_left":[0,0,0,0,0,0,0,0,0,0,0,0,0,0,0,0,0,0,0,0,0],"id":6,"left_children":[1,3,5,7,9,11,13,-1,-1,15,-1,17,19,-1,-1,-1,-1,-1,-1,-1,-1],"loss_changes":[1.06208565E2,6.1880714E1,4.346765E1,7.3155975E-1,1.5730484E1,2.126713E1,1.1894226E-2,0E0,0E0,9.519974E0,0E0,3.718781E1,2.339182E1,0E0,0E0,0E0,0E0,0E0,0E0,0E0,0E0],"parents":[2147483647,0,0,1,1,2,2,3,3,4,4,5,5,6,6,9,9,11,11,12,12],"right_children":[2,4,6,8,10,12,14,-1,-1,16,-1,18,20,-1,-1,-1,-1,-1,-1,-1,-1],"split_conditions":[4.428E3,2E0,2.31E2,7.818315E-1,4.6649517E3,4E0,6.994583E-1,3.788738E1,3.9157276E1,-2.6333334E1,4.1861815E0,3.8E1,4.365E3,4.398164E1,2.0881641E1,-1.0915552E1,-3.8725097E0,2.677539E1,-3.2777832E0,-5.3393555E-1,6.23291E0],"split_indices":[42,16,57,6,32,3,10,0,0,55,0,4,46,0,0,0,0,0,0,0,0],"split_type":[0,0,0,0,0,0,0,0,0,0,0,0,0,0,0,0,0,0,0,0,0],"sum_hessian":[6.62E2,2.7E2,3.92E2,2.8E1,2.42E2,3.21E2,7.1E1,1.8E1,1E1,2.31E2,1.1E1,1.08E2,2.13E2,6.1E1,1E1,1.39E2,9.2E1,2.2E1,8.6E1,5.7E1,1.56E2],"tree_param":{"num_deleted":"0","num_feature":"58","num_nodes":"21","size_leaf_vector":"1"}},{"base_weights":[-7.900852E-2,-5.118881E-1,4.57539E-1,-7.39726E-1,5.8536585E-2,2.763466E-1,9.668874E-1,9.756097E-2,-8.1104034E-1,-6.0465115E-1,2.3312883E-1,-4.3678162E-1,4.5747802E-1,3.809524E-2,4.9618322E-2,-1.904762E-2,2.857143E-2,4.3478264E-3,-4.2761695E-2,-4.782609E-2,-9.52381E-3,2.5806451E-2,-7.042254E-3,2.173913E-2,-3.6923077E-2,2.9126216E-2,-3.636364E-2],"categories":[],"categories_nodes":[],"categories_segments":[],"categories_sizes":[],"default_left":[0,0,0,0,0,0,0,0,0,0,0,0,0,0,0,0,0,0,0,0,0,0,0,0,0,0,0],"id":7,"left_children":[1,3,5,7,9,11,13,15,17,19,21,23,25,-1,-1,-1,-1,-1,-1,-1,-1,-1,-1,-1,-1,-1,-1],"loss_changes":[1.5004123E2,4.6483917E1,2.6492085E1,1.5295624E1,1.1938694E1,2.7677687E1,1.6273499E-2,4.7572594E0,9.383148E0,3.0422268E0,8.661875E0,1.1598141E1,2.5471172E1,0E0,0E0,0E0,0E0,0E0,0E0,0E0,0E0,0E0,0E0,0E0,0E0,0E0,0E0],"parents":[2147483647,0,0,1,1,2,2,3,3,4,4,5,5,6,6,7,7,8,8,9,9,10,10,11,11,12,12],"right_children":[2,4,6,8,10,12,14,16,18,20,22,24,26,-1,-1,-1,-1,-1,-1,-1,-1,-1,-1,-1,-1,-1,-1],"split_conditions":[4.522E3,4.6529326E3,5.056E3,1.2973802E2,-2.4042857E2,4.379E3,-3E0,-4.9666668E1,3E0,2.0931464E-1,5E0,8E0,5.052E3,2.5540918E1,5.8637745E1,-4.052295E0,2.074829E0,1.0001025E1,-9.619776E0,-7.1505127E0,-1.8108886E0,4.303613E0,-1.421875E-1,5.2124515E0,-4.1805663E0,4.9996095E0,-5.6496584E-1],"split_indices":[39,32,39,50,56,42,26,55,16,11,3,16,40,0,0,0,0,0,0,0,0,0,0,0,0,0,0],"split_type":[0,0,0,0,0,0,0,0,0,0,0,0,0,0,0,0,0,0,0,0,0,0,0,0,0,0,0],"sum_hessian":[6.45E2,3.57E2,2.88E2,2.55E2,1.02E2,2.13E2,7.5E1,2E1,2.35E2,2.1E1,8.1E1,4.3E1,1.7E2,1E1,6.5E1,1E1,1E1,1.1E1,2.24E2,1.1E1,1E1,4.6E1,3.5E1,1.1E1,3.2E1,1.54E2,1.6E1],"tree_param":{"num_deleted":"0","num_feature":"58","num_nodes":"27","size_leaf_vector":"1"}},{"base_weights":[-8.250573E-2,-5.3426576E-1,4.605042E-1,-8.081264E-1,-8.791209E-2,1.7191978E-1,8.663968E-1,1.0810811E-2,-8.992629E-1,4.255319E-2,-4.3589745E-2,5.116279E-1,-3.7037036E-1,4.3478264E-3,9.4222224E-1,-4.9116608E-2,-3.52E-2,-1.1949685E-2,3.1168832E-2,-7.54717E-3,3.6196318E-2,-3.5593223E-2,-5.194805E-3,2.857143E-2,4.878049E-2],"categories":[],"categories_nodes":[],"categories_segments":[],"categories_sizes":[],"default_left":[0,0,0,0,0,0,0,0,0,0,0,0,0,0,0,0,0,0,0,0,0,0,0,0,0],"id":8,"left_children":[1,3,5,7,9,11,13,-1,15,17,-1,19,21,-1,23,-1,-1,-1,-1,-1,-1,-1,-1,-1,-1],"loss_changes":[1.6067853E2,4.3664825E1,3.477297E1,2.0775345E1,1.3978333E1,3.22412E1,7.2580643E0,0E0,2.9550629E0,1.9289152E1,0E0,1.5175896E1,6.1054783E0,0E0,1.1139908E0,0E0,0E0,0E0,0E0,0E0,0E0,0E0,0E0,0E0,0E0],"parents":[2147483647,0,0,1,1,2,2,3,3,4,4,5,5,6,6,8,8,9,9,11,11,12,12,14,14],"right_children":[2,4,6,8,10,12,14,-1,16,18,-1,20,22,-1,24,-1,-1,-1,-1,-1,-1,-1,-1,-1,-1],"split_conditions":[4.522E3,4E0,4.824E3,1.311398E2,3.8584082E2,3.0035715E1,-1.8966667E2,1.9710938E0,4.339E3,4.365E3,-6.1356936E0,4.462E3,4.643E3,1.7807398E1,4.402533E3,-1.1888794E1,-6.467749E0,-4.3354493E-1,4.793677E0,-3.6535645E-1,7.190479E0,-2.2555664E0,-5.367188E-1,1.9587574E1,2.9243408E1],"split_indices":[39,3,39,50,49,52,55,0,39,46,0,43,40,0,48,0,0,0,0,0,0,0,0,0,0],"split_type":[0,0,0,0,0,0,0,0,0,0,0,0,0,0,0,0,0,0,0,0,0,0,0,0,0],"sum_hessian":[6.54E2,3.57E2,2.97E2,2.21E2,1.36E2,1.74E2,1.23E2,1.8E1,2.03E2,1.17E2,1.9E1,1.07E2,6.7E1,1.1E1,1.12E2,1.41E2,6.2E1,7.9E1,3.8E1,2.6E1,8.1E1,2.9E1,3.8E1,1E1,1.02E2],"tree_param":{"num_deleted":"0","num_feature":"58","num_nodes":"25","size_leaf_vector":"1"}},{"base_weights":[-9.8385856E-2,-5.420827E-1,4.1930115E-1,-8.1797755E-1,-6.225681E-2,1.9570406E-1,9.2896175E-1,-9.8293513E-1,-4.9673203E-1,-4.2857144E-2,6.278027E-2,-3.2402235E-1,5.809129E-1,2.9032258E-2,4.9673203E-2,-3.809524E-2,-4.981685E-2,1.3793103E-2,-3.36E-2,2.3076924E-2,-1.0526316E-2,-4.864865E-2,-7.692308E-3,3.674419E-2,-3.3333335E-2],"categories":[],"categories_nodes":[],"categories_segments":[],"categories_sizes":[],"default_left":[0,0,0,0,0,0,0,0,0,0,0,0,0,0,0,0,0,0,0,0,0,0,0,0,0],"id":9,"left_children":[1,3,5,7,9,11,13,15,17,-1,19,21,23,-1,-1,-1,-1,-1,-1,-1,-1,-1,-1,-1,-1],"loss_changes":[1.4953098E2,4.6374245E1,3.4153664E1,1.154657E1,1.279855E1,4.2036682E1,1.7673264E0,5.441284E-2,1.0451633E1,0E0,1.2200214E1,9.809174E0,2.3391914E1,0E0,0E0,0E0,0E0,0E0,0E0,0E0,0E0,0E0,0E0,0E0,0E0],"parents":[2147483647,0,0,1,1,2,2,3,3,4,4,5,5,6,6,7,7,8,8,10,10,11,11,12,12],"right_children":[2,4,6,8,10,12,14,16,18,-1,20,22,24,-1,-1,-1,-1,-1,-1,-1,-1,-1,-1,-1,-1],"split_conditions":[4.522E3,4E0,4.732E3,4.339E3,4.105E3,1E0,1.3133163E2,1.0882249E2,1.2400519E2,-3.1043212E0,5E0,4.4324287E3,5.5680066E2,1.6801832E1,5.846577E1,-9.384277E0,-1.079436E1,1.8725342E0,-6.014722E0,3.783374E0,-4.1186523E-1,-5.7052E0,-5.7634276E-1,7.8454833E0,-5.098877E-1],"split_indices":[39,3,38,39,39,14,49,49,49,0,3,46,37,0,0,0,0,0,0,0,0,0,0,0,0],"split_type":[0,0,0,0,0,0,0,0,0,0,0,0,0,0,0,0,0,0,0,0,0,0,0,0,0],"sum_hessian":[6.5E2,3.5E2,3E2,2.22E2,1.28E2,2.09E2,9.1E1,1.46E2,7.6E1,1.7E1,1.11E2,8.9E1,1.2E2,1.5E1,7.6E1,1E1,1.36E2,1.4E1,6.2E1,4.5E1,6.6E1,1.8E1,7.1E1,1.07E2,1.3E1],"tree_param":{"num_deleted":"0","num_feature":"58","num_nodes":"25","size_leaf_vector":"1"}},{"base_weights":[-6.937269E-2,-3.9289448E-1,7.067669E-1,-7.3967683E-1,8.977556E-2,3.4042552E-1,9.034749E-1,-8.6021505E-2,-8.688172E-1,-4.814815E-2,1.6533333E-1,-4.494382E-2,4.9056605E-2,9.613734E-1,1.8518519E-2,9.836066E-3,-3.0303031E-2,-0E0,-4.580499E-2,-3.783784E-2,1.3274336E-2,-2.2222223E-2,1.7777778E-2,3.3333335E-2,4.9758457E-2],"categories":[],"categories_nodes":[],"categories_segments":[],"categories_sizes":[],"default_left":[0,0,0,0,0,0,0,0,0,0,0,0,0,0,0,0,0,0,0,0,0,0,0,0,0],"id":10,"left_children":[1,3,5,7,9,11,13,15,17,-1,19,21,-1,23,-1,-1,-1,-1,-1,-1,-1,-1,-1,-1,-1],"loss_changes":[1.7025778E2,8.012524E1,1.4222641E1,2.3471725E1,1.6027893E1,1.7429108E1,3.819107E0,6.8968477E0,9.551086E0,0E0,1.7416162E1,7.1990013E0,0E0,8.28598E-1,0E0,0E0,0E0,0E0,0E0,0E0,0E0,0E0,0E0,0E0,0E0],"parents":[2147483647,0,0,1,1,2,2,3,3,4,4,5,5,6,6,7,7,8,8,10,10,11,11,13,13],"right_children":[2,4,6,8,10,12,14,16,18,-1,20,22,-1,24,-1,-1,-1,-1,-1,-1,-1,-1,-1,-1,-1],"split_conditions":[4.664E3,4E0,2E0,2.2315213E2,-9.700639E-1,4.732E3,8.3592546E-1,2.2285715E1,3E0,-6.4656253E0,4.123E3,4.819E3,5.604253E1,4.4291333E3,1.8215918E1,5.054199E-1,-1.3139893E0,-2.847168E0,-8.916138E0,-3.9526367E0,2.0704834E0,-1.3245118E0,3.7490234E0,1.2623584E1,1.1872705E1],"split_indices":[39,3,3,35,10,38,10,52,16,0,39,40,0,48,0,0,0,0,0,0,0,0,0,0,0],"split_type":[0,0,0,0,0,0,0,0,0,0,0,0,0,0,0,0,0,0,0,0,0,0,0,0,0],"sum_hessian":[6.77E2,4.78E2,1.99E2,2.78E2,2E2,7E1,1.29E2,4.6E1,2.32E2,1.3E1,1.87E2,4.4E1,2.6E1,1.16E2,1.3E1,3E1,1.6E1,1.2E1,2.2E2,1.8E1,1.69E2,2.2E1,2.2E1,1.3E1,1.03E2],"tree_param":{"num_deleted":"0","num_feature":"58","num_nodes":"25","size_leaf_vector":"1"}},{"base_weights":[-5.0274942E-2,-4.951049E-1,5.1878357E-1,-8.03532E-1,3.8022812E-2,2.6625386E-1,8.607595E-1,2.8571428E-3,-8.7350833E-1,-6.8292683E-1,1.7040358E-1,-1.7094018E-1,5.120773E-1,9.5566505E-1,1.4285715E-2,-4.8082598E-2,-2.4691358E-2,-1.904762E-2,-4.761905E-2,2.7102804E-2,-8.547009E-3,7.54717E-3,-2.1538462E-2,-9.756098E-3,3.4131736E-2,3.9534885E-2,4.9689442E-2],"categories":[],"categories_nodes":[],"categories_segments":[],"categories_sizes":[],"default_left":[0,0,0,0,0,0,0,0,0,0,0,0,0,0,0,0,0,0,0,0,0,0,0,0,0,0,0],"id":11,"left_children":[1,3,5,7,9,11,13,-1,15,17,19,21,23,25,-1,-1,-1,-1,-1,-1,-1,-1,-1,-1,-1,-1,-1],"loss_changes":[1.6124838E2,5.879937E1,2.4022774E1,1.3666351E1,1.260853E1,1.7400581E1,6.330612E0,0E0,6.773773E0,1.4866428E0,1.41913595E1,4.9251413E0,1.255057E1,2.4545288E-1,0E0,0E0,0E0,0E0,0E0,0E0,0E0,0E0,0E0,0E0,0E0,0E0,0E0],"parents":[2147483647,0,0,1,1,2,2,3,3,4,4,5,5,6,6,8,8,9,9,10,10,11,11,12,12,13,13],"right_children":[2,4,6,8,10,12,14,-1,16,18,20,22,24,26,-1,-1,-1,-1,-1,-1,-1,-1,-1,-1,-1,-1,-1],"split_conditions":[4.524E3,4E0,4.92E3,1.3099666E2,4.121E3,3E0,7.638886E-1,1.8486328E-1,6.3333335E0,4.3175E3,5E0,9.357143E1,4.296E3,1E0,1.1174903E1,-9.558838E0,-3.2763183E0,-1.3458008E0,-4.1846437E0,5.1737304E0,-2.1044922E-1,5.473389E-1,-1.518335E0,-6.9655764E-1,5.518921E0,3.0415113E1,2.2055836E1],"split_indices":[39,3,39,35,39,3,10,0,55,47,3,56,40,27,0,0,0,0,0,0,0,0,0,0,0,0,0],"split_type":[0,0,0,0,0,0,0,0,0,0,0,0,0,0,0,0,0,0,0,0,0,0,0,0,0,0,0],"sum_hessian":[6.36E2,3.57E2,2.79E2,2.26E2,1.31E2,1.61E2,1.18E2,1.7E1,2.09E2,2E1,1.11E2,5.8E1,1.03E2,1.01E2,1.7E1,1.69E2,4E1,1E1,1E1,5.3E1,5.8E1,2.6E1,3.2E1,2E1,8.3E1,2.1E1,8E1],"tree_param":{"num_deleted":"0","num_feature":"58","num_nodes":"27","size_leaf_vector":"1"}},{"base_weights":[-2.1068472E-2,-4.3983403E-1,4.7775948E-1,-7.0069605E-1,-5.4607507E-2,2.9398665E-1,4.9685534E-2,-9.5057034E-1,-3.0769232E-1,-3.6601308E-1,2.8368795E-1,-2.2222222E-1,5.1428574E-1,-4.8953976E-2,-3.2E-2,3.9130434E-2,-2.3809524E-2,-3.521127E-2,-3.6144578E-3,3.3846155E-2,-2.5974025E-3,-4.782609E-2,-3.539823E-3,3.0584192E-2,-3.2E-2],"categories":[],"categories_nodes":[],"categories_segments":[],"categories_sizes":[],"default_left":[0,0,0,0,0,0,0,0,0,0,0,0,0,0,0,0,0,0,0,0,0,0,0,0,0],"id":12,"left_children":[1,3,5,7,9,11,-1,13,15,17,19,21,23,-1,-1,-1,-1,-1,-1,-1,-1,-1,-1,-1,-1],"loss_changes":[1.3891379E2,3.6308357E1,2.8631142E1,2.1016182E1,1.5485265E1,2.5587357E1,0E0,8.510132E-1,1.5710144E1,7.574136E0,9.322445E0,7.471592E0,1.7902718E1,0E0,0E0,0E0,0E0,0E0,0E0,0E0,0E0,0E0,0E0,0E0,0E0],"parents":[2147483647,0,0,1,1,2,2,3,3,4,4,5,5,7,7,8,8,9,9,10,10,11,11,12,12],"right_children":[2,4,6,8,10,12,-1,14,16,18,20,22,24,-1,-1,-1,-1,-1,-1,-1,-1,-1,-1,-1,-1],"split_conditions":[4.524E3,4E0,4.732E3,4.332E3,-1.1571428E1,2E0,3.7038845E1,4.298E3,1E0,4.386533E3,3.4993277E2,4.424143E3,5.5680066E2,-9.630908E0,-5.180908E0,1.8388672E-1,-4.0763917E0,-4.3886476E0,-8.323731E-1,4.419214E0,-5.744629E-2,-5.951294E0,-4.053711E-1,4.1121826E0,-1.3539795E0],"split_indices":[39,3,38,39,54,3,0,39,1,48,35,46,37,0,0,0,0,0,0,0,0,0,0,0,0],"split_type":[0,0,0,0,0,0,0,0,0,0,0,0,0,0,0,0,0,0,0,0,0,0,0,0,0],"sum_hessian":[6.64E2,3.61E2,3.03E2,2.15E2,1.46E2,2.24E2,7.9E1,1.31E2,8.4E1,7.6E1,7E1,6.7E1,1.57E2,1.19E2,1.2E1,1.1E1,7.3E1,3.5E1,4.1E1,3.2E1,3.8E1,1.1E1,5.6E1,1.45E2,1.2E1],"tree_param":{"num_deleted":"0","num_feature":"58","num_nodes":"25","size_leaf_vector":"1"}},{"base_weights":[-5.9889678E-2,-4.7285464E-1,2.7753934E-1,-7.952522E-1,-8.510638E-3,-1.01333335E-1,7.1384615E-1,-4.9771693E-2,-4.2016807E-1,-3.448276E-2,8.695652E-2,-2.7062705E-1,6.0273975E-1,9.7109824E-1,4.1830066E-1,1.2820514E-2,-3.7037037E-2,2.1518989E-2,-6.2015504E-3,-1.831502E-2,2.9032258E-2,4.528302E-2,-9.52381E-3,3.809524E-2,4.9673203E-2,1.4084507E-3,3.73494E-2],"categories":[],"categories_nodes":[],"categories_segments":[],"categories_sizes":[],"default_left":[0,0,0,0,0,0,0,0,0,0,0,0,0,0,0,0,0,0,0,0,0,0,0,0,0,0,0],"id":13,"left_children":[1,3,5,7,9,11,13,-1,15,-1,17,19,21,23,25,-1,-1,-1,-1,-1,-1,-1,-1,-1,-1,-1,-1],"loss_changes":[8.848088E1,4.2736935E1,5.7810165E1,1.2442688E1,7.6706495E0,2.243065E1,1.2151726E1,0E0,1.3000071E1,0E0,7.526096E0,1.2445115E1,8.856528E0,2.6245117E-2,9.799174E0,0E0,0E0,0E0,0E0,0E0,0E0,0E0,0E0,0E0,0E0,0E0,0E0],"parents":[2147483647,0,0,1,1,2,2,3,3,4,4,5,5,6,6,8,8,10,10,11,11,12,12,13,13,14,14],"right_children":[2,4,6,8,10,12,14,-1,16,-1,18,20,22,24,26,-1,-1,-1,-1,-1,-1,-1,-1,-1,-1,-1,-1],"split_conditions":[4.44E3,4E0,2.7142857E1,1.6571428E1,1.5313966E2,4.6649517E3,1.2E1,-9.849365E0,4.4107143E1,-1.4648193E0,2.0457076E2,4.732E3,2.9922217E2,4.344E3,4E0,1.7468262E-1,-5.6537356E0,1.1541016E0,-9.7363286E-2,-1.5124756E0,1.0490845E1,7.4942627E0,-3.3263428E0,3.46387E1,5.028567E1,4.3015137E-1,6.403003E0],"split_indices":[46,3,56,56,50,32,16,0,52,0,50,38,50,41,3,0,0,0,0,0,0,0,0,0,0,0,0],"split_type":[0,0,0,0,0,0,0,0,0,0,0,0,0,0,0,0,0,0,0,0,0,0,0,0,0,0,0],"sum_hessian":[6.34E2,2.85E2,3.49E2,1.68E2,1.17E2,1.87E2,1.62E2,1.09E2,5.9E1,1.4E1,1.03E2,1.51E2,3.6E1,8.6E1,7.6E1,1.9E1,4E1,3.9E1,6.4E1,1.36E2,1.5E1,2.6E1,1E1,1E1,7.6E1,3.5E1,4.1E1],"tree_param":{"num_deleted":"0","num_feature":"58","num_nodes":"27","size_leaf_vector":"1"}},{"base_weights":[-8.830364E-2,-4.0286055E-1,4.9448124E-1,-7.046843E-1,2.2922637E-2,5.790754E-1,-3.255814E-1,-0E0,-8.337349E-1,-4.2424243E-2,1.1356467E-1,-3.0434782E-2,6.478149E-1,-1.904762E-2,-1.3043478E-2,1.8867925E-2,-4.0000003E-2,-4.9803924E-2,-2.857143E-2,-4.8E-2,1.0238907E-2,4.568528E-2,1.865285E-2],"categories":[],"categories_nodes":[],"categories_segments":[],"categories_sizes":[],"default_left":[0,0,0,0,0,0,0,0,0,0,0,0,0,0,0,0,0,0,0,0,0,0,0],"id":14,"left_children":[1,3,5,7,9,11,13,15,17,-1,19,-1,21,-1,-1,-1,-1,-1,-1,-1,-1,-1,-1],"loss_changes":[1.1843202E2,5.391864E1,1.5807144E1,2.232576E1,1.3831261E1,1.6975578E1,2.7348518E-2,1.1773584E1,8.551529E0,0E0,1.5619182E1,0E0,1.4038879E1,0E0,0E0,0E0,0E0,0E0,0E0,0E0,0E0,0E0,0E0],"parents":[2147483647,0,0,1,1,2,2,3,3,4,4,5,5,6,6,7,7,8,8,10,10,12,12],"right_children":[2,4,6,8,10,12,14,16,18,-1,20,-1,22,-1,-1,-1,-1,-1,-1,-1,-1,-1,-1],"split_conditions":[4.596E3,4E0,5.963E3,2.2315213E2,-9.6793777E-1,4.347857E3,4.6649517E3,2.2285715E1,4.33E3,-4.811597E0,4.077E3,-3.6729248E0,1.9E1,-1.2106446E0,-2.5839844E-1,1.2309326E0,-1.4368409E0,-8.656885E0,-4.5107913E0,-7.042334E0,9.6660155E-1,2.2965406E1,3.5553467E0],"split_indices":[39,3,40,35,10,46,32,52,39,0,39,0,16,0,0,0,0,0,0,0,0,0,0],"split_type":[0,0,0,0,0,0,0,0,0,0,0,0,0,0,0,0,0,0,0,0,0,0,0],"sum_hessian":[6.45E2,4.19E2,2.26E2,2.45E2,1.74E2,2.05E2,2.1E1,3.8E1,2.07E2,1.6E1,1.58E2,1.1E1,1.94E2,1E1,1.1E1,2.6E1,1.2E1,1.27E2,8E1,1.2E1,1.46E2,9.8E1,9.6E1],"tree_param":{"num_deleted":"0","num_feature":"58","num_nodes":"23","size_leaf_vector":"1"}},{"base_weights":[-9.660377E-2,-2.4331321E-1,9.221557E-1,-6.096998E-1,-2.4759285E-2,2.4E-2,4.9650352E-2,-8.7066245E-1,1.02564104E-1,-1.6387337E-1,3.6649215E-1,-4.618182E-2,-2.5581395E-2,1.882353E-2,-3.0303031E-2,-1.0848126E-2,3.548387E-2,3.271028E-2,-0E0],"categories":[],"categories_nodes":[],"categories_segments":[],"categories_sizes":[],"default_left":[0,0,0,0,0,0,0,0,0,0,0,0,0,0,0,0,0,0,0],"id":15,"left_children":[1,3,5,7,9,-1,-1,11,13,15,17,-1,-1,-1,-1,-1,-1,-1,-1],"loss_changes":[9.9130516E1,4.6396038E1,2.3775024E0,4.0286438E1,1.981482E1,0E0,0E0,2.778305E0,1.146875E1,1.2528963E1,1.0069971E1,0E0,0E0,0E0,0E0,0E0,0E0,0E0,0E0],"parents":[2147483647,0,0,1,1,2,2,3,3,4,4,7,7,8,8,9,9,10,10],"right_children":[2,4,6,8,10,-1,-1,12,14,16,18,-1,-1,-1,-1,-1,-1,-1,-1],"split_conditions":[4.732E3,4.338E3,3.2824698E2,4.6649517E3,7E0,7.4912844E0,4.662312E1,4.304E3,4.8570392E2,6.310263E2,6E1,-8.651489E0,-3.933008E0,1.8027588E0,-1.3614258E0,-7.202393E-1,3.198291E0,5.8801026E0,-3.3742675E-1],"split_indices":[38,39,33,32,17,0,0,39,35,50,18,0,0,0,0,0,0,0,0],"split_type":[0,0,0,0,0,0,0,0,0,0,0,0,0,0,0,0,0,0,0],"sum_hessian":[6.62E2,5.79E2,8.3E1,2.16E2,3.63E2,1.2E1,7.1E1,1.58E2,5.8E1,2.68E2,9.5E1,1.37E2,2.1E1,4.2E1,1.6E1,2.53E2,1.5E1,5.3E1,4.2E1],"tree_param":{"num_deleted":"0","num_feature":"58","num_nodes":"19","size_leaf_vector":"1"}},{"base_weights":[-6.9785886E-2,-3.5428572E-1,5.736434E-1,-6.237817E-1,2.7548209E-2,2.9493088E-1,9.239766E-1,-9.4736844E-1,-3.220974E-1,-4.8275862E-2,1.1343284E-1,4.5595855E-1,-4.8E-2,4.962963E-2,3.2432433E-2,-3.9534885E-2,-4.878049E-2,3.3333335E-2,-2.1576764E-2,-9.248555E-3,2.1472393E-2,-1.2658228E-3,3.9130434E-2],"categories":[],"categories_nodes":[],"categories_segments":[],"categories_sizes":[],"default_left":[0,0,0,0,0,0,0,0,0,0,0,0,0,0,0,0,0,0,0,0,0,0,0],"id":16,"left_children":[1,3,5,7,9,11,13,15,17,-1,19,21,-1,-1,-1,-1,-1,-1,-1,-1,-1,-1,-1],"loss_changes":[1.1551813E2,4.5028522E1,1.8757519E1,2.4887222E1,1.5534724E1,2.2144388E1,1.293335E0,1.6073608E-1,1.4589647E1,0E0,1.5834988E1,1.5180534E1,0E0,0E0,0E0,0E0,0E0,0E0,0E0,0E0,0E0,0E0,0E0],"parents":[2147483647,0,0,1,1,2,2,3,3,4,4,5,5,6,6,7,7,8,8,10,10,11,11],"right_children":[2,4,6,8,10,12,14,16,18,-1,20,22,-1,-1,-1,-1,-1,-1,-1,-1,-1,-1,-1],"split_conditions":[4.665E3,4E0,5.056E3,4.298E3,4.077E3,5.5680066E2,1.84E2,-6.839194E-1,6E0,-6.6221437E0,3.175287E2,4E0,-1.1141113E0,4.429197E1,2.383142E1,-6.7914796E0,-9.093091E0,1.9485987E1,-3.0294921E0,-6.8422854E-1,3.394629E0,-3.511963E-1,5.5861087E0],"split_indices":[39,3,39,39,39,37,52,11,16,0,37,3,0,0,0,0,0,0,0,0,0,0,0],"split_type":[0,0,0,0,0,0,0,0,0,0,0,0,0,0,0,0,0,0,0,0,0,0,0],"sum_hessian":[6.3E2,4.37E2,1.93E2,2.56E2,1.81E2,1.08E2,8.5E1,1.23E2,1.33E2,1.4E1,1.67E2,9.6E1,1.2E1,6.7E1,1.8E1,2.1E1,1.02E2,1.3E1,1.2E2,8.6E1,8.1E1,3.9E1,5.7E1],"tree_param":{"num_deleted":"0","num_feature":"58","num_nodes":"23","size_leaf_vector":"1"}},{"base_weights":[-7.4900396E-2,-3.447514E-1,6.210826E-1,-5.66108E-1,-2.1680217E-2,3.057325E-1,8.717949E-1,-8.8353413E-1,-2.9065743E-1,-8.022922E-2,4.761905E-2,5.185185E-1,-4.782609E-2,1.904762E-2,9.257143E-1,-4.9659863E-2,-3.592233E-2,-2.8654972E-2,5.882353E-3,-3.9534885E-2,9.771987E-4,-1.9607844E-3,4.235294E-2,2.857143E-2,4.8387095E-2],"categories":[],"categories_nodes":[],"categories_segments":[],"categories_sizes":[],"default_left":[0,0,0,0,0,0,0,0,0,0,0,0,0,0,0,0,0,0,0,0,0,0,0,0,0],"id":17,"left_children":[1,3,5,7,9,11,13,15,17,19,-1,21,-1,-1,23,-1,-1,-1,-1,-1,-1,-1,-1,-1,-1],"loss_changes":[1.179589E2,3.2353924E1,1.3742134E1,2.3347946E1,1.0560298E1,2.1332308E1,2.4041061E0,1.897171E0,1.6697788E1,1.2377283E1,0E0,1.2385185E1,0E0,0E0,1.0263596E0,0E0,0E0,0E0,0E0,0E0,0E0,0E0,0E0,0E0,0E0],"parents":[2147483647,0,0,1,1,2,2,3,3,4,4,5,5,6,6,7,7,8,8,9,9,11,11,14,14],"right_children":[2,4,6,8,10,12,14,16,18,20,-1,22,-1,-1,24,-1,-1,-1,-1,-1,-1,-1,-1,-1,-1],"split_conditions":[4.678E3,4E0,4.92E3,4.307E3,4.6065E3,5.5680066E2,-7.818315E-1,4.211E3,4.5268228E3,-2.9585715E2,5.2414673E1,2E0,-1.0583985E0,1.2881055E1,4.2442093E2,-9.051905E0,-5.022266E0,-4.0977783E0,4.1149902E-1,-6.29104E0,4.1015625E-2,-8.6621094E-1,5.306812E0,1.6236938E1,2.697859E1],"split_indices":[39,3,39,39,38,37,6,39,34,56,0,3,0,0,35,0,0,0,0,0,0,0,0,0,0],"split_type":[0,0,0,0,0,0,0,0,0,0,0,0,0,0,0,0,0,0,0,0,0,0,0,0,0],"sum_hessian":[6.27E2,4.52E2,1.75E2,2.68E2,1.84E2,7.8E1,9.7E1,1.24E2,1.44E2,1.74E2,1E1,6.7E1,1.1E1,1E1,8.7E1,7.3E1,5.1E1,8.5E1,5.9E1,2.1E1,1.53E2,2.5E1,4.2E1,1E1,7.7E1],"tree_param":{"num_deleted":"0","num_feature":"58","num_nodes":"25","size_leaf_vector":"1"}},{"base_weights":[-6.66162E-2,-3.7544274E-1,4.8421052E-1,-6.065259E-1,-6.116208E-3,2.674772E-1,9.659864E-1,9.876543E-2,-7.346939E-1,-3.0463576E-1,2.4858756E-1,-3.7142858E-2,3.8644066E-1,3.809524E-2,4.96063E-2,4.8E-2,-1.4035088E-2,1.904762E-2,-3.942993E-2,-4.848485E-2,-5.882353E-3,2.2222223E-3,4.418605E-2,2.5296444E-2,-1.627907E-2],"categories":[],"categories_nodes":[],"categories_segments":[],"categories_sizes":[],"default_left":[0,0,0,0,0,0,0,0,0,0,0,0,0,0,0,0,0,0,0,0,0,0,0,0,0],"id":18,"left_children":[1,3,5,7,9,11,13,15,17,19,21,-1,23,-1,-1,-1,-1,-1,-1,-1,-1,-1,-1,-1,-1],"loss_changes":[1.12448494E2,3.6141815E1,2.4669823E1,2.3584381E1,1.2469433E1,1.9915264E1,1.4137268E-2,1.3370553E1,1.3410759E1,9.33206E0,1.1455104E1,0E0,1.2631397E1,0E0,0E0,0E0,0E0,0E0,0E0,0E0,0E0,0E0,0E0,0E0,0E0],"parents":[2147483647,0,0,1,1,2,2,3,3,4,4,5,5,6,6,7,7,8,8,9,9,10,10,12,12],"right_children":[2,4,6,8,10,12,14,16,18,20,22,-1,24,-1,-1,-1,-1,-1,-1,-1,-1,-1,-1,-1,-1],"split_conditions":[4.593E3,4E0,5.305E3,1.397935E2,-1.2714286E1,4.33E3,-2.1772324E-1,1E0,-9.8046917E-1,4.49E3,3.5142857E1,-5.5927734E0,5.052E3,2.7138868E1,4.4117992E1,5.5837405E-1,-5.9594727E-1,1.1940918E0,-6.0507812E0,-4.446533E0,-1.4651368E0,1.9538574E-1,8.240234E0,3.5913086E0,-1.2624024E0],"split_indices":[39,3,39,50,54,42,11,1,11,42,51,0,40,0,0,0,0,0,0,0,0,0,0,0,0],"split_type":[0,0,0,0,0,0,0,0,0,0,0,0,0,0,0,0,0,0,0,0,0,0,0,0,0],"sum_hessian":[6.6E2,4.23E2,2.37E2,2.6E2,1.63E2,1.64E2,7.3E1,4E1,2.2E2,7.5E1,8.8E1,1.7E1,1.47E2,1E1,6.3E1,1.2E1,2.8E1,1E1,2.1E2,1.6E1,5.9E1,6.7E1,2.1E1,1.26E2,2.1E1],"tree_param":{"num_deleted":"0","num_feature":"58","num_nodes":"25","size_leaf_vector":"1"}},{"base_weights":[-9.197194E-2,-4.790419E-1,1.5581098E-1,-6.5782493E-1,6.4E-2,5.805515E-2,8.6315787E-1,-8.489796E-1,-3.0075186E-1,-1.8947369E-1,4.1935485E-2,-3.3766234E-1,2.570806E-1,1.904762E-2,4.9333334E-2,-2.0000001E-2,-4.5971565E-2,-3.508772E-2,-0E0,-3.783784E-2,8.474576E-3,2.7659575E-2,-2.8108109E-2,2.1613834E-2,-1.4159292E-2],"categories":[],"categories_nodes":[],"categories_segments":[],"categories_sizes":[],"default_left":[0,0,0,0,0,0,0,0,0,0,0,0,0,0,0,0,0,0,0,0,0,0,0,0,0],"id":19,"left_children":[1,3,5,7,9,11,13,15,17,19,-1,21,23,-1,-1,-1,-1,-1,-1,-1,-1,-1,-1,-1,-1],"loss_changes":[6.1563156E1,2.4341255E1,2.7046104E1,1.2738625E1,1.2352489E1,2.7175484E1,2.6410065E0,3.6909637E0,8.02005E0,9.73679E0,0E0,2.3255093E1,2.1783966E1,0E0,0E0,0E0,0E0,0E0,0E0,0E0,0E0,0E0,0E0,0E0,0E0],"parents":[2147483647,0,0,1,1,2,2,3,3,4,4,5,5,6,6,7,7,8,8,9,9,11,11,12,12],"right_children":[2,4,6,8,10,12,14,16,18,20,-1,22,24,-1,-1,-1,-1,-1,-1,-1,-1,-1,-1,-1,-1],"split_conditions":[4.405E3,4.6649517E3,4.991E3,4.396143E3,2.87E2,2E0,-4.3842856E2,5E0,4.277E3,-6.6E1,6.8174806E0,1.27133415E2,4.7182144E3,4.9381935E1,2.5450098E1,-3.194336E0,-7.6816897E0,-6.65E0,-2.2583008E-1,-3.9517334E0,3.112549E-1,2.1396484E0,-2.849585E0,3.00896E0,-9.4235843E-1],"split_indices":[39,32,38,46,4,3,56,20,39,55,0,49,47,0,0,0,0,0,0,0,0,0,0,0,0],"split_type":[0,0,0,0,0,0,0,0,0,0,0,0,0,0,0,0,0,0,0,0,0,0,0,0,0],"sum_hessian":[6.41E2,2.5E2,3.91E2,1.88E2,6.2E1,3.44E2,4.7E1,1.22E2,6.6E1,4.7E1,1.5E1,1.15E2,2.29E2,1E1,3.7E1,1.7E1,1.05E2,2.8E1,3.8E1,1.8E1,2.9E1,2.3E1,9.2E1,1.73E2,5.6E1],"tree_param":{"num_deleted":"0","num_feature":"58","num_nodes":"25","size_leaf_vector":"1"}},{"base_weights":[-7.158837E-2,-1.807724E-1,4.96E-2,-4.287812E-1,1.3407822E-1,-5.521024E-1,7.4074075E-2,-2.1645021E-1,3.9739415E-1,-4.162896E-2,-1.8042814E-2,-4.3243244E-2,2.1212121E-2,8.219178E-3,-1.9496856E-2,2.599278E-2,-3.548387E-2],"categories":[],"categories_nodes":[],"categories_segments":[],"categories_sizes":[],"default_left":[0,0,0,0,0,0,0,0,0,0,0,0,0,0,0,0,0],"id":20,"left_children":[1,3,-1,5,7,9,11,13,15,-1,-1,-1,-1,-1,-1,-1,-1],"loss_changes":[7.795272E1,4.7543907E1,0E0,2.1135777E1,2.4825481E1,1.452034E1,2.2376558E1,7.663096E0,2.099501E1,0E0,0E0,0E0,0E0,0E0,0E0,0E0,0E0],"parents":[2147483647,0,0,1,1,3,3,4,4,5,5,6,6,7,7,8,8],"right_children":[2,4,-1,6,8,10,12,14,16,-1,-1,-1,-1,-1,-1,-1,-1],"split_conditions":[5.024E3,-1E0,4.0639576E1,4.6649517E3,4.4054287E3,4.4552856E3,4.123E3,4.136E3,4.6872334E3,-7.189429E0,-1.5473388E0,-1.8233398E0,3.1975343E0,6.628906E-1,-1.748462E0,4.437134E0,-4.908765E0],"split_indices":[38,55,0,32,46,47,39,41,48,0,0,0,0,0,0,0,0],"split_type":[0,0,0,0,0,0,0,0,0,0,0,0,0,0,0,0,0],"sum_hessian":[6.7E2,6.08E2,6.2E1,3.4E2,2.68E2,2.73E2,6.7E1,1.15E2,1.53E2,1.1E2,1.63E2,1.8E1,4.9E1,3.6E1,7.9E1,1.38E2,1.5E1],"tree_param":{"num_deleted":"0","num_feature":"58","num_nodes":"17","size_leaf_vector":"1"}},{"base_weights":[-7.232472E-2,-2.1630901E-1,8.062827E-1,-4.4444445E-1,7.858546E-2,9.677419E-3,9.1925466E-1,4.4680852E-2,-5.4664487E-1,-4.5762714E-2,2.0842572E-1,1.904762E-2,4.964539E-2,2.9126215E-3,-3.3398822E-2,1.7391304E-3,3.831776E-2],"categories":[],"categories_nodes":[],"categories_segments":[],"categories_sizes":[],"default_left":[0,0,0,0,0,0,0,0,0,0,0,0,0,0,0,0,0],"id":21,"left_children":[1,3,5,7,9,-1,11,-1,13,-1,15,-1,-1,-1,-1,-1,-1],"loss_changes":[8.579479E1,3.9205658E1,6.5217133E0,4.5166763E1,3.2936165E1,0E0,3.0025177E0,0E0,2.2441063E1,0E0,2.1833248E1,0E0,0E0,0E0,0E0,0E0,0E0],"parents":[2147483647,0,0,1,1,2,2,3,3,4,4,6,6,8,8,10,10],"right_children":[2,4,6,8,10,-1,12,-1,14,-1,16,-1,-1,-1,-1,-1,-1],"split_conditions":[4.732E3,4E0,4.473467E3,2E0,1E0,5.7438964E-1,-4.3842856E2,2.997937E1,1.4056067E2,-1.7321777E0,4.676E3,4.488086E1,3.5218044E1,3.4343264E-1,-4.653662E0,1.2768555E-1,6.519995E0],"split_indices":[38,3,48,16,26,0,56,0,50,0,39,0,0,0,0,0,0],"split_type":[0,0,0,0,0,0,0,0,0,0,0,0,0,0,0,0,0],"sum_hessian":[6.77E2,5.82E2,9.5E1,3.28E2,2.54E2,1.5E1,8E1,2.3E1,3.05E2,2.9E1,2.25E2,1E1,7E1,5.1E1,2.54E2,1.72E2,5.3E1],"tree_param":{"num_deleted":"0","num_feature":"58","num_nodes":"17","size_leaf_vector":"1"}},{"base_weights":[-1.6865553E-1,-4.330827E-1,1.2816189E-1,-7.239819E-2,-6.11236E-1,-2.7004218E-1,3.9215687E-1,-4.8275862E-2,6.2176164E-2,-4.7933888E-2,-4.8E-1,1.9607843E-1,-3.957219E-1,9.467456E-2,6.5608466E-1,-7.482993E-3,3.617021E-2,1.3043478E-2,-2.6732674E-2,-2.4E-2,4.074074E-2,1.5873017E-3,-3.0399999E-2,2.9629631E-2,-1.7977528E-2,-0E0,4.161074E-2],"categories":[],"categories_nodes":[],"categories_segments":[],"categories_sizes":[],"default_left":[0,0,0,0,0,0,0,0,0,0,0,0,0,0,0,0,0,0,0,0,0,0,0,0,0,0,0],"id":22,"left_children":[1,3,5,7,9,11,13,-1,15,-1,17,19,21,23,25,-1,-1,-1,-1,-1,-1,-1,-1,-1,-1,-1,-1],"loss_changes":[4.9356575E1,2.1343365E1,3.122218E1,1.3311113E1,9.915215E0,6.980754E0,1.3983665E1,0E0,1.3571074E1,0E0,6.64954E0,1.0862571E1,8.494035E0,1.9217634E1,1.0920067E1,0E0,0E0,0E0,0E0,0E0,0E0,0E0,0E0,0E0,0E0,0E0,0E0],"parents":[2147483647,0,0,1,1,2,2,3,3,4,4,5,5,6,6,8,8,10,10,11,11,12,12,13,13,14,14],"right_children":[2,4,6,8,10,12,14,-1,16,-1,18,20,22,24,26,-1,-1,-1,-1,-1,-1,-1,-1,-1,-1,-1,-1],"split_conditions":[-7.3333335E0,4.3388373E-1,4.417E3,-2.3633333E2,4.3315713E3,4.255E3,4.5862E3,-5.6208496E0,4.827E3,-7.432617E0,6E0,4.8570392E2,4.136E3,7.0333336E1,-3.15E1,-2.9916993E-1,3.9591796E0,4.7573242E-1,-2.9705322E0,-1.9102051E0,4.937256E-1,3.0654296E-1,-3.3427734E0,3.4333496E0,-1.2271241E0,-3.786621E-1,7.515039E0],"split_indices":[55,6,46,55,46,43,36,0,44,0,16,35,41,55,52,0,0,0,0,0,0,0,0,0,0,0,0],"split_type":[0,0,0,0,0,0,0,0,0,0,0,0,0,0,0,0,0,0,0,0,0,0,0,0,0,0,0],"sum_hessian":[6.28E2,3.32E2,2.96E2,1.1E2,2.22E2,1.18E2,1.78E2,1.4E1,9.6E1,6E1,1.62E2,2.5E1,9.3E1,8.4E1,9.4E1,7.3E1,2.3E1,1.1E1,1.51E2,1.2E1,1.3E1,3.1E1,6.2E1,4E1,4.4E1,2E1,7.4E1],"tree_param":{"num_deleted":"0","num_feature":"58","num_nodes":"27","size_leaf_vector":"1"}},{"base_weights":[-8.166295E-2,-1.7975709E-1,4.9557522E-2,-5.075269E-1,1.8158237E-2,-6.6086954E-1,-6.61157E-2,1.6168717E-1,-3.8423645E-1,-1.6513763E-2,-4.050633E-2,-3.846154E-2,1.3253013E-2,-2.4137931E-2,1.3871635E-2,1.2727273E-2,-3.0872483E-2],"categories":[],"categories_nodes":[],"categories_segments":[],"categories_sizes":[],"default_left":[0,0,0,0,0,0,0,0,0,0,0,0,0,0,0,0,0],"id":23,"left_children":[1,3,-1,5,7,9,11,13,15,-1,-1,-1,-1,-1,-1,-1,-1],"loss_changes":[7.0965996E1,4.0062244E1,0E0,1.5715427E1,2.2295725E1,8.377968E0,1.4189662E1,2.1288311E1,1.5199282E1,0E0,0E0,0E0,0E0,0E0,0E0,0E0,0E0],"parents":[2147483647,0,0,1,1,3,3,4,4,5,5,6,6,7,7,8,8],"right_children":[2,4,-1,6,8,10,12,14,16,-1,-1,-1,-1,-1,-1,-1,-1],"split_conditions":[5.2835E3,4.343E3,3.6974026E1,4.6649517E3,5.6670177E-1,8E0,4.123E3,4.3404287E3,4.27E3,-3.8163087E0,-6.538135E0,-7.535645E-1,2.5263917E0,-3.5769043E0,1.5868409E0,1.2098144E0,-4.5153565E0],"split_indices":[38,39,0,32,10,20,39,46,41,0,0,0,0,0,0,0,0],"split_type":[0,0,0,0,0,0,0,0,0,0,0,0,0,0,0,0,0],"sum_hessian":[6.73E2,6.17E2,5.6E1,2.32E2,3.85E2,1.72E2,6E1,2.84E2,1.01E2,5.4E1,1.18E2,1.9E1,4.1E1,4.3E1,2.41E2,2.7E1,7.4E1],"tree_param":{"num_deleted":"0","num_feature":"58","num_nodes":"17","size_leaf_vector":"1"}},{"base_weights":[-4.602821E-2,-1.5208504E-1,4.96E-2,-4.1259843E-1,1.2903225E-1,-5.612472E-1,-5.3475935E-2,-7.084469E-2,4.573991E-1,-4.496124E-2,-2.1183802E-2,-4.117647E-2,1.1678833E-2,-1.2444445E-2,1.0489511E-2,3.084577E-2,-4.782609E-2],"categories":[],"categories_nodes":[],"categories_segments":[],"categories_sizes":[],"default_left":[0,0,0,0,0,0,0,0,0,0,0,0,0,0,0,0,0],"id":24,"left_children":[1,3,-1,5,7,9,11,13,15,-1,-1,-1,-1,-1,-1,-1,-1],"loss_changes":[7.422104E1,4.4809708E1,0E0,1.6934135E1,1.9345108E1,1.0247856E1,2.0763964E1,9.194761E0,2.5443142E1,0E0,0E0,0E0,0E0,0E0,0E0,0E0,0E0],"parents":[2147483647,0,0,1,1,3,3,4,4,5,5,6,6,7,7,8,8],"right_children":[2,4,-1,6,8,10,12,14,16,-1,-1,-1,-1,-1,-1,-1,-1],"split_conditions":[5.2835E3,-7.3333335E0,3.5125317E1,4E0,4.665E3,4.3315713E3,7E0,1.0892858E1,4.6859E3,-6.706909E0,-1.7865235E0,-5.1021E0,2.2797608E0,-6.304688E-1,1.1437012E0,3.734717E0,-4.2896E0],"split_indices":[38,55,0,3,39,46,18,54,48,0,0,0,0,0,0,0,0],"split_type":[0,0,0,0,0,0,0,0,0,0,0,0,0,0,0,0,0],"sum_hessian":[6.73E2,6.11E2,6.2E1,3.17E2,2.94E2,2.24E2,9.3E1,1.83E2,1.11E2,6.4E1,1.6E2,2.5E1,6.8E1,1.12E2,7.1E1,1E2,1.1E1],"tree_param":{"num_deleted":"0","num_feature":"58","num_nodes":"17","size_leaf_vector":"1"}},{"base_weights":[-6.2268347E-2,-2.6068822E-1,4.2455244E-1,-9.174312E-1,-1.7626321E-1,4.519774E-2,7.348837E-1,-2.857143E-2,-4.9438205E-2,-3.3931485E-1,2.4267782E-1,3.7037036E-1,-4.883721E-2,-9.52381E-3,8.3076924E-1,-2.0530974E-2,2.4489796E-2,-2.7027026E-2,1.9211823E-2,-1.4035088E-2,4.1772153E-2,1.904762E-2,4.4E-2],"categories":[],"categories_nodes":[],"categories_segments":[],"categories_sizes":[],"default_left":[0,0,0,0,0,0,0,0,0,0,0,0,0,0,0,0,0,0,0,0,0,0,0],"id":25,"left_children":[1,3,5,7,9,11,13,-1,-1,15,17,19,-1,-1,21,-1,-1,-1,-1,-1,-1,-1,-1],"loss_changes":[6.52086E1,2.6505276E1,2.2998753E1,1.0626297E0,2.9106659E1,2.9590094E1,9.617443E0,0E0,0E0,1.8220669E1,1.335297E1,2.0555977E1,0E0,0E0,1.9915085E0,0E0,0E0,0E0,0E0,0E0,0E0,0E0,0E0],"parents":[2147483647,0,0,1,1,2,2,3,3,4,4,5,5,6,6,9,9,10,10,11,11,14,14],"right_children":[2,4,6,8,10,12,14,-1,-1,16,18,20,-1,-1,22,-1,-1,-1,-1,-1,-1,-1,-1],"split_conditions":[4.678E3,4.129E3,1E0,4.2529287E3,4.6529326E3,5.333E3,-5E0,-8.92649E0,-6.521558E0,1E0,6E0,4.9377555E-1,-4.0751224E0,-9.616699E-2,-3.0747254E0,-2.409497E0,4.2121583E-1,-5.3371096E0,2.1657715E0,-1.3837646E0,7.825513E0,1.6688232E0,1.3553149E1],"split_indices":[39,39,14,47,32,41,26,0,0,28,20,10,0,0,53,0,0,0,0,0,0,0,0],"split_type":[0,0,0,0,0,0,0,0,0,0,0,0,0,0,0,0,0,0,0,0,0,0,0],"sum_hessian":[6.74E2,4.79E2,1.95E2,5.4E1,4.25E2,8.8E1,1.07E2,1E1,4.4E1,3.06E2,1.19E2,6.7E1,2.1E1,1E1,9.7E1,2.82E2,2.4E1,1.8E1,1.01E2,2.8E1,3.9E1,1E1,8.7E1],"tree_param":{"num_deleted":"0","num_feature":"58","num_nodes":"23","size_leaf_vector":"1"}},{"base_weights":[-7.950117E-2,-1.7672047E-1,4.953271E-2,-4.964539E-1,2.6490067E-3,-7.032967E-1,-1.19205296E-1,-3.0258304E-1,1.7319588E-1,-4.4444446E-2,-2.3140496E-2,3.2000002E-3,-4.814815E-2,4.0000003E-2,-2.0647774E-2,1.5789473E-2,-2.4137931E-2],"categories":[],"categories_nodes":[],"categories_segments":[],"categories_sizes":[],"default_left":[0,0,0,0,0,0,0,0,0,0,0,0,0,0,0,0,0],"id":26,"left_children":[1,3,-1,5,7,9,11,13,15,-1,-1,-1,-1,-1,-1,-1,-1],"loss_changes":[6.682905E1,3.3751377E1,0E0,1.6461674E1,1.967748E1,5.886635E0,1.1701671E1,1.6654823E1,2.2758442E1,0E0,0E0,0E0,0E0,0E0,0E0,0E0,0E0],"parents":[2147483647,0,0,1,1,3,3,4,4,5,5,6,6,7,7,8,8],"right_children":[2,4,-1,6,8,10,12,14,16,-1,-1,-1,-1,-1,-1,-1,-1],"split_conditions":[5.2835E3,4.343E3,3.291177E1,4E0,2E0,2.024E3,4.33E3,2E0,4.72E3,-7.15293E0,-2.5221925E0,1.4494629E-1,-3.8503418E0,2.3697071E1,-1.517334E0,1.5240234E0,-6.469971E-1],"split_indices":[38,39,0,3,3,0,40,16,47,0,0,0,0,0,0,0,0],"split_type":[0,0,0,0,0,0,0,0,0,0,0,0,0,0,0,0,0],"sum_hessian":[6.41E2,5.88E2,5.3E1,2.11E2,3.77E2,1.36E2,7.5E1,1.35E2,2.42E2,7.6E1,6E1,6.2E1,1.3E1,1.2E1,1.23E2,1.99E2,4.3E1],"tree_param":{"num_deleted":"0","num_feature":"58","num_nodes":"17","size_leaf_vector":"1"}},{"base_weights":[-6.66162E-2,-4.750594E-1,1.2430633E-1,2.962963E-1,-6.568915E-1,-4.848485E-2,1.657077E-1,-7.692308E-3,6.976744E-1,-7.444795E-1,2.4E-2,-1.402214E-1,3.0383974E-1,1.904762E-2,4.782609E-2,-4.0206186E-2,-3.7037039E-3,-3.1578947E-2,-4.651163E-4,2.0421052E-2,-4.8E-3],"categories":[],"categories_nodes":[],"categories_segments":[],"categories_sizes":[],"default_left":[0,0,0,0,0,0,0,0,0,0,0,0,0,0,0,0,0,0,0,0,0],"id":27,"left_children":[1,3,5,7,9,-1,11,-1,13,15,-1,17,19,-1,-1,-1,-1,-1,-1,-1,-1],"loss_changes":[5.153598E1,2.9621464E1,2.0484951E1,7.3710995E0,1.715673E1,0E0,1.8382668E1,0E0,1.5804319E0,6.307968E0,0E0,8.713516E0,1.2543425E1,0E0,0E0,0E0,0E0,0E0,0E0,0E0,0E0],"parents":[2147483647,0,0,1,1,2,2,3,3,4,4,6,6,8,8,9,9,11,11,12,12],"right_children":[2,4,6,8,10,-1,12,-1,14,16,-1,18,20,-1,-1,-1,-1,-1,-1,-1,-1],"split_conditions":[4.33E3,6E0,-7.258571E2,4.396E3,1E0,-6.1493654E0,4.420857E3,-9.275879E-1,8.333333E0,4E0,4.760254E-1,4E0,3.027143E2,3.64729E0,3.235017E1,-5.107349E0,-3.1516114E-1,-3.354541E0,-2.6538087E-2,2.5792725E0,-9.0944827E-1],"split_indices":[42,16,56,45,27,0,46,0,55,3,0,3,51,0,0,0,0,0,0,0,0],"split_type":[0,0,0,0,0,0,0,0,0,0,0,0,0,0,0,0,0,0,0,0,0],"sum_hessian":[6.6E2,2.1E2,4.5E2,4E1,1.7E2,1.6E1,4.34E2,1.9E1,2.1E1,1.58E2,1.2E1,1.35E2,2.99E2,1E1,1.1E1,1.45E2,1.3E1,2.8E1,1.07E2,2.37E2,6.2E1],"tree_param":{"num_deleted":"0","num_feature":"58","num_nodes":"21","size_leaf_vector":"1"}},{"base_weights":[-4.304381E-2,-4.7519583E-1,1.3710555E-1,-8.366013E-1,-2.3376623E-1,-1.704918E-1,2.894309E-1,-4.766355E-2,-5.531915E-1,-3.8418078E-1,2.5454545E-1,4.3589745E-2,-3.220974E-1,-2.4299066E-1,4.0078586E-1,-8E-3,-4.782609E-2,-4.117647E-2,-1.0236221E-2,-2.4E-2,4.1935485E-2,-3.4042552E-2,3.937008E-3,-2.6086956E-2,1.2820514E-2,2.2869023E-2,-2.7586207E-2],"categories":[],"categories_nodes":[],"categories_segments":[],"categories_sizes":[],"default_left":[0,0,0,0,0,0,0,0,0,0,0,0,0,0,0,0,0,0,0,0,0,0,0,0,0,0,0],"id":28,"left_children":[1,3,5,7,9,11,13,-1,15,17,19,-1,21,23,25,-1,-1,-1,-1,-1,-1,-1,-1,-1,-1,-1,-1],"loss_changes":[5.0675243E1,1.6611351E1,2.1554487E1,2.2658272E0,8.532277E0,2.4237913E1,1.8279686E1,0E0,3.6502495E0,6.893387E0,1.2001408E1,0E0,1.9224363E1,7.514477E0,1.3845486E1,0E0,0E0,0E0,0E0,0E0,0E0,0E0,0E0,0E0,0E0,0E0,0E0],"parents":[2147483647,0,0,1,1,2,2,3,3,4,4,5,5,6,6,8,8,9,9,10,10,12,12,13,13,14,14],"right_children":[2,4,6,8,10,12,14,-1,16,18,20,-1,22,24,26,-1,-1,-1,-1,-1,-1,-1,-1,-1,-1,-1,-1],"split_conditions":[4.33E3,4.238E3,2E0,2.1E1,7.0252746E-1,2E0,4.299E3,-5.1380615E0,6E0,-1.21E2,2.3E1,3.4198635E1,4.5268228E3,6.870528E-1,5.143E3,-1.9107178E0,-3.4874024E0,-4.940723E0,-1.1018555E0,-1.8202881E0,2.854834E0,-3.177588E0,4.522217E-1,-2.8029053E0,1.132129E0,2.4922853E0,-2.0228271E0],"split_indices":[39,44,3,2,11,16,40,0,1,55,16,0,34,10,44,0,0,0,0,0,0,0,0,0,0,0,0],"split_type":[0,0,0,0,0,0,0,0,0,0,0,0,0,0,0,0,0,0,0,0,0,0,0,0,0,0,0],"sum_hessian":[6.5E2,1.91E2,4.59E2,7.6E1,1.15E2,1.52E2,3.07E2,5.3E1,2.3E1,8.8E1,2.7E1,1.9E1,1.33E2,5.3E1,2.54E2,1.2E1,1.1E1,2.5E1,6.3E1,1.2E1,1.5E1,7E1,6.3E1,3.4E1,1.9E1,2.4E2,1.4E1],"tree_param":{"num_deleted":"0","num_feature":"58","num_nodes":"27","size_leaf_vector":"1"}},{"base_weights":[-4.8448145E-2,-1.3246116E-1,4.949495E-2,-3.3478895E-1,1.2662943E-1,7.111111E-1,-4.07465E-1,5.4028434E-1,-1.4067279E-1,1.904762E-2,4.8E-2,-2.4528302E-2,1.9672131E-2,-8E-3,3.1550802E-2,-1.1551156E-2,4.8E-2],"categories":[],"categories_nodes":[],"categories_segments":[],"categories_sizes":[],"default_left":[0,0,0,0,0,0,0,0,0,0,0,0,0,0,0,0,0],"id":29,"left_children":[1,3,-1,5,7,9,11,13,15,-1,-1,-1,-1,-1,-1,-1,-1],"loss_changes":[5.7684067E1,3.2076775E1,0E0,2.6254963E1,2.9726284E1,1.6660318E0,2.1494339E1,6.7537365E0,1.6370335E1,0E0,0E0,0E0,0E0,0E0,0E0,0E0,0E0],"parents":[2147483647,0,0,1,1,3,3,4,4,5,5,6,6,7,7,8,8],"right_children":[2,4,-1,6,8,10,12,14,16,-1,-1,-1,-1,-1,-1,-1,-1],"split_conditions":[5.2835E3,4E0,3.2488697E1,2E0,3.4993277E2,4.183E3,1E0,7.7E1,1E0,3.4689698E0,3.8184204E1,-2.4966066E0,4.5366213E-1,-1.4108887E-1,3.5485108E0,-7.107666E-1,2.3257082E0],"split_indices":[38,3,0,16,35,44,28,4,29,0,0,0,0,0,0,0,0],"split_type":[0,0,0,0,0,0,0,0,0,0,0,0,0,0,0,0,0],"sum_hessian":[6.6E2,6.11E2,4.9E1,3.43E2,2.68E2,2.2E1,3.21E2,1.05E2,1.63E2,1E1,1.2E1,2.91E2,3E1,1.2E1,9.3E1,1.51E2,1.2E1],"tree_param":{"num_deleted":"0","num_feature":"58","num_nodes":"17","size_leaf_vector":"1"}},{"base_weights":[-6.8563096E-2,-1.6919394E-1,4.9579833E-2,-3.479491E-1,6.215722E-2,8E-1,-4.2533937E-1,-7.54717E-1,1.4949495E-1,4.8E-2,2.857143E-2,-3.1604942E-2,-5.019305E-3,-1.904762E-2,-4.848485E-2,-4.1379314E-2,1.04925055E-2],"categories":[],"categories_nodes":[],"categories_segments":[],"categories_sizes":[],"default_left":[0,0,0,0,0,0,0,0,0,0,0,0,0,0,0,0,0],"id":30,"left_children":[1,3,-1,5,7,9,11,13,15,-1,-1,-1,-1,-1,-1,-1,-1],"loss_changes":[7.321629E1,2.5919851E1,0E0,3.1575111E1,1.956898E1,5.4857254E-1,2.224081E1,1.944622E0,1.4682377E1,0E0,0E0,0E0,0E0,0E0,0E0,0E0,0E0],"parents":[2147483647,0,0,1,1,3,3,4,4,5,5,6,6,7,7,8,8],"right_children":[2,4,-1,6,8,10,12,14,16,-1,-1,-1,-1,-1,-1,-1,-1],"split_conditions":[5.2835E3,4E0,3.0864258E1,2E0,4.4785E3,5E0,4.5268228E3,1E1,-4.6857144E2,2.235835E1,1.7951124E1,-3.5270264E0,-2.661377E-1,-3.882593E0,-8.3266604E-1,-4.523389E0,1.0113281E0],"split_indices":[38,3,0,16,38,2,34,2,56,0,0,0,0,0,0,0,0],"split_type":[0,0,0,0,0,0,0,0,0,0,0,0,0,0,0,0,0],"sum_hessian":[6.85E2,6.26E2,5.9E1,3.53E2,2.73E2,2.2E1,3.31E2,2.6E1,2.47E2,1.2E1,1E1,2.02E2,1.29E2,1E1,1.6E1,1.4E1,2.33E2],"tree_param":{"num_deleted":"0","num_feature":"58","num_nodes":"17","size_leaf_vector":"1"}},{"base_weights":[-3.2811336E-2,-1.2510154E-1,4.954955E-2,-4.262295E-1,3.4782607E-2,-6.413502E-1,-1.5706806E-1,-3.4361234E-1,1.8307427E-1,1.1111111E-2,-3.744076E-2,-1.7964073E-3,-4.8E-2,3.809524E-2,-2.2705315E-2,3.992016E-3,4.1772153E-2],"categories":[],"categories_nodes":[],"categories_segments":[],"categories_sizes":[],"default_left":[0,0,0,0,0,0,0,0,0,0,0,0,0,0,0,0,0],"id":31,"left_children":[1,3,-1,5,7,9,11,13,15,-1,-1,-1,-1,-1,-1,-1,-1],"loss_changes":[6.3415474E1,2.9641022E1,0E0,1.2311752E1,2.2616861E1,1.1080452E1,9.271764E0,1.4037352E1,1.946349E1,0E0,0E0,0E0,0E0,0E0,0E0,0E0,0E0],"parents":[2147483647,0,0,1,1,3,3,4,4,5,5,6,6,7,7,8,8],"right_children":[2,4,-1,6,8,10,12,14,16,-1,-1,-1,-1,-1,-1,-1,-1],"split_conditions":[5.2835E3,4.3644287E3,2.784497E1,4E0,-2.04E2,4.6E1,4.3552856E3,4E0,4.6649517E3,4.4428712E-1,-4.509497E0,-2.7612304E-2,-8.7771E-1,3.5243165E0,-2.2349854E0,3.861328E-1,5.2344728E0],"split_indices":[38,46,0,3,56,4,46,2,32,0,0,0,0,0,0,0,0],"split_type":[0,0,0,0,0,0,0,0,0,0,0,0,0,0,0,0,0],"sum_hessian":[6.7E2,6.15E2,5.5E1,2.13E2,4.02E2,1.18E2,9.5E1,1.13E2,2.89E2,1.3E1,1.05E2,8.3E1,1.2E1,1E1,1.03E2,2.5E2,3.9E1],"tree_param":{"num_deleted":"0","num_feature":"58","num_nodes":"17","size_leaf_vector":"1"}},{"base_weights":[-4.9650893E-2,7.657143E-1,-1.7757848E-1,9.677419E-3,8.827586E-1,-4.3786982E-1,3.9408866E-2,6.666667E-1,4.9473684E-2,-5.849582E-1,-8.053691E-2,-6.9158876E-1,1.9483101E-1,4.8387095E-2,9.52381E-3,-3.2826748E-2,9.677419E-3,-2.542373E-2,9.89011E-3,-0E0,-4.6835445E-2,-5.4298644E-3,2.155477E-2],"categories":[],"categories_nodes":[],"categories_segments":[],"categories_sizes":[],"default_left":[0,0,0,0,0,0,0,0,0,0,0,0,0,0,0,0,0,0,0,0,0,0,0],"id":32,"left_children":[1,3,5,-1,7,9,11,13,-1,15,17,19,21,-1,-1,-1,-1,-1,-1,-1,-1,-1,-1],"loss_changes":[6.72943E1,5.7743416E0,3.149619E1,0E0,1.3420448E0,1.3300285E1,3.4662598E1,3.5637493E0,0E0,1.0065807E1,8.924117E0,9.069441E0,1.8053268E1,0E0,0E0,0E0,0E0,0E0,0E0,0E0,0E0,0E0,0E0],"parents":[2147483647,0,0,1,1,2,2,4,4,5,5,6,6,7,7,9,9,10,10,11,11,12,12],"right_children":[2,4,6,-1,8,10,12,14,-1,16,18,20,22,-1,-1,-1,-1,-1,-1,-1,-1,-1,-1],"split_conditions":[3E0,4.22E3,4.417E3,2.1583009E0,5.305E3,4.6529326E3,-1.7733333E2,4.784E3,2.7928808E1,1E0,-1.2714286E1,7E0,3E0,3.3120705E1,4.603662E0,-4.124219E0,3.9802247E-1,-1.6507081E0,1.0162598E0,-1.1166992E-1,-5.1940675E0,-5.623779E-1,1.9906495E0],"split_indices":[16,44,46,0,39,32,55,39,0,27,54,2,3,0,0,0,0,0,0,0,0,0,0],"split_type":[0,0,0,0,0,0,0,0,0,0,0,0,0,0,0,0,0,0,0,0,0,0,0],"sum_hessian":[6.44E2,8.7E1,5.57E2,1.5E1,7.2E1,2.53E2,3.04E2,2.5E1,4.7E1,1.79E2,7.4E1,5.3E1,2.51E2,1.5E1,1E1,1.64E2,1.5E1,2.9E1,4.5E1,1.4E1,3.9E1,1.1E2,1.41E2],"tree_param":{"num_deleted":"0","num_feature":"58","num_nodes":"23","size_leaf_vector":"1"}},{"base_weights":[-5.4451805E-2,-1.4365523E-1,4.953271E-2,3.4449762E-1,-2.4114832E-1,4.1237112E-2,6.017699E-1,-2.8832486E-1,5.2459013E-1,-1.0526316E-2,1.9512195E-2,2.2222223E-2,4.848485E-2,-2.0000001E-2,3.690037E-4,-9.52381E-3,4.3902438E-2],"categories":[],"categories_nodes":[],"categories_segments":[],"categories_sizes":[],"default_left":[0,0,0,0,0,0,0,0,0,0,0,0,0,0,0,0,0],"id":33,"left_children":[1,3,-1,5,7,9,11,13,15,-1,-1,-1,-1,-1,-1,-1,-1],"loss_changes":[6.3418922E1,2.9857632E1,0E0,8.140737E0,1.8950882E1,4.3026347E0,3.0549755E0,1.6265251E1,7.792389E0,0E0,0E0,0E0,0E0,0E0,0E0,0E0,0E0],"parents":[2147483647,0,0,1,1,3,3,4,4,5,5,6,6,7,7,8,8],"right_children":[2,4,-1,6,8,10,12,14,16,-1,-1,-1,-1,-1,-1,-1,-1],"split_conditions":[5.394E3,2.2315213E2,2.6532373E1,4.551E3,3.8057144E2,4.39E3,-4.2500034E-1,4.6529326E3,4.362E3,-6.428223E-2,1.8813477E0,2.698169E0,2.1675293E0,-2.2239258E0,3.0126953E-2,-7.9050297E-1,1.5637817E1],"split_indices":[38,35,0,42,56,45,10,32,45,0,0,0,0,0,0,0,0],"split_type":[0,0,0,0,0,0,0,0,0,0,0,0,0,0,0,0,0],"sum_hessian":[6.79E2,6.26E2,5.3E1,1.04E2,5.22E2,4.8E1,5.6E1,4.92E2,3E1,2.8E1,2E1,4E1,1.6E1,3.57E2,1.35E2,1E1,2E1],"tree_param":{"num_deleted":"0","num_feature":"58","num_nodes":"17","size_leaf_vector":"1"}},{"base_weights":[-9.9921934E-2,-1.9103973E-1,4.949495E-2,-3.8124055E-1,4.9713194E-2,-7.619048E-1,-2.2832981E-1,2.577031E-1,-3.9520958E-1,-4.4055946E-2,-1.9148936E-2,1.2903226E-2,-1.7322836E-2,-1.1304348E-2,2.4279837E-2,-3.670886E-2,-4.494382E-3],"categories":[],"categories_nodes":[],"categories_segments":[],"categories_sizes":[],"default_left":[0,0,0,0,0,0,0,0,0,0,0,0,0,0,0,0,0],"id":34,"left_children":[1,3,-1,5,7,9,11,13,15,-1,-1,-1,-1,-1,-1,-1,-1],"loss_changes":[6.369754E1,2.7095089E1,0E0,1.9150642E1,2.4249987E1,4.100155E0,1.3633107E1,1.9734995E1,8.608774E0,0E0,0E0,0E0,0E0,0E0,0E0,0E0,0E0],"parents":[2147483647,0,0,1,1,3,3,4,4,5,5,6,6,7,7,8,8],"right_children":[2,4,-1,6,8,10,12,14,16,-1,-1,-1,-1,-1,-1,-1,-1],"split_conditions":[5.2835E3,4E0,2.515425E1,4.269E3,3.116605E2,1.6678572E1,4.413E3,4.380933E3,4E0,-4.48418E0,-5.5713134E0,6.918457E-1,-1.3424561E0,-7.447754E-1,2.563257E0,-5.004224E0,-6.7573243E-1],"split_indices":[38,3,0,39,50,52,40,48,17,0,0,0,0,0,0,0,0],"split_type":[0,0,0,0,0,0,0,0,0,0,0,0,0,0,0,0,0],"sum_hessian":[6.4E2,5.91E2,4.9E1,3.3E2,2.61E2,9.4E1,2.36E2,1.78E2,8.3E1,7.1E1,2.3E1,4.6E1,1.9E2,5.7E1,1.21E2,3.9E1,4.4E1],"tree_param":{"num_deleted":"0","num_feature":"58","num_nodes":"17","size_leaf_vector":"1"}},{"base_weights":[-7.199424E-2,-1.6056119E-1,4.953271E-2,1.9933555E-1,-2.706002E-1,4.260355E-1,-9.022556E-2,-3.1190726E-1,4.2857144E-2,-8.571429E-3,2.888889E-2,-3.3333335E-2,2.8037382E-3,7.0967744E-3,-2.0000001E-2],"categories":[],"categories_nodes":[],"categories_segments":[],"categories_sizes":[],"default_left":[0,0,0,0,0,0,0,0,0,0,0,0,0,0,0],"id":35,"left_children":[1,3,-1,5,7,9,11,13,-1,-1,-1,-1,-1,-1,-1],"loss_changes":[6.5442764E1,2.5432093E1,0E0,9.898565E0,2.3029594E1,7.7103405E0,5.626871E0,1.8999008E1,0E0,0E0,0E0,0E0,0E0,0E0,0E0],"parents":[2147483647,0,0,1,1,3,3,4,4,5,5,6,6,7,7],"right_children":[2,4,-1,6,8,10,12,14,-1,-1,-1,-1,-1,-1,-1],"split_conditions":[5.394E3,-5E-1,2.3948048E1,4.3388373E-1,1.052E3,4.298E3,1.71E2,3.7E1,1.7051416E1,-2.583252E-1,2.5638185E0,-3.0853271E0,2.2990723E-1,2.1481934E-1,-1.9531494E0],"split_indices":[38,9,0,6,57,41,4,4,0,0,0,0,0,0,0],"split_type":[0,0,0,0,0,0,0,0,0,0,0,0,0,0,0],"sum_hessian":[6.94E2,6.41E2,5.3E1,1.5E2,4.91E2,8.4E1,6.6E1,4.74E2,1.7E1,1.7E1,6.7E1,1.3E1,5.3E1,7.7E1,3.97E2],"tree_param":{"num_deleted":"0","num_feature":"58","num_nodes":"15","size_leaf_vector":"1"}},{"base_weights":[-8.669201E-2,-1.4595029E-1,4.9275365E-2,-5.2396166E-1,-1.9251337E-2,-7.161572E-1,-0E0,9.70266E-2,-2.6936027E-1,-4.5255475E-2,-2.1505376E-2,4.0000003E-2,-1.6393444E-2,-4.761905E-2,6.623586E-3,-2.2040816E-2,2.6415095E-2],"categories":[],"categories_nodes":[],"categories_segments":[],"categories_sizes":[],"default_left":[0,0,0,0,0,0,0,0,0,0,0,0,0,0,0,0,0],"id":36,"left_children":[1,3,-1,5,7,9,11,13,15,-1,-1,-1,-1,-1,-1,-1,-1],"loss_changes":[4.184728E1,2.9856644E1,0E0,1.5760036E1,1.3608974E1,5.994049E0,1.1278688E1,1.1947326E1,2.0425896E1,0E0,0E0,0E0,0E0,0E0,0E0,0E0,0E0],"parents":[2147483647,0,0,1,1,3,3,4,4,5,5,6,6,7,7,8,8],"right_children":[2,4,-1,6,8,10,12,14,16,-1,-1,-1,-1,-1,-1,-1,-1],"split_conditions":[5.4025E3,4.269E3,2.539248E1,4.6649517E3,4.7035713E1,2.024E3,4.438E3,2.1E1,4E0,-5.866211E0,-2.048584E0,2.6803224E0,-2.4732912E0,-3.8914063E0,4.519043E-1,-1.718042E0,1.4070483E1],"split_indices":[38,39,0,32,52,0,42,4,14,0,0,0,0,0,0,0,0],"split_type":[0,0,0,0,0,0,0,0,0,0,0,0,0,0,0,0,0],"sum_hessian":[6.57E2,6.23E2,3.4E1,1.56E2,4.67E2,1.14E2,4.2E1,3.19E2,1.48E2,6.8E1,4.6E1,1.2E1,3E1,1E1,3.09E2,1.22E2,2.6E1],"tree_param":{"num_deleted":"0","num_feature":"58","num_nodes":"17","size_leaf_vector":"1"}},{"base_weights":[-7.993851E-2,-1.4320585E-1,4.931507E-2,-4.9122807E-1,-3.809524E-2,2.4E-2,-5.8237547E-1,-4.871795E-2,2.2050717E-3,1.6E-2,-3.3755276E-2,-3.818182E-2,2.5791326E-3],"categories":[],"categories_nodes":[],"categories_segments":[],"categories_sizes":[],"default_left":[0,0,0,0,0,0,0,0,0,0,0,0,0],"id":37,"left_children":[1,3,-1,5,7,-1,9,-1,11,-1,-1,-1,-1],"loss_changes":[4.3952164E1,2.2469563E1,0E0,1.2754574E1,1.7829311E1,0E0,1.1027901E1,0E0,1.7168978E1,0E0,0E0,0E0,0E0],"parents":[2147483647,0,0,1,1,3,3,4,4,6,6,8,8],"right_children":[2,4,-1,6,8,-1,10,-1,12,-1,-1,-1,-1],"split_conditions":[5.394E3,4.241E3,2.1481007E1,-9.7311836E-1,-6.568571E2,8.743164E-1,2E0,-5.1015625E0,4.131E3,1.007124E1,-3.2786622E0,-4.9166017E0,7.475586E-2],"split_indices":[38,44,0,11,56,0,16,0,42,0,0,0,0],"split_type":[0,0,0,0,0,0,0,0,0,0,0,0,0],"sum_hessian":[6.5E2,6.14E2,3.6E1,1.42E2,4.72E2,1.2E1,1.3E2,1.9E1,4.53E2,1.2E1,1.18E2,2.7E1,4.26E2],"tree_param":{"num_deleted":"0","num_feature":"58","num_nodes":"13","size_leaf_vector":"1"}},{"base_weights":[-7.825433E-2,-1.6032389E-1,4.9473684E-2,-3.7807184E-1,2.8288544E-3,-2.2099448E-2,-5.6160456E-1,1.8480493E-1,-3.9819005E-1,-1.588785E-2,2.0000001E-2,9.677419E-3,-3.1661443E-2,5.694761E-3,4.081633E-2,-3.3742335E-2,1.8644068E-2],"categories":[],"categories_nodes":[],"categories_segments":[],"categories_sizes":[],"default_left":[0,0,0,0,0,0,0,0,0,0,0,0,0,0,0,0,0],"id":38,"left_children":[1,3,-1,5,7,9,11,13,15,-1,-1,-1,-1,-1,-1,-1,-1],"loss_changes":[5.83081E1,2.1937948E1,0E0,1.7274265E1,2.5833757E1,1.135767E1,9.499508E0,1.0857688E1,2.3697899E1,0E0,0E0,0E0,0E0,0E0,0E0,0E0,0E0],"parents":[2147483647,0,0,1,1,3,3,4,4,5,5,6,6,7,7,8,8],"right_children":[2,4,-1,6,8,10,12,14,16,-1,-1,-1,-1,-1,-1,-1,-1],"split_conditions":[5.4025E3,4.417143E3,2.0406958E1,4.211E3,4.7137144E3,1.6271428E2,4.34E3,2.09E2,5.9E1,-1.3847901E0,1.4900147E0,5.1936036E-1,-2.9404054E0,4.2556152E-1,1.4991773E1,-3.1836915E0,1.777588E-1],"split_indices":[38,46,0,41,47,56,38,55,16,0,0,0,0,0,0,0,0],"split_type":[0,0,0,0,0,0,0,0,0,0,0,0,0,0,0,0,0],"sum_hessian":[6.64E2,6.17E2,4.7E1,2.64E2,3.53E2,9E1,1.74E2,2.43E2,1.1E2,5.3E1,3.7E1,1.5E1,1.59E2,2.19E2,2.4E1,8.1E1,2.9E1],"tree_param":{"num_deleted":"0","num_feature":"58","num_nodes":"17","size_leaf_vector":"1"}},{"base_weights":[-2.270884E-2,-1.13411345E-1,7.96748E-1,-7.226891E-1,-4.0281974E-2,4.7524754E-2,4.3478264E-3,-1.2121213E-2,-8.965517E-1,-7.936508E-1,1.0741139E-2,-2.857143E-2,-4.9253732E-2,-1.904762E-2,-4.883721E-2,3.550296E-3,-2.8735632E-2],"categories":[],"categories_nodes":[],"categories_segments":[],"categories_sizes":[],"default_left":[0,0,0,0,0,0,0,0,0,0,0,0,0,0,0,0,0],"id":39,"left_children":[1,3,5,7,9,-1,-1,-1,11,13,15,-1,-1,-1,-1,-1,-1],"loss_changes":[4.5867638E1,2.4736355E1,6.6700706E0,4.859585E0,1.9089336E1,0E0,0E0,0E0,9.705124E-1,2.1941662E0,1.6444288E1,0E0,0E0,0E0,0E0,0E0,0E0],"parents":[2147483647,0,0,1,1,2,2,3,3,4,4,8,8,9,9,10,10],"right_children":[2,4,6,8,10,-1,-1,-1,12,14,16,-1,-1,-1,-1,-1,-1],"split_conditions":[5.305E3,4.134E3,1.9E1,1E1,-1.033E3,1.8911377E1,1.6887207E-1,-4.8986087E0,-1.8399835E-1,-1.500554E-1,3.701978E1,-4.5908203E0,-4.523755E0,-2.2945557E0,-4.687305E0,2.2209473E-1,-1.0575196E0],"split_indices":[39,42,2,20,57,0,0,0,11,11,53,0,0,0,0,0,0],"split_type":[0,0,0,0,0,0,0,0,0,0,0,0,0,0,0,0,0],"sum_hessian":[6.16E2,5.55E2,6.1E1,5.9E1,4.96E2,5E1,1.1E1,1.6E1,4.3E1,3.1E1,4.65E2,1E1,3.3E1,1E1,2.1E1,4.22E2,4.3E1],"tree_param":{"num_deleted":"0","num_feature":"58","num_nodes":"17","size_leaf_vector":"1"}},{"base_weights":[-2.5934402E-2,-1.0990841E-1,8.828829E-1,-2.8699553E-1,1.1257035E-1,1.904762E-2,4.945055E-2,6.8292683E-1,-3.4976152E-1,2.4608502E-1,-5.7471263E-1,1.904762E-2,4.761905E-2,5.0955415E-3,-2.4947146E-2,4.7477745E-3,3.5135135E-2,-4.3076925E-2,1.3043478E-2],"categories":[],"categories_nodes":[],"categories_segments":[],"categories_sizes":[],"default_left":[0,0,0,0,0,0,0,0,0,0,0,0,0,0,0,0,0,0,0],"id":40,"left_children":[1,3,5,7,9,-1,-1,11,13,15,17,-1,-1,-1,-1,-1,-1,-1,-1],"loss_changes":[5.0074333E1,2.3674725E1,2.7680435E0,2.0483175E1,2.4525381E1,0E0,0E0,1.4866428E0,2.1216785E1,1.5390017E1,1.0537869E1,0E0,0E0,0E0,0E0,0E0,0E0,0E0,0E0],"parents":[2147483647,0,0,1,1,2,2,3,3,4,4,7,7,8,8,9,9,10,10],"right_children":[2,4,6,8,10,-1,-1,12,14,16,18,-1,-1,-1,-1,-1,-1,-1,-1],"split_conditions":[5.024E3,4E0,1E0,2E0,3.996264E1,1.1831787E1,1.8389551E1,1.73E2,-5E-1,4.665E3,7.039341E1,2.8860865E1,1.5798633E1,1.5966797E-1,-2.8847656E0,1.2915039E-1,3.7191162E0,-4.632544E0,3.2121828E0],"split_indices":[38,3,3,16,53,0,0,4,9,39,53,0,0,0,0,0,0,0,0],"split_type":[0,0,0,0,0,0,0,0,0,0,0,0,0,0,0,0,0,0,0],"sum_hessian":[6.55E2,6E2,5.5E1,3.34E2,2.66E2,1E1,4.5E1,2E1,3.14E2,2.23E2,4.3E1,1E1,1E1,7.8E1,2.36E2,1.68E2,5.5E1,3.2E1,1.1E1],"tree_param":{"num_deleted":"0","num_feature":"58","num_nodes":"19","size_leaf_vector":"1"}},{"base_weights":[-7.558579E-3,6.933333E-1,-1.5104641E-1,3.298969E-1,9.612403E-1,-3.4755135E-1,1.1563169E-1,-0E0,6.037736E-1,3.809524E-2,4.9541287E-2,-4.1709402E-1,4.8979592E-1,-8.080808E-2,4.5614034E-1,2.857143E-2,-2.4E-2,4.2424243E-2,9.52381E-3,-4.5161294E-3,-2.6682137E-2,-0E0,4.8E-2,-1.3333335E-2,2.4657534E-2,3.255814E-2,-6.9767446E-3],"categories":[],"categories_nodes":[],"categories_segments":[],"categories_sizes":[],"default_left":[0,0,0,0,0,0,0,0,0,0,0,0,0,0,0,0,0,0,0,0,0,0,0,0,0,0,0],"id":41,"left_children":[1,3,5,7,9,11,13,15,17,-1,-1,19,21,23,25,-1,-1,-1,-1,-1,-1,-1,-1,-1,-1,-1,-1],"loss_changes":[6.6579056E1,1.079525E1,2.8815851E1,4.382027E0,2.922058E-3,1.8532375E1,1.5637115E1,6.308572E0,2.5993633E0,0E0,0E0,1.1115696E1,5.6424494E0,1.5907016E1,9.977966E0,0E0,0E0,0E0,0E0,0E0,0E0,0E0,0E0,0E0,0E0,0E0,0E0],"parents":[2147483647,0,0,1,1,2,2,3,3,4,4,5,5,6,6,7,7,8,8,11,11,12,12,13,13,14,14],"right_children":[2,4,6,8,10,12,14,16,18,-1,-1,20,22,24,26,-1,-1,-1,-1,-1,-1,-1,-1,-1,-1,-1,-1],"split_conditions":[4E0,4.8570392E2,4E0,5E0,-1.2910296E-2,1E1,1.0892858E1,6.234898E-1,4.9364287E3,1.1336133E1,1.7521582E1,-5E-1,2.3E1,4.581467E3,3.2687146E2,5.7692873E-1,-1.9380616E0,1.652278E1,2.3343506E0,-1.6774903E-1,-2.8095214E0,-2.6342041E0,3.1793458E0,-4.2900392E-1,3.013965E0,3.3584473E0,-1.4228515E-1],"split_indices":[16,35,3,19,11,28,54,7,46,0,0,9,4,48,50,0,0,0,0,0,0,0,0,0,0,0,0],"split_type":[0,0,0,0,0,0,0,0,0,0,0,0,0,0,0,0,0,0,0,0,0,0,0,0,0,0,0],"sum_hessian":[6.61E2,1.12E2,5.49E2,4.8E1,6.4E1,3.16E2,2.33E2,2.2E1,2.6E1,1E1,5.4E1,2.92E2,2.4E1,1.48E2,8.5E1,1E1,1.2E1,1.6E1,1E1,7.7E1,2.15E2,1.2E1,1.2E1,1.12E2,3.6E1,6.4E1,2.1E1],"tree_param":{"num_deleted":"0","num_feature":"58","num_nodes":"27","size_leaf_vector":"1"}},{"base_weights":[-2.609363E-2,-8.6108856E-2,4.931507E-2,-4.627451E-1,1.2282497E-2,2.1621622E-2,-6.1187214E-1,-7.460891E-2,5.0340134E-1,-1.6528925E-2,-4.747475E-2,1.4285715E-2,-9.538951E-3,3.6559142E-2,5.4545454E-3],"categories":[],"categories_nodes":[],"categories_segments":[],"categories_sizes":[],"default_left":[0,0,0,0,0,0,0,0,0,0,0,0,0,0,0],"id":42,"left_children":[1,3,-1,5,7,-1,9,11,13,-1,-1,-1,-1,-1,-1],"loss_changes":[3.962703E1,2.2811886E1,0E0,1.7152935E1,2.0865032E1,0E0,1.0242397E1,1.741958E1,6.561636E0,0E0,0E0,0E0,0E0,0E0,0E0],"parents":[2147483647,0,0,1,1,3,3,4,4,6,6,7,7,8,8],"right_children":[2,4,-1,6,8,-1,10,12,14,-1,-1,-1,-1,-1,-1],"split_conditions":[5.4025E3,-1.19666664E2,1.6593994E1,4E0,4.6357144E3,2.9990235E-1,4.354E3,-2.2252093E-1,4.571E3,-2.675293E0,-4.168213E0,1.2042236E0,-5.1794434E-1,3.0203857E0,2.5726564E0],"split_indices":[38,55,0,2,46,0,43,7,43,0,0,0,0,0,0],"split_type":[0,0,0,0,0,0,0,0,0,0,0,0,0,0,0],"sum_hessian":[6.51E2,6.15E2,3.6E1,1.27E2,4.88E2,1.8E1,1.09E2,4.15E2,7.3E1,6E1,4.9E1,1.01E2,3.14E2,4.6E1,2.7E1],"tree_param":{"num_deleted":"0","num_feature":"58","num_nodes":"15","size_leaf_vector":"1"}},{"base_weights":[-6.16808E-3,-9.4582975E-2,7.5555557E-1,-8.433735E-1,-3.7002776E-2,9.174312E-1,3.7037039E-3,-4.9152542E-2,-2.4E-2,2.2289768E-2,-6.526316E-1,3.2E-2,4.9411766E-2,-4.953146E-3,1.9917013E-2,-4.4E-2,9.52381E-3],"categories":[],"categories_nodes":[],"categories_segments":[],"categories_sizes":[],"default_left":[0,0,0,0,0,0,0,0,0,0,0,0,0,0,0,0,0],"id":43,"left_children":[1,3,5,7,9,11,-1,-1,-1,13,15,-1,-1,-1,-1,-1,-1],"loss_changes":[4.3710724E1,2.5056065E1,7.4123E0,1.8704014E0,1.9736712E1,7.5432205E-1,0E0,0E0,0E0,2.2540472E1,9.189375E0,0E0,0E0,0E0,0E0,0E0,0E0],"parents":[2147483647,0,0,1,1,2,2,3,3,4,4,5,5,9,9,10,10],"right_children":[2,4,6,8,10,12,-1,-1,-1,14,16,-1,-1,-1,-1,-1,-1],"split_conditions":[1E0,4.084E3,6.411429E2,7.1165663E-1,4.961E3,4.51115E3,2.4260254E0,-3.868164E0,-3.7615967E0,4.67714E3,6.310263E2,1.3211451E1,1.5815821E1,-2.9404297E-1,1.6248535E0,-4.5304933E0,2.849121E-1],"split_indices":[12,45,51,10,41,34,0,0,0,34,50,0,0,0,0,0,0],"split_type":[0,0,0,0,0,0,0,0,0,0,0,0,0,0,0,0,0],"sum_hessian":[6.48E2,5.81E2,6.7E1,4.1E1,5.4E2,5.4E1,1.3E1,2.9E1,1.2E1,4.93E2,4.7E1,1.2E1,4.2E1,3.73E2,1.2E2,3.7E1,1E1],"tree_param":{"num_deleted":"0","num_feature":"58","num_nodes":"17","size_leaf_vector":"1"}},{"base_weights":[-4.6811946E-2,-1.1906816E-1,4.9382716E-2,-4.1967213E-1,-1.16959065E-2,-5.936073E-1,2.2988506E-2,3.9751552E-2,-8.235294E-1,-3.9568346E-2,-1.2345679E-2,-1.4035088E-2,2.9032258E-2,2.1472393E-2,-2.954899E-3,-2.857143E-2,-4.8387095E-2],"categories":[],"categories_nodes":[],"categories_segments":[],"categories_sizes":[],"default_left":[0,0,0,0,0,0,0,0,0,0,0,0,0,0,0,0,0],"id":44,"left_children":[1,3,-1,5,7,9,11,13,15,-1,-1,-1,-1,-1,-1,-1,-1],"loss_changes":[4.6364326E1,1.8701794E1,0E0,1.1748447E1,1.7871662E1,7.4098396E0,7.448432E0,1.5517511E1,6.5058327E-1,0E0,0E0,0E0,0E0,0E0,0E0,0E0,0E0],"parents":[2147483647,0,0,1,1,3,3,4,4,5,5,6,6,7,7,8,8],"right_children":[2,4,-1,6,8,10,12,14,16,-1,-1,-1,-1,-1,-1,-1,-1],"split_conditions":[5.515E3,4.274E3,1.5683057E1,4.6649517E3,5.843E3,2.8214285E0,2.32E2,-2.2252093E-1,1E1,-3.5798097E0,-2.4763916E0,-1.2902588E0,2.4654052E0,2.8916261E0,-1.2114258E-1,-7.0313964E0,-1.3829834E0],"split_indices":[38,39,0,32,40,52,26,7,2,0,0,0,0,0,0,0,0],"split_type":[0,0,0,0,0,0,0,0,0,0,0,0,0,0,0,0,0],"sum_hessian":[6.19E2,5.79E2,4E1,1.52E2,4.27E2,1.09E2,4.3E1,4.02E2,2.5E1,6.9E1,4E1,2.8E1,1.5E1,8.1E1,3.21E2,1E1,1.5E1],"tree_param":{"num_deleted":"0","num_feature":"58","num_nodes":"17","size_leaf_vector":"1"}},{"base_weights":[4.5489008E-3,-7.183673E-2,4.9473684E-2,-5.205479E-1,2.5819264E-2,-7.204969E-1,3.3898305E-2,-4.3902438E-2,6.411582E-2,-9.677419E-3,-4.1984733E-2,-1.0810811E-2,2.173913E-2,1.0183639E-2,-8.130081E-3],"categories":[],"categories_nodes":[],"categories_segments":[],"categories_sizes":[],"default_left":[0,0,0,0,0,0,0,0,0,0,0,0,0,0,0],"id":45,"left_children":[1,3,-1,5,7,9,11,-1,13,-1,-1,-1,-1,-1,-1],"loss_changes":[4.9652435E1,2.6846066E1,0E0,1.2151484E1,1.7456818E1,4.975033E0,3.0048795E0,0E0,1.5314499E1,0E0,0E0,0E0,0E0,0E0,0E0],"parents":[2147483647,0,0,1,1,3,3,4,4,5,5,6,6,8,8],"right_children":[2,4,-1,6,8,10,12,-1,14,-1,-1,-1,-1,-1,-1],"split_conditions":[5.515E3,4.211E3,1.4898902E1,4.6649517E3,4.084E3,1E1,4.51115E3,-2.2771242E0,3.0142857E1,-1.8123779E0,-3.569043E0,-2.3928468E0,3.6450195E-1,4.8369142E-1,-5.987549E-1],"split_indices":[38,39,0,32,45,16,34,0,52,0,0,0,0,0,0],"split_type":[0,0,0,0,0,0,0,0,0,0,0,0,0,0,0],"sum_hessian":[6.59E2,6.12E2,4.7E1,1.09E2,5.03E2,8E1,2.9E1,2E1,4.83E2,1.5E1,6.5E1,1.8E1,1.1E1,2.99E2,1.84E2],"tree_param":{"num_deleted":"0","num_feature":"58","num_nodes":"15","size_leaf_vector":"1"}},{"base_weights":[-4.474273E-2,-1.0576164E-1,4.9333334E-2,-7.2380954E-1,-4.9871024E-2,-4.691358E-2,-0E0,-9.383625E-2,5.714286E-1,-2.6897215E-3,-4.893617E-2,3.7037039E-3,4.117647E-2],"categories":[],"categories_nodes":[],"categories_segments":[],"categories_sizes":[],"default_left":[0,0,0,0,0,0,0,0,0,0,0,0,0],"id":46,"left_children":[1,3,-1,5,7,-1,-1,9,11,-1,-1,-1,-1],"loss_changes":[4.2250416E1,2.1864994E1,0E0,8.149557E0,1.5910817E1,0E0,0E0,1.9231236E1,4.7967625E0,0E0,0E0,0E0,0E0],"parents":[2147483647,0,0,1,1,3,3,4,4,7,7,8,8],"right_children":[2,4,-1,6,8,-1,-1,10,12,-1,-1,-1,-1],"split_conditions":[5.698E3,4.101E3,1.4153955E1,4.273E3,4.985E3,-4.2470703E0,-9.682617E-2,5.446E3,2.024E3,-1.3000488E-1,-6.6499023E0,1.0225684E1,1.519961E1],"split_indices":[38,45,0,44,36,0,0,41,0,0,0,0,0],"split_type":[0,0,0,0,0,0,0,0,0,0,0,0,0],"sum_hessian":[6.7E2,6.33E2,3.7E1,5.2E1,5.81E2,4E1,1.2E1,5.43E2,3.8E1,5.2E2,2.3E1,1.3E1,2.5E1],"tree_param":{"num_deleted":"0","num_feature":"58","num_nodes":"13","size_leaf_vector":"1"}},{"base_weights":[-3.866171E-2,-1.096108E-1,4.9425285E-2,-7.848101E-1,-6.4352244E-2,-2.0689657E-2,-4.901961E-2,6.117647E-1,-1.1668186E-1,4.2105265E-2,6.8965517E-3,-1.9812305E-3,-3.2374103E-2],"categories":[],"categories_nodes":[],"categories_segments":[],"categories_sizes":[],"default_left":[0,0,0,0,0,0,0,0,0,0,0,0,0],"id":47,"left_children":[1,3,-1,5,7,-1,-1,9,11,-1,-1,-1,-1],"loss_changes":[4.906369E1,1.9211353E1,0E0,2.6634483E0,2.0928135E1,0E0,0E0,4.5805054E0,2.2421917E1,0E0,0E0,0E0,0E0],"parents":[2147483647,0,0,1,1,3,3,4,4,7,7,8,8],"right_children":[2,4,-1,6,8,-1,-1,10,12,-1,-1,-1,-1],"split_conditions":[5.4025E3,4.084E3,1.54300785E1,4.306E3,3E0,-4.1359863E0,-2.8115723E0,5.4464287E1,4.961E3,2.0235353E0,7.0825686E0,-1.0397949E-1,-4.261499E0],"split_indices":[38,45,0,41,2,0,0,52,41,0,0,0,0],"split_type":[0,0,0,0,0,0,0,0,0,0,0,0,0],"sum_hessian":[6.72E2,6.29E2,4.3E1,3.9E1,5.9E2,1.4E1,2.5E1,4.2E1,5.48E2,2.8E1,1.4E1,4.79E2,6.9E1],"tree_param":{"num_deleted":"0","num_feature":"58","num_nodes":"13","size_leaf_vector":"1"}},{"base_weights":[-4.2392127E-2,-1.2224939E-1,4.9473684E-2,-2.9695886E-1,2.3916293E-2,-1.06583074E-1,-5.4771787E-1,1.609658E-1,-3.699422E-1,4.1152263E-4,-2.3376623E-2,5.4054055E-3,-3.3170734E-2,1.6382253E-2,-3.902439E-3,-4.9411766E-2,1.1235955E-2],"categories":[],"categories_nodes":[],"categories_segments":[],"categories_sizes":[],"default_left":[0,0,0,0,0,0,0,0,0,0,0,0,0,0,0,0,0],"id":48,"left_children":[1,3,-1,5,7,9,11,13,15,-1,-1,-1,-1,-1,-1,-1,-1],"loss_changes":[5.4486988E1,1.5670211E1,0E0,1.3313704E1,1.8085453E1,6.6119027E0,9.179035E0,9.912721E0,3.1914925E1,0E0,0E0,0E0,0E0,0E0,0E0,0E0,0E0],"parents":[2147483647,0,0,1,1,3,3,4,4,5,5,6,6,7,7,8,8],"right_children":[2,4,-1,6,8,10,12,14,16,-1,-1,-1,-1,-1,-1,-1,-1],"split_conditions":[5.515E3,4.44E3,1.2674756E1,4.3388373E-1,4.741357E3,4.554E3,6E0,6.234898E-1,6.030684E2,5.1220704E-2,-1.2228272E0,5.365723E-1,-3.3789062E0,1.7707764E0,-1.1831055E-1,-4.0484133E0,1.5617676E-1],"split_indices":[38,46,0,6,47,39,16,7,50,0,0,0,0,0,0,0,0],"split_type":[0,0,0,0,0,0,0,0,0,0,0,0,0,0,0,0,0],"sum_hessian":[6.6E2,6.13E2,4.7E1,2.79E2,3.34E2,1.59E2,1.2E2,2.48E2,8.6E1,1.21E2,3.8E1,1.8E1,1.02E2,1.46E2,1.02E2,4.2E1,4.4E1],"tree_param":{"num_deleted":"0","num_feature":"58","num_nodes":"17","size_leaf_vector":"1"}},{"base_weights":[-4.480956E-3,-9.3880974E-2,7.210884E-1,-6.434783E-1,-3.5217796E-2,8.96E-1,-1.3043478E-2,-4.3478264E-3,-7.741935E-1,-0E0,-7.4509805E-1,2.173913E-2,4.9514562E-2,-1.904762E-2,-4.3835618E-2,1.8348625E-2,-2.1715527E-3,-4.8387095E-2,-1.904762E-2],"categories":[],"categories_nodes":[],"categories_segments":[],"categories_sizes":[],"default_left":[0,0,0,0,0,0,0,0,0,0,0,0,0,0,0,0,0,0,0],"id":49,"left_children":[1,3,5,7,9,11,-1,-1,13,15,17,-1,-1,-1,-1,-1,-1,-1,-1],"loss_changes":[4.346158E1,1.9220499E1,1.2740921E1,4.149229E0,1.3487725E1,2.5027695E0,0E0,0E0,1.7076359E0,8.208071E0,1.8830767E0,0E0,0E0,0E0,0E0,0E0,0E0,0E0,0E0],"parents":[2147483647,0,0,1,1,2,2,3,3,4,4,5,5,8,8,9,9,10,10],"right_children":[2,4,6,8,10,12,-1,-1,14,16,18,-1,-1,-1,-1,-1,-1,-1,-1],"split_conditions":[5.305E3,4.139E3,1E0,4.053E3,1.0585714E2,2.024E3,-5.218262E-1,-1.7368897E0,1.4E1,4.131E3,4E0,9.919678E0,1.2041016E1,-2.8862305E0,-3.209961E0,1.4366455E0,-7.875977E-2,-1.6283935E0,-6.8223877E0],"split_indices":[39,42,22,43,52,0,0,0,2,41,17,0,0,0,0,0,0,0,0],"split_type":[0,0,0,0,0,0,0,0,0,0,0,0,0,0,0,0,0,0,0],"sum_hessian":[6.69E2,5.96E2,7.3E1,5.7E1,5.39E2,6.2E1,1.1E1,1.1E1,4.6E1,5.14E2,2.5E1,1.1E1,5.1E1,1E1,3.6E1,5.4E1,4.6E2,1.5E1,1E1],"tree_param":{"num_deleted":"0","num_feature":"58","num_nodes":"19","size_leaf_vector":"1"}},{"base_weights":[-3.6669213E-2,-1.0760034E-1,5.611511E-1,-2.9048413E-1,8.3769634E-2,8.869565E-1,-4.8E-2,-1.4252874E-1,-6.787879E-1,7.8688526E-1,-0E0,1.904762E-2,4.9473684E-2,-1.0669976E-2,3.636364E-2,-4.691358E-2,-2.117647E-2,1.904762E-2,4.878049E-2,-3.837953E-3,4.0000003E-2],"categories":[],"categories_nodes":[],"categories_segments":[],"categories_sizes":[],"default_left":[0,0,0,0,0,0,0,0,0,0,0,0,0,0,0,0,0,0,0,0,0],"id":50,"left_children":[1,3,5,7,9,11,-1,13,15,17,19,-1,-1,-1,-1,-1,-1,-1,-1,-1,-1],"loss_changes":[2.7783653E1,2.0503769E1,3.4869892E1,1.7158396E1,1.6874775E1,2.7942924E0,0E0,1.3485062E1,5.265724E0,2.1507587E0,1.5781663E1,0E0,0E0,0E0,0E0,0E0,0E0,0E0,0E0,0E0,0E0],"parents":[2147483647,0,0,1,1,2,2,3,3,4,4,5,5,7,7,8,8,9,9,10,10],"right_children":[2,4,6,8,10,12,-1,14,16,18,20,-1,-1,-1,-1,-1,-1,-1,-1,-1,-1],"split_conditions":[1E0,-7.3333335E0,5.052E3,2.775E1,1.3019522E2,1E0,-2.9995117E0,3.8E1,4.4794287E3,-8.475409E-1,3.41E2,4.499536E0,9.258911E0,-9.685791E-1,3.0144532E0,-3.9693115E0,-1.5469726E0,1.9167481E-1,4.1631103E0,-2.7448732E-1,4.478662E0],"split_indices":[29,55,44,52,50,3,0,20,47,11,51,0,0,0,0,0,0,0,0,0,0],"split_type":[0,0,0,0,0,0,0,0,0,0,0,0,0,0,0,0,0,0,0,0,0],"sum_hessian":[6.54E2,5.85E2,6.9E1,2.99E2,2.86E2,5.7E1,1.2E1,2.17E2,8.2E1,3E1,2.56E2,1E1,4.7E1,2.01E2,1.6E1,4E1,4.2E1,1E1,2E1,2.34E2,2.2E1],"tree_param":{"num_deleted":"0","num_feature":"58","num_nodes":"21","size_leaf_vector":"1"}},{"base_weights":[-2.6686434E-2,-8.627451E-2,4.9333334E-2,-8.2474226E-1,-2.5445292E-2,-9.52381E-3,-4.935065E-2,2.1798365E-2,-6.835443E-1,3.3766236E-2,-1.3658537E-3,9.52381E-3,-4.9152542E-2],"categories":[],"categories_nodes":[],"categories_segments":[],"categories_sizes":[],"default_left":[0,0,0,0,0,0,0,0,0,0,0,0,0],"id":51,"left_children":[1,3,-1,5,7,-1,-1,9,11,-1,-1,-1,-1],"loss_changes":[4.077141E1,2.862627E1,0E0,4.8977547E0,1.8335596E1,0E0,0E0,1.76793E1,1.0433731E1,0E0,0E0,0E0,0E0],"parents":[2147483647,0,0,1,1,3,3,4,4,7,7,8,8],"right_children":[2,4,-1,6,8,-1,-1,10,12,-1,-1,-1,-1],"split_conditions":[5.698E3,4.093E3,1.1452685E1,1.4475233E2,5.261E3,-2.4888916E0,-3.731836E0,2E0,9E0,1.5189624E1,-5.9277344E-2,2.942383E-1,-4.924634E0],"split_indices":[38,45,0,49,46,0,0,16,2,0,0,0,0],"split_type":[0,0,0,0,0,0,0,0,0,0,0,0,0],"sum_hessian":[6.74E2,6.37E2,3.7E1,4.8E1,5.89E2,1E1,3.8E1,5.5E2,3.9E1,3.8E1,5.12E2,1E1,2.9E1],"tree_param":{"num_deleted":"0","num_feature":"58","num_nodes":"13","size_leaf_vector":"1"}},{"base_weights":[-3.498099E-2,-8.967174E-2,4.9253732E-2,-8.988764E-1,-2.7562447E-2,-2.857143E-2,-4.9275365E-2,7.213706E-3,-7.54717E-1,-4.8387095E-2,1.7608898E-3,-4.848485E-2,-1.904762E-2],"categories":[],"categories_nodes":[],"categories_segments":[],"categories_sizes":[],"default_left":[0,0,0,0,0,0,0,0,0,0,0,0,0],"id":52,"left_children":[1,3,-1,5,7,-1,-1,9,11,-1,-1,-1,-1],"loss_changes":[3.6724518E1,3.1374435E1,0E0,9.807625E-1,1.4682195E1,0E0,0E0,1.5156413E1,1.944622E0,0E0,0E0,0E0,0E0],"parents":[2147483647,0,0,1,1,3,3,4,4,7,7,8,8],"right_children":[2,4,-1,6,8,-1,-1,10,12,-1,-1,-1,-1],"split_conditions":[5.698E3,4.092E3,9.745361E0,4.022E3,5.843E3,-1.2731446E0,-3.5277588E0,4.032E3,4.6E1,-1.5317383E1,8.5961916E-2,-1.2233887E0,-6.243994E0],"split_indices":[38,45,0,45,40,0,0,39,55,0,0,0,0],"split_type":[0,0,0,0,0,0,0,0,0,0,0,0,0],"sum_hessian":[6.57E2,6.24E2,3.3E1,4.4E1,5.8E2,1E1,3.4E1,5.54E2,2.6E1,1.5E1,5.39E2,1.6E1,1E1],"tree_param":{"num_deleted":"0","num_feature":"58","num_nodes":"13","size_leaf_vector":"1"}},{"base_weights":[3.08404E-3,-8.368915E-2,8.031496E-1,-6.741573E-1,-3.508772E-2,1.2121213E-2,4.9473684E-2,-4.6376813E-2,9.52381E-3,-4.8275862E-2,-9.478673E-3,-4.049494E-3,1.8562874E-2],"categories":[],"categories_nodes":[],"categories_segments":[],"categories_sizes":[],"default_left":[0,0,0,0,0,0,0,0,0,0,0,0,0],"id":53,"left_children":[1,3,5,7,9,-1,-1,-1,-1,-1,11,-1,-1],"loss_changes":[4.505523E1,1.6790617E1,6.514332E0,9.837393E0,1.2897968E1,0E0,0E0,0E0,0E0,0E0,1.4377224E1,0E0,0E0],"parents":[2147483647,0,0,1,1,2,2,3,3,4,4,10,10],"right_children":[2,4,6,8,10,-1,-1,-1,-1,-1,12,-1,-1],"split_conditions":[4.147143E2,4.101E3,5.305E3,4.395E3,4.032E3,3.2853272E0,1.0392774E1,-3.3513672E0,3.474121E-2,-1.6087427E1,8.429415E-1,-2.798584E-1,1.6124756E0],"split_indices":[56,45,39,44,39,0,0,0,0,0,11,0,0],"split_type":[0,0,0,0,0,0,0,0,0,0,0,0,0],"sum_hessian":[6.48E2,5.85E2,6.3E1,4.4E1,5.41E2,1.6E1,4.7E1,3.4E1,1E1,1.4E1,5.27E2,4.44E2,8.3E1],"tree_param":{"num_deleted":"0","num_feature":"58","num_nodes":"13","size_leaf_vector":"1"}},{"base_weights":[-2.7842227E-2,-7.785888E-2,4.918033E-2,-1.1310085E-2,-4.8554912E-1,-1.0428737E-1,3.919598E-1,2.7027026E-2,-7.591241E-1,1.1111111E-2,-1.29914535E-2,-1.3333334E-3,3.2E-2,-4.587156E-2,-6.8965517E-3],"categories":[],"categories_nodes":[],"categories_segments":[],"categories_sizes":[],"default_left":[0,0,0,0,0,0,0,0,0,0,0,0,0,0,0],"id":54,"left_children":[1,3,-1,5,7,9,11,-1,13,-1,-1,-1,-1,-1,-1],"loss_changes":[3.2744263E1,1.6723698E1,0E0,1.9911505E1,2.4486795E1,2.1942966E1,1.0340235E1,0E0,6.67297E0,0E0,0E0,0E0,0E0,0E0,0E0],"parents":[2147483647,0,0,1,1,3,3,4,4,5,5,6,6,8,8],"right_children":[2,4,-1,6,8,10,12,-1,14,-1,-1,-1,-1,-1,-1],"split_conditions":[5.515E3,4.949E3,1.191394E1,4.651E3,4E0,-2.2252093E-1,4.5928267E3,3.0038574E0,6E0,6.8864745E-1,-9.3234867E-1,-5.935303E-1,3.3363037E0,-4.603247E0,-8.606934E-1],"split_indices":[38,41,0,39,2,7,36,0,1,0,0,0,0,0,0],"split_type":[0,0,0,0,0,0,0,0,0,0,0,0,0,0,0],"sum_hessian":[6.46E2,6.16E2,3E1,5.3E2,8.6E1,4.31E2,9.9E1,1.8E1,6.8E1,1.39E2,2.92E2,3.7E1,6.2E1,5.4E1,1.4E1],"tree_param":{"num_deleted":"0","num_feature":"58","num_nodes":"15","size_leaf_vector":"1"}},{"base_weights":[-3.3207547E-2,-1.073493E-1,7.478261E-1,-4.4268775E-1,-1.8769551E-2,4.7191013E-2,3.7037039E-3,-7.096774E-1,-2.020202E-2,1.51024815E-2,-4.848485E-2,-6.8965517E-3,-4.1732285E-2,2.4242425E-2,-1.3432837E-2,1.3877551E-2,-3.953148E-3],"categories":[],"categories_nodes":[],"categories_segments":[],"categories_sizes":[],"default_left":[0,0,0,0,0,0,0,0,0,0,0,0,0,0,0,0,0],"id":55,"left_children":[1,3,5,7,9,-1,-1,11,13,15,-1,-1,-1,-1,-1,-1,-1],"loss_changes":[3.8403656E1,1.7981735E1,7.5580025E0,1.4261946E1,1.5451943E1,0E0,0E0,5.479828E0,6.2764964E0,1.1465717E1,0E0,0E0,0E0,0E0,0E0,0E0,0E0],"parents":[2147483647,0,0,1,1,2,2,3,3,4,4,7,7,8,8,9,9],"right_children":[2,4,6,8,10,-1,-1,12,14,16,-1,-1,-1,-1,-1,-1,-1],"split_conditions":[4.985E3,4.361433E3,6.411429E2,4.344E3,5.1896665E3,8.142774E0,1.6985596E0,1.3418892E2,1.8270715E2,-5E-1,-4.373096E0,-1.6300782E0,-3.4296632E0,3.1509035E0,-5.420166E-1,7.6596683E-1,-2.1455078E-1],"split_indices":[36,48,51,45,48,0,0,49,49,9,0,0,0,0,0,0,0],"split_type":[0,0,0,0,0,0,0,0,0,0,0,0,0,0,0,0,0],"sum_hessian":[6.62E2,6.05E2,5.7E1,1.26E2,4.79E2,4.4E1,1.3E1,7.7E1,4.9E1,4.63E2,1.6E1,1.4E1,6.3E1,1.6E1,3.3E1,1.22E2,3.41E2],"tree_param":{"num_deleted":"0","num_feature":"58","num_nodes":"17","size_leaf_vector":"1"}},{"base_weights":[2.9618083E-2,-4.1841004E-2,4.9438205E-2,-3.048499E-1,1.0747051E-1,-1.7737003E-1,-6.9158876E-1,6.434783E-1,1.2326657E-2,-1.4035088E-2,2.5581395E-2,-4.3835618E-2,-1.4285715E-2,-8E-3,4.2857144E-2,-1.4572865E-2,7.317073E-3],"categories":[],"categories_nodes":[],"categories_segments":[],"categories_sizes":[],"default_left":[0,0,0,0,0,0,0,0,0,0,0,0,0,0,0,0,0],"id":56,"left_children":[1,3,-1,5,7,9,11,13,15,-1,-1,-1,-1,-1,-1,-1,-1],"loss_changes":[4.39889E1,2.3480358E1,0E0,1.0612425E1,1.945171E1,1.1712245E1,3.8945808E0,9.939875E0,1.3232223E1,0E0,0E0,0E0,0E0,0E0,0E0,0E0,0E0],"parents":[2147483647,0,0,1,1,3,3,4,4,5,5,6,6,7,7,8,8],"right_children":[2,4,-1,6,8,10,12,14,16,-1,-1,-1,-1,-1,-1,-1,-1],"split_conditions":[5.515E3,4.364E3,9.288159E0,6.234898E-1,-2.2252093E-1,4.299E3,1.1195604E1,-9.8E1,-7.3333335E0,-1.2706299E0,2.6490967E0,-4.835767E0,-2.265796E0,-1.4147462E0,3.844092E0,-6.66626E-1,5.5705565E-1],"split_indices":[38,39,0,7,7,39,53,55,55,0,0,0,0,0,0,0,0],"split_type":[0,0,0,0,0,0,0,0,0,0,0,0,0,0,0,0,0],"sum_hessian":[6.41E2,5.97E2,4.4E1,2.16E2,3.81E2,1.63E2,5.3E1,5.7E1,3.24E2,1.42E2,2.1E1,3.6E1,1.7E1,1.2E1,4.5E1,9.9E1,2.25E2],"tree_param":{"num_deleted":"0","num_feature":"58","num_nodes":"17","size_leaf_vector":"1"}},{"base_weights":[-3.028009E-3,-5.075337E-2,4.918033E-2,-3.5782748E-1,5.057956E-2,-5.1361865E-1,3.508772E-1,1.1710677E-1,-6.835443E-1,1.904762E-2,-2.9535865E-2,-2.173913E-2,4.2857144E-2,3.9520958E-3,4.864865E-2,9.52381E-3,-4.9152542E-2],"categories":[],"categories_nodes":[],"categories_segments":[],"categories_sizes":[],"default_left":[0,0,0,0,0,0,0,0,0,0,0,0,0,0,0,0,0],"id":57,"left_children":[1,3,-1,5,7,9,11,13,15,-1,-1,-1,-1,-1,-1,-1,-1],"loss_changes":[3.1126247E1,1.962814E1,0E0,1.736927E1,2.3214233E1,8.975189E0,1.1522284E1,1.4149451E1,1.0433731E1,0E0,0E0,0E0,0E0,0E0,0E0,0E0,0E0],"parents":[2147483647,0,0,1,1,3,3,4,4,5,5,6,6,7,7,8,8],"right_children":[2,4,-1,6,8,10,12,14,16,-1,-1,-1,-1,-1,-1,-1,-1],"split_conditions":[5.698E3,4.261E3,1.0446704E1,2.4E1,5.261E3,4E0,4.215E3,5.4034E3,9E0,9.294189E0,-2.4620607E0,-1.7299073E0,2.6209474E0,1.2387695E-1,1.4521411E1,3.7629396E-1,-4.121118E0],"split_indices":[38,45,0,2,46,16,42,36,2,0,0,0,0,0,0,0,0],"split_type":[0,0,0,0,0,0,0,0,0,0,0,0,0,0,0,0,0],"sum_hessian":[6.6E2,6.3E2,3E1,1.56E2,4.74E2,1.28E2,2.8E1,4.35E2,3.9E1,1E1,1.18E2,1.1E1,1.7E1,4.17E2,1.8E1,1E1,2.9E1],"tree_param":{"num_deleted":"0","num_feature":"58","num_nodes":"17","size_leaf_vector":"1"}},{"base_weights":[6.536965E-2,1.4766201E-2,4.9253732E-2,4.516129E-1,-4.8826292E-2,-1.9512194E-1,6.7826086E-1,-1.7783858E-1,2.3283581E-1,9.52381E-3,-2.857143E-2,-0E0,4.936709E-2,-4.2105265E-2,-6.074074E-3,1.8685123E-2,-3.1914894E-2],"categories":[],"categories_nodes":[],"categories_segments":[],"categories_sizes":[],"default_left":[0,0,0,0,0,0,0,0,0,0,0,0,0,0,0,0,0],"id":58,"left_children":[1,3,-1,5,7,9,11,13,15,-1,-1,-1,-1,-1,-1,-1,-1],"loss_changes":[2.9894833E1,1.6943039E1,0E0,1.14262085E1,1.937062E1,3.029036E0,1.2054155E1,1.3631758E1,2.0673801E1,0E0,0E0,0E0,0E0,0E0,0E0,0E0,0E0],"parents":[2147483647,0,0,1,1,3,3,4,4,5,5,6,6,7,7,8,8],"right_children":[2,4,-1,6,8,10,12,14,16,-1,-1,-1,-1,-1,-1,-1,-1],"split_conditions":[5.698E3,3.7E1,8.301416E0,2E1,4.6529326E3,4.26E3,1.4E1,5.5E1,4.977E3,3.7929687E-1,-1.4985107E0,-7.0004886E-1,9.8774415E-1,-3.9150636E0,-4.7788087E-1,1.4107178E0,-3.2310302E0],"split_indices":[38,4,0,4,32,39,16,4,42,0,0,0,0,0,0,0,0],"split_type":[0,0,0,0,0,0,0,0,0,0,0,0,0,0,0,0,0],"sum_hessian":[6.42E2,6.09E2,3.3E1,7.7E1,5.32E2,2E1,5.7E1,3.65E2,1.67E2,1E1,1E1,1.8E1,3.9E1,2.8E1,3.37E2,1.44E2,2.3E1],"tree_param":{"num_deleted":"0","num_feature":"58","num_nodes":"17","size_leaf_vector":"1"}},{"base_weights":[2.8985508E-2,5.7416266E-1,-7.4342705E-2,7.388535E-1,7.54717E-2,-4.2194092E-1,2.0761246E-2,1.3953489E-1,4.782609E-2,3.0303031E-2,-3.809524E-2,-1.3740458E-1,-7.6635516E-1,2.4347825E-1,-1.2619503E-1,2.173913E-2,-9.52381E-3,-1.6504854E-2,2.7586207E-2,-4.4444446E-2,-1.8518519E-2,-2.9032258E-2,1.6190477E-2,-1.3600001E-2,1.2080537E-2],"categories":[],"categories_nodes":[],"categories_segments":[],"categories_sizes":[],"default_left":[0,0,0,0,0,0,0,0,0,0,0,0,0,0,0,0,0,0,0,0,0,0,0,0,0],"id":59,"left_children":[1,3,5,7,9,11,13,15,-1,-1,-1,17,19,21,23,-1,-1,-1,-1,-1,-1,-1,-1,-1,-1],"loss_changes":[3.6947086E1,8.5546875E0,1.8235847E1,1.0173798E1,1.20049E1,1.1560158E1,1.42036705E1,2.1362607E0,0E0,0E0,0E0,8.788803E0,2.4312916E0,1.1514007E1,1.4056557E1,0E0,0E0,0E0,0E0,0E0,0E0,0E0,0E0,0E0,0E0],"parents":[2147483647,0,0,1,1,2,2,3,3,4,4,5,5,6,6,7,7,11,11,12,12,13,13,14,14],"right_children":[2,4,6,8,10,12,14,16,-1,-1,-1,18,20,22,24,-1,-1,-1,-1,-1,-1,-1,-1,-1,-1],"split_conditions":[4E0,4.546E3,4.355E3,4.51115E3,9.025161E-2,4.3388373E-1,1.9534761E2,-4.9002868E-1,8.074903E0,1.2143946E1,-6.0351562E0,2.75E1,2.1E1,-8.642857E1,4.6529326E3,7.672583E0,-3.1660645E0,-2.0559814E0,3.3675537E0,-3.331372E0,-2.640796E0,-3.1181152E0,7.51416E-1,-8.258545E-1,9.383545E-1],"split_indices":[16,45,48,34,11,6,50,11,0,0,0,54,2,51,32,0,0,0,0,0,0,0,0,0,0],"split_type":[0,0,0,0,0,0,0,0,0,0,0,0,0,0,0,0,0,0,0,0,0,0,0,0,0],"sum_hessian":[6.55E2,1.04E2,5.51E2,7.8E1,2.6E1,1.18E2,4.33E2,2.1E1,5.7E1,1.6E1,1E1,6.5E1,5.3E1,1.72E2,2.61E2,1.1E1,1E1,5.1E1,1.4E1,4E1,1.3E1,1.5E1,1.57E2,1.87E2,7.4E1],"tree_param":{"num_deleted":"0","num_feature":"58","num_nodes":"25","size_leaf_vector":"1"}},{"base_weights":[-2.821084E-2,-8.118657E-2,4.9253732E-2,7.804878E-1,-1.0958904E-1,2.857143E-2,4.761905E-2,-2.0917822E-1,1.9672132E-1,-2.0206187E-2,-0E0,-3.3333335E-2,1.3978495E-2],"categories":[],"categories_nodes":[],"categories_segments":[],"categories_sizes":[],"default_left":[0,0,0,0,0,0,0,0,0,0,0,0,0],"id":60,"left_children":[1,3,-1,5,7,-1,-1,9,11,-1,-1,-1,-1],"loss_changes":[3.6193157E1,1.5718158E1,0E0,4.6457672E-1,1.894905E1,0E0,0E0,1.9104656E1,1.1001585E1,0E0,0E0,0E0,0E0],"parents":[2147483647,0,0,1,1,3,3,4,4,7,7,8,8],"right_children":[2,4,-1,6,8,-1,-1,10,12,-1,-1,-1,-1],"split_conditions":[5.806E3,2E0,7.4826174E0,-1.8369701E-16,2.4E1,2.6564453E0,7.891846E-1,5E0,4.122E3,-1.2937988E0,-1.4331055E-2,-3.0077636E0,9.153809E-1],"split_indices":[38,2,0,9,2,0,0,19,42,0,0,0,0],"split_type":[0,0,0,0,0,0,0,0,0,0,0,0,0],"sum_hessian":[6.73E2,6.4E2,3.3E1,2E1,6.2E2,1E1,1E1,4.68E2,1.52E2,2.42E2,2.26E2,1.3E1,1.39E2],"tree_param":{"num_deleted":"0","num_feature":"58","num_nodes":"13","size_leaf_vector":"1"}},{"base_weights":[-4.357626E-2,-8.825847E-2,8.5714287E-1,-2.0689656E-1,1.9946092E-1,2.857143E-2,4.883721E-2,1.0837439E-1,-2.984218E-1,2.8938907E-1,-2.6229507E-1,1.3207547E-2,-2.2222223E-2,-1.9197209E-2,4.8E-3,-7.058824E-3,2.2466961E-2,-4.8275862E-2,1.818182E-2],"categories":[],"categories_nodes":[],"categories_segments":[],"categories_sizes":[],"default_left":[0,0,0,0,0,0,0,0,0,0,0,0,0,0,0,0,0,0,0],"id":61,"left_children":[1,3,5,7,9,-1,-1,11,13,15,17,-1,-1,-1,-1,-1,-1,-1,-1],"loss_changes":[2.6821619E1,2.1678959E1,7.973423E-1,1.2986607E1,7.7408147E0,0E0,0E0,8.799496E0,1.1773989E1,1.0740851E1,1.3600698E1,0E0,0E0,0E0,0E0,0E0,0E0,0E0,0E0],"parents":[2147483647,0,0,1,1,2,2,3,3,4,4,7,7,8,8,9,9,10,10],"right_children":[2,4,6,8,10,-1,-1,12,14,16,18,-1,-1,-1,-1,-1,-1,-1,-1],"split_conditions":[3.36E2,4.6529326E3,5.843E3,-5E-1,4.926E3,9.6005125E0,9.621167E0,3.9642857E1,5.420057E2,4.3686E3,4.502E3,7.041504E-1,-8.951416E-1,-1.2291015E0,1.9995118E-2,-4.0703127E-1,2.2778077E0,-5.668701E0,2.229004E-2],"split_indices":[55,32,39,9,42,0,0,52,50,48,44,0,0,0,0,0,0,0,0],"split_type":[0,0,0,0,0,0,0,0,0,0,0,0,0,0,0,0,0,0,0],"sum_hessian":[6.65E2,6.34E2,3.1E1,4.49E2,1.85E2,1E1,2.1E1,1.01E2,3.48E2,1.55E2,3E1,7.9E1,2.2E1,2.86E2,6.2E1,4.2E1,1.13E2,1.4E1,1.6E1],"tree_param":{"num_deleted":"0","num_feature":"58","num_nodes":"19","size_leaf_vector":"1"}},{"base_weights":[-3.0097818E-2,-7.95545E-2,8.2191783E-1,5.671642E-1,-1.15869015E-1,1.904762E-2,4.9056605E-2,4.8387095E-2,1.0810811E-2,-4.848485E-2,-9.145816E-2,-6.087735E-3,3.488372E-2],"categories":[],"categories_nodes":[],"categories_segments":[],"categories_sizes":[],"default_left":[0,0,0,0,0,0,0,0,0,0,0,0,0],"id":62,"left_children":[1,3,5,7,9,-1,-1,-1,-1,-1,11,-1,-1],"loss_changes":[2.8033302E1,1.4793357E1,2.3757095E0,4.6048756E0,1.2367472E1,0E0,0E0,0E0,0E0,0E0,1.3897154E1,0E0,0E0],"parents":[2147483647,0,0,1,1,2,2,3,3,4,4,10,10],"right_children":[2,4,6,8,10,-1,-1,-1,-1,-1,12,-1,-1],"split_conditions":[5.4025E3,1.2093636E2,1.2E1,1.84E2,-7.258571E2,1.3271875E1,5.074927E0,3.4751709E0,6.0561526E-1,-3.5730958E0,1E0,-3.0776367E-1,9.550049E-1],"split_indices":[38,50,2,26,56,0,0,0,0,0,29,0,0],"split_type":[0,0,0,0,0,0,0,0,0,0,0,0,0],"sum_hessian":[6.64E2,6.28E2,3.6E1,3.3E1,5.95E2,1E1,2.6E1,1.5E1,1.8E1,1.6E1,5.79E2,5.58E2,2.1E1],"tree_param":{"num_deleted":"0","num_feature":"58","num_nodes":"13","size_leaf_vector":"1"}},{"base_weights":[-4.5836516E-2,-7.010309E-1,6.5952186E-3,-4.6575345E-2,-0E0,-4.8387095E-2,3.2121725E-2,-1.829826E-2,6.3736266E-1,1.179941E-3,-2.857143E-2,8.571429E-3,4.5614034E-2],"categories":[],"categories_nodes":[],"categories_segments":[],"categories_sizes":[],"default_left":[0,0,0,0,0,0,0,0,0,0,0,0,0],"id":63,"left_children":[1,3,5,-1,-1,-1,7,9,11,-1,-1,-1,-1],"loss_changes":[2.2486338E1,7.8361797E0,1.5100061E1,0E0,0E0,0E0,1.8056187E1,1.2671632E1,5.7500668E0,0E0,0E0,0E0,0E0],"parents":[2147483647,0,0,1,1,2,2,6,6,7,7,8,8],"right_children":[2,4,6,-1,-1,-1,8,10,12,-1,-1,-1,-1],"split_conditions":[4.092E3,2E1,-7.258571E2,-2.577295E0,-4.8908693E-1,-1.9428711E0,5.9393427E2,5.1677144E3,4.767067E3,4.9414065E-2,-1.1522706E0,1.4947265E0,2.835791E0],"split_indices":[45,2,56,0,0,0,50,47,48,0,0,0,0],"split_type":[0,0,0,0,0,0,0,0,0,0,0,0,0],"sum_hessian":[6.54E2,4.8E1,6.06E2,3.6E1,1.2E1,1.5E1,5.91E2,5.46E2,4.5E1,5.08E2,3.8E1,1.7E1,2.8E1],"tree_param":{"num_deleted":"0","num_feature":"58","num_nodes":"13","size_leaf_vector":"1"}},{"base_weights":[-2.1132076E-2,-6.284367E-2,4.9056605E-2,5.3302433E-2,-3.0656934E-1,-2.7306274E-1,2.0236088E-1,-8.761905E-1,-1.10749185E-1,-6.6985646E-3,-3.6507938E-2,6.972477E-3,4.489796E-2,-1.904762E-2,-4.9411766E-2,-3.432836E-2,2.4896266E-3],"categories":[],"categories_nodes":[],"categories_segments":[],"categories_sizes":[],"default_left":[0,0,0,0,0,0,0,0,0,0,0,0,0,0,0,0,0],"id":64,"left_children":[1,3,-1,5,7,9,11,13,15,-1,-1,-1,-1,-1,-1,-1,-1],"loss_changes":[2.7727331E1,1.802608E1,0E0,2.1019018E1,2.287363E1,8.565929E0,1.2912531E1,2.7249298E0,1.4207064E1,0E0,0E0,0E0,0E0,0E0,0E0,0E0,0E0],"parents":[2147483647,0,0,1,1,3,3,4,4,5,5,6,6,7,7,8,8],"right_children":[2,4,-1,6,8,10,12,14,16,-1,-1,-1,-1,-1,-1,-1,-1],"split_conditions":[5.806E3,5.947267E-1,8.334912E0,4.361143E3,5.5E1,4.44E3,4.767067E3,4.755E3,4.166E3,-4.4829103E-1,-2.2414308E0,4.185303E-1,2.9594728E-1,-3.554248E0,-1.2664307E0,-2.8471925E0,1.9387208E-1],"split_indices":[38,10,0,46,4,40,48,42,43,0,0,0,0,0,0,0,0],"split_type":[0,0,0,0,0,0,0,0,0,0,0,0,0,0,0,0,0],"sum_hessian":[6.62E2,6.36E2,2.6E1,4.31E2,2.05E2,1.35E2,2.96E2,5.2E1,1.53E2,1.04E2,3.1E1,2.72E2,2.4E1,1E1,4.2E1,3.3E1,1.2E2],"tree_param":{"num_deleted":"0","num_feature":"58","num_nodes":"17","size_leaf_vector":"1"}},{"base_weights":[-9.252121E-3,-4.636291E-2,4.893617E-2,-2.4449877E-1,4.9822062E-2,-3.9721254E-1,1.1382114E-1,7.54717E-3,7.346939E-1,-3.0303031E-2,-5.691057E-3,-4.3010754E-3,3.548387E-2,-2.6966292E-2,3.8189534E-3,2.4E-2,4.8E-2],"categories":[],"categories_nodes":[],"categories_segments":[],"categories_sizes":[],"default_left":[0,0,0,0,0,0,0,0,0,0,0,0,0,0,0,0,0],"id":65,"left_children":[1,3,-1,5,7,9,11,13,15,-1,-1,-1,-1,-1,-1,-1,-1],"loss_changes":[2.379965E1,1.1926679E1,0E0,1.1212923E1,1.2200868E1,8.458662E0,7.3537893E0,1.4983414E1,1.1755104E0,0E0,0E0,0E0,0E0,0E0,0E0,0E0,0E0],"parents":[2147483647,0,0,1,1,3,3,4,4,5,5,6,6,7,7,8,8],"right_children":[2,4,-1,6,8,10,12,14,16,-1,-1,-1,-1,-1,-1,-1,-1],"split_conditions":[5.806E3,4.316E3,9.427833E0,4.6649517E3,1.3E1,-1.0967033E0,2.45E2,3E0,2.3E1,-2.7573488E0,-8.3425295E-1,-4.6142578E-2,4.8861084E0,-5.833252E-1,2.0407715E-1,2.0581055E-2,2.8516114E0],"split_indices":[38,39,0,32,28,53,26,26,2,0,0,0,0,0,0,0,0],"split_type":[0,0,0,0,0,0,0,0,0,0,0,0,0,0,0,0,0],"sum_hessian":[6.48E2,6.25E2,2.3E1,2.04E2,4.21E2,1.43E2,6.1E1,3.97E2,2.4E1,8.2E1,6.1E1,4.6E1,1.5E1,4.4E1,3.53E2,1.2E1,1.2E1],"tree_param":{"num_deleted":"0","num_feature":"58","num_nodes":"17","size_leaf_vector":"1"}},{"base_weights":[-2.7252082E-2,-8.326395E-2,5.289256E-1,-4.3589745E-2,-5.6749783E-2,7.8350514E-1,-2.4E-2,-9.247507E-2,5.9016395E-1,-0E0,4.935065E-2,2.1276595E-3,-1.29817445E-2,4.871795E-2,-4.3478264E-3],"categories":[],"categories_nodes":[],"categories_segments":[],"categories_sizes":[],"default_left":[0,0,0,0,0,0,0,0,0,0,0,0,0,0,0],"id":66,"left_children":[1,3,5,-1,7,9,-1,11,13,-1,-1,-1,-1,-1,-1],"loss_changes":[2.059828E1,1.2530059E1,1.5727575E1,0E0,1.3466436E1,7.7332973E0,0E0,1.2453596E1,7.9768267E0,0E0,0E0,0E0,0E0,0E0,0E0],"parents":[2147483647,0,0,1,1,2,2,4,4,5,5,7,7,8,8],"right_children":[2,4,6,-1,8,10,-1,12,14,-1,-1,-1,-1,-1,-1],"split_conditions":[1.85E2,-6.73E2,4.6872334E3,-1.8136963E0,5.463E3,4.402533E3,-5.219751E0,6.234898E-1,-3.5333332E1,-5.17749E-1,7.427344E0,5.3076174E-2,-3.9365235E-1,3.03833E-1,-5.341797E-2],"split_indices":[55,56,48,0,43,48,0,7,55,0,0,0,0,0,0],"split_type":[0,0,0,0,0,0,0,0,0,0,0,0,0,0,0],"sum_hessian":[6.6E2,6E2,6E1,1.9E1,5.81E2,4.8E1,1.2E1,5.51E2,3E1,1E1,3.8E1,3.05E2,2.46E2,1.9E1,1.1E1],"tree_param":{"num_deleted":"0","num_feature":"58","num_nodes":"15","size_leaf_vector":"1"}},{"base_weights":[-1.8113207E-2,-5.970149E-2,4.9056605E-2,-1.0324729E-1,6.5753424E-1,-6.280992E-1,-4.440333E-2,1.6216217E-2,4.864865E-2,-4.158416E-2,1.904762E-2,-1.1211573E-2,7.183365E-3],"categories":[],"categories_nodes":[],"categories_segments":[],"categories_sizes":[],"default_left":[0,0,0,0,0,0,0,0,0,0,0,0,0],"id":67,"left_children":[1,3,-1,5,7,9,11,-1,-1,-1,-1,-1,-1],"loss_changes":[2.7560734E1,1.9913498E1,0E0,1.8532116E1,3.6786375E0,1.2586737E1,1.8296028E1,0E0,0E0,0E0,0E0,0E0,0E0],"parents":[2147483647,0,0,1,1,3,3,4,4,5,5,6,6],"right_children":[2,4,-1,6,8,10,12,-1,-1,-1,-1,-1,-1],"split_conditions":[5.806E3,1E1,7.444116E0,1E1,4.241E3,6.063E3,4.4505713E3,6.286621E-2,7.4592286E-1,-1.6508789E0,1.2903369E1,-8.470215E-1,2.6538086E-1],"split_indices":[38,28,0,26,44,41,46,0,0,0,0,0,0],"split_type":[0,0,0,0,0,0,0,0,0,0,0,0,0],"sum_hessian":[6.62E2,6.36E2,2.6E1,6E2,3.6E1,6E1,5.4E2,1.8E1,1.8E1,5E1,1E1,2.76E2,2.64E2],"tree_param":{"num_deleted":"0","num_feature":"58","num_nodes":"13","size_leaf_vector":"1"}},{"base_weights":[3.0372057E-2,-3.725656E-2,6.131387E-1,-7.3279716E-2,6.031746E-1,8.869565E-1,-3.9130434E-2,-1.853759E-2,-4.295302E-1,4.3243244E-2,1.1111111E-2,4.9473684E-2,1.904762E-2,-4.0293043E-3,1.5686275E-2,-4.6268657E-2,-1.2048193E-3],"categories":[],"categories_nodes":[],"categories_segments":[],"categories_sizes":[],"default_left":[0,0,0,0,0,0,0,0,0,0,0,0,0,0,0,0,0],"id":68,"left_children":[1,3,5,7,9,11,-1,13,15,-1,-1,-1,-1,-1,-1,-1,-1],"loss_changes":[2.596403E1,1.3645142E1,2.6526438E1,1.0907337E1,3.0441875E0,2.7942924E0,0E0,1.0021914E1,1.4965696E1,0E0,0E0,0E0,0E0,0E0,0E0,0E0,0E0],"parents":[2147483647,0,0,1,1,2,2,3,3,4,4,5,5,7,7,8,8],"right_children":[2,4,6,8,10,12,-1,14,16,-1,-1,-1,-1,-1,-1,-1,-1],"split_conditions":[4.147143E2,3E1,3.9E1,6.6E1,4.52E3,8.325714E2,-4.8762207E0,8.429415E-1,8.328571E1,2.6345704E0,5.499756E-1,4.872168E0,4.168457E0,-1.9658203E-1,6.310547E-1,-3.132129E0,-7.56836E-4],"split_indices":[56,2,18,52,45,56,0,11,56,0,0,0,0,0,0,0,0],"split_type":[0,0,0,0,0,0,0,0,0,0,0,0,0,0,0,0,0],"sum_hessian":[6.58E2,5.9E2,6.8E1,5.59E2,3.1E1,5.7E1,1.1E1,4.85E2,7.4E1,1.8E1,1.3E1,4.7E1,1E1,4.09E2,7.6E1,3.3E1,4.1E1],"tree_param":{"num_deleted":"0","num_feature":"58","num_nodes":"17","size_leaf_vector":"1"}},{"base_weights":[1.537279E-2,-2.0717131E-2,