{"learner":{"attributes":{"scikit_learn":"{\"_estimator_type\": \"regressor\"}"},"feature_names":["year","month","day","day_of_week","day_of_year","is_weekend","dow_sin","dow_cos","month_sin","month_cos","doy_sin","doy_cos","is_holiday","is_statutory_holiday","holiday_type","is_adjusted_workday","days_to_next_holiday","next_holiday_type","days_from_prev_holiday","prev_holiday_type","days_to_nearest_holiday","holiday_proximity","holiday_phase","holiday_day_num","total_holiday_length","holiday_progress","days_to_cny","cny_window","cny_pre","cny_post","cny_day","year_normalized","dow_mean","dow_std","month_mean","month_std","holiday_type_mean","holiday_type_std","cny_offset_mean","lag_1","lag_2","lag_3","lag_7","lag_14","lag_21","lag_28","roll_7","roll_14","roll_30","std_7","std_14","trend_7","slope_7","slope_14","accel_7","recent_change_3d","delta_vs_roll7","delta_vs_lag7"],"feature_types":["float","float","float","float","float","float","float","float","float","float","float","float","float","float","float","float","float","float","float","float","float","float","float","float","float","float","float","float","float","float","float","float","float","float","float","float","float","float","float","float","float","float","float","float","float","float","float","float","float","float","float","float","float","float","float","float","float","float"],"gradient_booster":{"model":{"cats":{"enc":[],"feature_segments":[],"sorted_idx":[]},"gbtree_model_param":{"num_parallel_tree":"1","num_trees":"800"},"iteration_indptr":[0,1,2,3,4,5,6,7,8,9,10,11,12,13,14,15,16,17,18,19,20,21,22,23,24,25,26,27,28,29,30,31,32,33,34,35,36,37,38,39,40,41,42,43,44,45,46,47,48,49,50,51,52,53,54,55,56,57,58,59,60,61,62,63,64,65,66,67,68,69,70,71,72,73,74,75,76,77,78,79,80,81,82,83,84,85,86,87,88,89,90,91,92,93,94,95,96,97,98,99,100,101,102,103,104,105,106,107,108,109,110,111,112,113,114,115,116,117,118,119,120,121,122,123,124,125,126,127,128,129,130,131,132,133,134,135,136,137,138,139,140,141,142,143,144,145,146,147,148,149,150,151,152,153,154,155,156,157,158,159,160,161,162,163,164,165,166,167,168,169,170,171,172,173,174,175,176,177,178,179,180,181,182,183,184,185,186,187,188,189,190,191,192,193,194,195,196,197,198,199,200,201,202,203,204,205,206,207,208,209,210,211,212,213,214,215,216,217,218,219,220,221,222,223,224,225,226,227,228,229,230,231,232,233,234,235,236,237,238,239,240,241,242,243,244,245,246,247,248,249,250,251,252,253,254,255,256,257,258,259,260,261,262,263,264,265,266,267,268,269,270,271,272,273,274,275,276,277,278,279,280,281,282,283,284,285,286,287,288,289,290,291,292,293,294,295,296,297,298,299,300,301,302,303,304,305,306,307,308,309,310,311,312,313,314,315,316,317,318,319,320,321,322,323,324,325,326,327,328,329,330,331,332,333,334,335,336,337,338,339,340,341,342,343,344,345,346,347,348,349,350,351,352,353,354,355,356,357,358,359,360,361,362,363,364,365,366,367,368,369,370,371,372,373,374,375,376,377,378,379,380,381,382,383,384,385,386,387,388,389,390,391,392,393,394,395,396,397,398,399,400,401,402,403,404,405,406,407,408,409,410,411,412,413,414,415,416,417,418,419,420,421,422,423,424,425,426,427,428,429,430,431,432,433,434,435,436,437,438,439,440,441,442,443,444,445,446,447,448,449,450,451,452,453,454,455,456,457,458,459,460,461,462,463,464,465,466,467,468,469,470,471,472,473,474,475,476,477,478,479,480,481,482,483,484,485,486,487,488,489,490,491,492,493,494,495,496,497,498,499,500,501,502,503,504,505,506,507,508,509,510,511,512,513,514,515,516,517,518,519,520,521,522,523,524,525,526,527,528,529,530,531,532,533,534,535,536,537,538,539,540,541,542,543,544,545,546,547,548,549,550,551,552,553,554,555,556,557,558,559,560,561,562,563,564,565,566,567,568,569,570,571,572,573,574,575,576,577,578,579,580,581,582,583,584,585,586,587,588,589,590,591,592,593,594,595,596,597,598,599,600,601,602,603,604,605,606,607,608,609,610,611,612,613,614,615,616,617,618,619,620,621,622,623,624,625,626,627,628,629,630,631,632,633,634,635,636,637,638,639,640,641,642,643,644,645,646,647,648,649,650,651,652,653,654,655,656,657,658,659,660,661,662,663,664,665,666,667,668,669,670,671,672,673,674,675,676,677,678,679,680,681,682,683,684,685,686,687,688,689,690,691,692,693,694,695,696,697,698,699,700,701,702,703,704,705,706,707,708,709,710,711,712,713,714,715,716,717,718,719,720,721,722,723,724,725,726,727,728,729,730,731,732,733,734,735,736,737,738,739,740,741,742,743,744,745,746,747,748,749,750,751,752,753,754,755,756,757,758,759,760,761,762,763,764,765,766,767,768,769,770,771,772,773,774,775,776,777,778,779,780,781,782,783,784,785,786,787,788,789,790,791,792,793,794,795,796,797,798,799,800],"tree_info":[0,0,0,0,0,0,0,0,0,0,0,0,0,0,0,0,0,0,0,0,0,0,0,0,0,0,0,0,0,0,0,0,0,0,0,0,0,0,0,0,0,0,0,0,0,0,0,0,0,0,0,0,0,0,0,0,0,0,0,0,0,0,0,0,0,0,0,0,0,0,0,0,0,0,0,0,0,0,0,0,0,0,0,0,0,0,0,0,0,0,0,0,0,0,0,0,0,0,0,0,0,0,0,0,0,0,0,0,0,0,0,0,0,0,0,0,0,0,0,0,0,0,0,0,0,0,0,0,0,0,0,0,0,0,0,0,0,0,0,0,0,0,0,0,0,0,0,0,0,0,0,0,0,0,0,0,0,0,0,0,0,0,0,0,0,0,0,0,0,0,0,0,0,0,0,0,0,0,0,0,0,0,0,0,0,0,0,0,0,0,0,0,0,0,0,0,0,0,0,0,0,0,0,0,0,0,0,0,0,0,0,0,0,0,0,0,0,0,0,0,0,0,0,0,0,0,0,0,0,0,0,0,0,0,0,0,0,0,0,0,0,0,0,0,0,0,0,0,0,0,0,0,0,0,0,0,0,0,0,0,0,0,0,0,0,0,0,0,0,0,0,0,0,0,0,0,0,0,0,0,0,0,0,0,0,0,0,0,0,0,0,0,0,0,0,0,0,0,0,0,0,0,0,0,0,0,0,0,0,0,0,0,0,0,0,0,0,0,0,0,0,0,0,0,0,0,0,0,0,0,0,0,0,0,0,0,0,0,0,0,0,0,0,0,0,0,0,0,0,0,0,0,0,0,0,0,0,0,0,0,0,0,0,0,0,0,0,0,0,0,0,0,0,0,0,0,0,0,0,0,0,0,0,0,0,0,0,0,0,0,0,0,0,0,0,0,0,0,0,0,0,0,0,0,0,0,0,0,0,0,0,0,0,0,0,0,0,0,0,0,0,0,0,0,0,0,0,0,0,0,0,0,0,0,0,0,0,0,0,0,0,0,0,0,0,0,0,0,0,0,0,0,0,0,0,0,0,0,0,0,0,0,0,0,0,0,0,0,0,0,0,0,0,0,0,0,0,0,0,0,0,0,0,0,0,0,0,0,0,0,0,0,0,0,0,0,0,0,0,0,0,0,0,0,0,0,0,0,0,0,0,0,0,0,0,0,0,0,0,0,0,0,0,0,0,0,0,0,0,0,0,0,0,0,0,0,0,0,0,0,0,0,0,0,0,0,0,0,0,0,0,0,0,0,0,0,0,0,0,0,0,0,0,0,0,0,0,0,0,0,0,0,0,0,0,0,0,0,0,0,0,0,0,0,0,0,0,0,0,0,0,0,0,0,0,0,0,0,0,0,0,0,0,0,0,0,0,0,0,0,0,0,0,0,0,0,0,0,0,0,0,0,0,0,0,0,0,0,0,0,0,0,0,0,0,0,0,0,0,0,0,0,0,0,0,0,0,0,0,0,0,0,0,0,0,0,0,0,0,0,0,0,0,0,0,0,0,0,0,0,0,0,0,0,0,0,0,0,0,0,0,0,0,0,0,0,0,0,0,0,0,0,0,0,0,0,0,0,0,0,0,0,0,0,0,0,0,0,0,0,0,0,0,0,0,0,0,0,0,0,0,0,0,0,0,0,0,0,0,0,0,0,0,0,0,0,0,0,0,0,0,0,0,0,0,0,0,0,0,0,0,0,0,0,0,0,0,0,0,0,0,0,0,0,0,0,0,0,0,0,0,0,0,0,0,0,0,0,0,0,0,0,0,0,0,0,0,0,0,0,0,0,0,0,0,0,0,0,0,0],"trees":[{"base_weights":[1.7977528E-2,-5.7872343E-1,6.846276E-1,-8.692153E-1,1.14832535E-1,1.734104E-1,8.75817E-1,-1.3793103E-2,-9.040512E-1,2.6519337E-1,-4.1379314E-2,-2.1621622E-1,8.5714287E-1,9.248292E-1,-9.52381E-3,-4.6756152E-2,-1.3043478E-2,-2.173913E-2,1.8238993E-2,6.5573766E-3,-3.137255E-2,2.857143E-2,4.883721E-2,3.3846155E-2,4.8266668E-2],"categories":[],"categories_nodes":[],"categories_segments":[],"categories_sizes":[],"default_left":[0,0,0,0,0,0,0,0,0,0,0,0,0,0,0,0,0,0,0,0,0,0,0,0,0],"id":0,"left_children":[1,3,5,7,9,11,13,-1,15,17,-1,19,21,23,-1,-1,-1,-1,-1,-1,-1,-1,-1,-1,-1],"loss_changes":[2.6572342E2,7.106892E1,3.0760803E1,5.0118103E0,1.4917685E1,2.3136297E1,1.2082062E1,0E0,4.5644836E0,6.3878884E0,0E0,7.969212E0,7.973423E-1,1.8773041E0,0E0,0E0,0E0,0E0,0E0,0E0,0E0,0E0,0E0,0E0,0E0],"parents":[2147483647,0,0,1,1,2,2,3,3,4,4,5,5,6,6,8,8,9,9,11,11,12,12,13,13],"right_children":[2,4,6,8,10,12,14,-1,16,18,-1,20,22,24,-1,-1,-1,-1,-1,-1,-1,-1,-1,-1,-1],"split_conditions":[4.513E3,4.6529326E3,4.432E3,1.2973802E2,3.8584082E2,4.92E3,5.052E3,-1.5500001E0,1.6271428E2,4.105E3,-9.1E0,1E0,5.056E3,4.506E3,-1.7E0,-1.255E1,-1.15E0,-2.1000001E0,3.2E0,1.5E-1,-6.6E0,2.2050001E1,4.805E1,1.02E1,1.505E1],"split_indices":[39,32,42,50,49,39,44,0,56,40,0,7,39,42,0,0,0,0,0,0,0,0,0,0,0],"split_type":[0,0,0,0,0,0,0,0,0,0,0,0,0,0,0,0,0,0,0,0,0,0,0,0,0],"sum_hessian":[6.67E2,3.52E2,3.15E2,2.48E2,1.04E2,8.6E1,2.29E2,1.4E1,2.34E2,9E1,1.4E1,5.5E1,3.1E1,2.19E2,1E1,2.23E2,1.1E1,1.1E1,7.9E1,3E1,2.5E1,1E1,2.1E1,3.2E1,1.87E2],"tree_param":{"num_deleted":"0","num_feature":"58","num_nodes":"25","size_leaf_vector":"1"}},{"base_weights":[-5.9127863E-3,-5.590231E-1,6.547812E-1,-8.4393066E-1,1.1872146E-1,9.271523E-2,8.3511776E-1,-0E0,-9.068323E-1,3.473054E-1,-6.037736E-1,-2.3423423E-1,4.878049E-2,5.3608245E-1,9.110512E-1,-4.724062E-2,-1.6129032E-2,-3.0434782E-2,2.4827586E-2,-4.8387095E-2,-4.3478264E-3,-3.6734696E-2,7.936508E-3,-0E0,4.262295E-2,1.8518519E-2,4.7536235E-2],"categories":[],"categories_nodes":[],"categories_segments":[],"categories_sizes":[],"default_left":[0,0,0,0,0,0,0,0,0,0,0,0,0,0,0,0,0,0,0,0,0,0,0,0,0,0,0],"id":1,"left_children":[1,3,5,7,9,11,13,-1,15,17,19,21,-1,23,25,-1,-1,-1,-1,-1,-1,-1,-1,-1,-1,-1,-1],"loss_changes":[2.474009E2,7.120543E1,3.1231155E1,1.3775467E1,1.8188856E1,2.1908234E1,5.057831E0,0E0,5.206482E0,1.2064876E1,4.942708E0,1.0973095E1,0E0,8.225792E0,3.8030396E0,0E0,0E0,0E0,0E0,0E0,0E0,0E0,0E0,0E0,0E0,0E0,0E0],"parents":[2147483647,0,0,1,1,2,2,3,3,4,4,5,5,6,6,8,8,9,9,10,10,11,11,13,13,14,14],"right_children":[2,4,6,8,10,12,14,-1,16,18,20,22,-1,24,26,-1,-1,-1,-1,-1,-1,-1,-1,-1,-1,-1,-1],"split_conditions":[4.522E3,4.6529326E3,4.438E3,1.2973802E2,4.8570392E2,1E0,2E0,-3.7250978E-1,1.5471428E2,-2.5557143E2,4.5945E3,1E0,4.564751E1,1.3184615E1,4.27E3,-1.252251E1,-7.219995E0,-5.644995E0,4.33999E0,-2.5100098E0,-1.9949951E0,-5.9199953E0,1.8425049E0,-5.5249023E-1,2.594751E1,1.8899902E0,1.4589991E1],"split_indices":[39,32,42,50,35,12,3,0,56,56,48,3,0,53,40,0,0,0,0,0,0,0,0,0,0,0,0],"split_type":[0,0,0,0,0,0,0,0,0,0,0,0,0,0,0,0,0,0,0,0,0,0,0,0,0,0,0],"sum_hessian":[6.76E2,3.68E2,3.08E2,2.59E2,1.09E2,7.5E1,2.33E2,1.8E1,2.41E2,8.3E1,2.6E1,5.5E1,2E1,4.8E1,1.85E2,2.26E2,1.5E1,1.1E1,7.2E1,1.5E1,1.1E1,2.4E1,3.1E1,1.8E1,3E1,1.3E1,1.72E2],"tree_param":{"num_deleted":"0","num_feature":"58","num_nodes":"27","size_leaf_vector":"1"}},{"base_weights":[-2.8636022E-2,-5.572414E-1,6.069652E-1,-8.015123E-1,1.0152284E-1,2.2026432E-1,8.381963E-1,-8.784648E-1,-1.9672132E-1,6.233766E-1,-2.3140496E-1,-2.1138212E-1,7.2380954E-1,3.5555556E-1,9.009009E-1,-4.6928745E-2,-2.3809524E-2,-4.8387095E-2,2.9032258E-2,3.7037039E-3,4.509804E-2,1.1320755E-2,-2.8985506E-2,-3.287671E-2,2.1568628E-2,1.7948719E-2,4.6268657E-2,4.8E-2,-1.904762E-2,4.824903E-2,3.3766236E-2],"categories":[],"categories_nodes":[],"categories_segments":[],"categories_sizes":[],"default_left":[0,0,0,0,0,0,0,0,0,0,0,0,0,0,0,0,0,0,0,0,0,0,0,0,0,0,0,0,0,0,0],"id":2,"left_children":[1,3,5,7,9,11,13,15,17,19,21,23,25,27,29,-1,-1,-1,-1,-1,-1,-1,-1,-1,-1,-1,-1,-1,-1,-1,-1],"loss_changes":[2.230933E2,5.8373077E1,2.6866997E1,1.222348E1,1.718548E1,2.4746124E1,5.544571E0,5.4469147E0,1.8561607E1,5.8581333E0,9.713024E0,1.7777954E1,3.6946278E0,1.0199365E1,2.080902E0,0E0,0E0,0E0,0E0,0E0,0E0,0E0,0E0,0E0,0E0,0E0,0E0,0E0,0E0,0E0,0E0],"parents":[2147483647,0,0,1,1,2,2,3,3,4,4,5,5,6,6,7,7,8,8,9,9,10,10,11,11,12,12,13,13,14,14],"right_children":[2,4,6,8,10,12,14,16,18,20,22,24,26,28,30,-1,-1,-1,-1,-1,-1,-1,-1,-1,-1,-1,-1,-1,-1,-1,-1],"split_conditions":[4.522E3,4.6529326E3,4.521E3,1E0,3.4993277E2,4.727E3,-5E-1,4E0,4.266E3,-4.7E1,-3.8168922E-1,3E0,4.299E3,4.538643E3,2E1,-1.1946387E1,-3.1038818E0,-9.946387E0,1.4961182E0,2.7299806E-1,8.072998E0,1.5229981E0,-2.910254E0,-5.573999E0,2.6954834E0,4.041514E1,2.1392628E1,6.303003E0,-5.969971E-1,1.5268018E1,5.0680175E0],"split_indices":[39,32,42,27,35,39,8,3,38,51,11,3,42,47,2,0,0,0,0,0,0,0,0,0,0,0,0,0,0,0,0],"split_type":[0,0,0,0,0,0,0,0,0,0,0,0,0,0,0,0,0,0,0,0,0,0,0,0,0,0,0,0,0,0,0],"sum_hessian":[6.63E2,3.62E2,3.01E2,2.64E2,9.8E1,1.13E2,1.88E2,2.34E2,3E1,3.8E1,6E1,6.1E1,5.2E1,2.2E1,1.66E2,2.03E2,3.1E1,1.5E1,1.5E1,1.3E1,2.5E1,2.6E1,3.4E1,3.6E1,2.5E1,1.9E1,3.3E1,1.2E1,1E1,1.28E2,3.8E1],"tree_param":{"num_deleted":"0","num_feature":"58","num_nodes":"31","size_leaf_vector":"1"}},{"base_weights":[-3.3044845E-2,-5.714286E-1,6.1139894E-1,-8.9361703E-1,-6.642067E-2,-2.8985506E-1,7.3189825E-1,-9.280397E-1,-9.52381E-3,3.838384E-1,-3.236994E-1,2.7586207E-2,-4.3902438E-2,-1.904762E-2,7.7800405E-1,-2.9032258E-2,-4.772118E-2,-9.756098E-3,3.898305E-2,-2.519084E-2,1.1627908E-2,2.4503311E-2,4.516129E-2],"categories":[],"categories_nodes":[],"categories_segments":[],"categories_sizes":[],"default_left":[0,0,0,0,0,0,0,0,0,0,0,0,0,0,0,0,0,0,0,0,0,0,0],"id":3,"left_children":[1,3,5,7,9,11,13,15,-1,17,19,-1,-1,-1,21,-1,-1,-1,-1,-1,-1,-1,-1],"loss_changes":[2.2066653E2,5.634855E1,3.1545906E1,5.0307617E0,1.5758726E1,1.732012E1,1.3257614E1,1.5697784E0,0E0,1.1419762E1,8.725161E0,0E0,0E0,0E0,8.630432E0,0E0,0E0,0E0,0E0,0E0,0E0,0E0,0E0],"parents":[2147483647,0,0,1,1,2,2,3,3,4,4,5,5,6,6,7,7,9,9,10,10,14,14],"right_children":[2,4,6,8,10,12,14,16,-1,18,20,-1,-1,-1,22,-1,-1,-1,-1,-1,-1,-1,-1],"split_conditions":[4.524E3,4E0,4.315E3,4.508E3,3.4993277E2,2E0,4.27E3,-8.660254E-1,-6.26167E0,4.3303E3,2.4E1,2.1644384E1,-6.734375E0,-2.9538575E-1,4.521E3,-2.4065673E0,-1.2499072E1,-4.3066406E-1,7.269336E0,-2.8531494E0,1.9737061E0,5.4057374E0,1.8214624E1],"split_indices":[39,3,42,39,35,20,38,9,0,48,2,0,0,0,42,0,0,0,0,0,0,0,0],"split_type":[0,0,0,0,0,0,0,0,0,0,0,0,0,0,0,0,0,0,0,0,0,0,0],"sum_hessian":[6.35E2,3.46E2,2.89E2,2.11E2,1.35E2,3.4E1,2.55E2,2.01E2,1E1,4.9E1,8.6E1,1.4E1,2E1,1E1,2.45E2,1.5E1,1.86E2,2E1,2.9E1,6.5E1,2.1E1,7.5E1,1.7E2],"tree_param":{"num_deleted":"0","num_feature":"58","num_nodes":"23","size_leaf_vector":"1"}},{"base_weights":[-3.213466E-2,-5.376956E-1,5.553719E-1,-8.285078E-1,-2.3529412E-2,3.209169E-1,8.715953E-1,-1.0909091E-1,-9.265823E-1,-4.4210526E-1,2.2360249E-1,-4.3835616E-1,5.198556E-1,4.974359E-2,4.7619048E-1,-4.1379314E-2,3.3333335E-2,-4.858044E-2,-3.670886E-2,-4.262295E-2,1.4285715E-2,-3.9130434E-2,1.942446E-2,-4.489796E-2,2.4E-2,3.3333335E-2,-2.5714288E-2,4.3243244E-2,-3.7037039E-3],"categories":[],"categories_nodes":[],"categories_segments":[],"categories_sizes":[],"default_left":[0,0,0,0,0,0,0,0,0,0,0,0,0,0,0,0,0,0,0,0,0,0,0,0,0,0,0,0,0],"id":4,"left_children":[1,3,5,7,9,11,13,15,17,19,21,23,25,-1,27,-1,-1,-1,-1,-1,-1,-1,-1,-1,-1,-1,-1,-1,-1],"loss_changes":[1.942521E2,5.254857E1,2.2287544E1,1.5789383E1,1.3238467E1,2.6471956E1,6.0267487E0,1.5603762E1,1.3543396E0,1.4308298E1,1.3507841E1,1.5621403E1,2.119897E1,0E0,6.769054E0,0E0,0E0,0E0,0E0,0E0,0E0,0E0,0E0,0E0,0E0,0E0,0E0,0E0,0E0],"parents":[2147483647,0,0,1,1,2,2,3,3,4,4,5,5,6,6,7,7,8,8,9,9,10,10,11,11,12,12,14,14],"right_children":[2,4,6,8,10,12,14,16,18,20,22,24,26,-1,28,-1,-1,-1,-1,-1,-1,-1,-1,-1,-1,-1,-1,-1,-1],"split_conditions":[4.522E3,4E0,4.815E3,1.1599548E2,4.380933E3,1E0,2.2E1,4.389E3,1.63E2,4.428571E0,5E0,4.689E3,8.892857E1,4.202522E1,2.4879538E2,-1.1424121E1,3.2994142E0,-1.2574121E1,-8.824121E0,-3.9313233E0,3.2363527E0,-6.6898685E0,2.239502E0,-5.1655765E0,5.826001E0,4.750464E0,-2.8061524E-1,2.2693872E1,-3.8514893E0],"split_indices":[39,3,39,49,48,3,16,39,57,54,20,41,54,0,49,0,0,0,0,0,0,0,0,0,0,0,0,0,0],"split_type":[0,0,0,0,0,0,0,0,0,0,0,0,0,0,0,0,0,0,0,0,0,0,0,0,0,0,0,0,0],"sum_hessian":[6.53E2,3.51E2,3.02E2,2.24E2,1.27E2,1.74E2,1.28E2,2.7E1,1.97E2,4.7E1,8E1,3.6E1,1.38E2,9.7E1,3.1E1,1.4E1,1.3E1,1.58E2,3.9E1,3E1,1.7E1,1.1E1,6.9E1,2.4E1,1.2E1,1.21E2,1.7E1,1.8E1,1.3E1],"tree_param":{"num_deleted":"0","num_feature":"58","num_nodes":"29","size_leaf_vector":"1"}},{"base_weights":[-1.9892884E-2,-5.316456E-1,5.8961475E-1,-7.8185743E-1,-6.4257026E-2,3.8120106E-1,9.5813954E-1,1.509434E-1,-9.002433E-1,-7.906977E-1,8.695652E-2,-3.6363637E-1,5.6677526E-1,4.972973E-2,3.548387E-2,-3.2E-2,4.1379314E-2,-4.918033E-2,-3.271028E-2,-2.857143E-2,-4.782609E-2,2.8235296E-2,-1.2195122E-2,7.692308E-3,-4.3589745E-2,-3.809524E-2,3.310105E-2],"categories":[],"categories_nodes":[],"categories_segments":[],"categories_sizes":[],"default_left":[0,0,0,0,0,0,0,0,0,0,0,0,0,0,0,0,0,0,0,0,0,0,0,0,0,0,0],"id":5,"left_children":[1,3,5,7,9,11,13,15,17,19,21,23,25,-1,-1,-1,-1,-1,-1,-1,-1,-1,-1,-1,-1,-1,-1],"loss_changes":[2.039946E2,4.1549232E1,2.274385E1,2.5632584E1,1.3710413E1,2.657268E1,6.207886E-1,1.444726E1,3.8931732E0,5.084505E-1,1.6428871E1,1.0191142E1,1.9677784E1,0E0,0E0,0E0,0E0,0E0,0E0,0E0,0E0,0E0,0E0,0E0,0E0,0E0,0E0],"parents":[2147483647,0,0,1,1,2,2,3,3,4,4,5,5,6,6,7,7,8,8,9,9,10,10,11,11,12,12],"right_children":[2,4,6,8,10,12,14,16,18,20,22,24,26,-1,-1,-1,-1,-1,-1,-1,-1,-1,-1,-1,-1,-1,-1],"split_conditions":[4.522E3,4E0,4.92E3,1.3786528E2,4.121E3,4.362E3,3.9E1,-8.977434E-1,1.43E2,3.4157076E-1,5E0,5E-1,4.303E3,3.7523952E1,2.1841309E1,-2.6950195E0,1.8812989E0,-1.1945411E1,-9.29541E0,-1.9331054E-1,-8.569043E0,7.3578615E0,-7.5820315E-1,1.3264893E0,-2.3572998E0,-5.9182863E0,5.5346923E0],"split_indices":[39,3,39,50,39,44,16,11,57,11,3,8,42,0,0,0,0,0,0,0,0,0,0,0,0,0,0],"split_type":[0,0,0,0,0,0,0,0,0,0,0,0,0,0,0,0,0,0,0,0,0,0,0,0,0,0,0],"sum_hessian":[6.53E2,3.55E2,2.98E2,2.31E2,1.24E2,1.91E2,1.07E2,2.6E1,2.05E2,2.1E1,1.03E2,3.8E1,1.53E2,9.2E1,1.5E1,1.2E1,1.4E1,1.52E2,5.3E1,1E1,1.1E1,4.2E1,6.1E1,1.9E1,1.9E1,1E1,1.43E2],"tree_param":{"num_deleted":"0","num_feature":"58","num_nodes":"27","size_leaf_vector":"1"}},{"base_weights":[-6.263982E-2,-5.1655626E-1,5.212947E-1,-6.698873E-1,1.9259259E-1,-9.009009E-2,6.624738E-1,-4.98155E-2,-4.159544E-1,-4.0000003E-2,4.144144E-1,-4.4444445E-1,4.1935485E-2,3.1746034E-2,7.566265E-1,6.382979E-3,-2.4918033E-2,4.0425535E-2,6.153846E-3,-3.508772E-2,8E-3,4.8E-2,-2.820513E-2,2.5641026E-3,4.1379314E-2],"categories":[],"categories_nodes":[],"categories_segments":[],"categories_sizes":[],"default_left":[0,0,0,0,0,0,0,0,0,0,0,0,0,0,0,0,0,0,0,0,0,0,0,0,0],"id":6,"left_children":[1,3,5,7,9,11,13,-1,15,-1,17,19,-1,21,23,-1,-1,-1,-1,-1,-1,-1,-1,-1,-1],"loss_changes":[1.778557E2,4.111178E1,2.5363205E1,2.5529968E1,1.5027828E1,1.8452774E1,1.4151253E1,0E0,7.893717E0,0E0,6.3224783E0,6.3550873E0,0E0,1.7693382E1,1.0364365E1,0E0,0E0,0E0,0E0,0E0,0E0,0E0,0E0,0E0,0E0],"parents":[2147483647,0,0,1,1,2,2,3,3,4,4,5,5,6,6,8,8,10,10,11,11,13,13,14,14],"right_children":[2,4,6,8,10,12,14,-1,16,-1,18,20,-1,22,24,-1,-1,-1,-1,-1,-1,-1,-1,-1,-1],"split_conditions":[4.522E3,4.6649517E3,1E0,4.298E3,4.077E3,4.67714E3,-1.8966667E2,-1.3348145E1,4.126E3,-3.5791016E0,4.474933E3,4.701E3,1.0064893E1,-3.1433334E2,4.27E3,4.468506E-1,-3.1181397E0,7.1752687E0,2.2898195E0,-4.973633E0,4.6098635E-1,6.4229614E1,-1.4870606E-1,1.166748E-1,1.0874951E1],"split_indices":[39,32,3,39,39,34,55,0,41,0,34,41,0,55,40,0,0,0,0,0,0,0,0,0,0],"split_type":[0,0,0,0,0,0,0,0,0,0,0,0,0,0,0,0,0,0,0,0,0,0,0,0,0],"sum_hessian":[6.7E2,3.77E2,2.93E2,3.1E2,6.7E1,5.5E1,2.38E2,1.35E2,1.75E2,1.2E1,5.5E1,4E1,1.5E1,3.1E1,2.07E2,2.3E1,1.52E2,2.3E1,3.2E1,2.8E1,1.2E1,1.2E1,1.9E1,1.9E1,1.88E2],"tree_param":{"num_deleted":"0","num_feature":"58","num_nodes":"25","size_leaf_vector":"1"}},{"base_weights":[-5.84166E-2,-5.4289734E-1,5.245347E-1,-8.1632656E-1,-9.594096E-2,3.1295845E-1,4.9726777E-2,-1.509434E-1,-9.0488434E-1,-8E-1,4.405286E-2,-1.7142858E-1,6.7234045E-1,-4.1935485E-2,3.9130434E-2,-4.906367E-2,-3.658537E-2,-2.857143E-2,-4.8E-2,2.3655914E-2,-1.2592593E-2,-3.670886E-2,1.4432989E-2,-2.0689657E-2,4.1062802E-2],"categories":[],"categories_nodes":[],"categories_segments":[],"categories_sizes":[],"default_left":[0,0,0,0,0,0,0,0,0,0,0,0,0,0,0,0,0,0,0,0,0,0,0,0,0],"id":7,"left_children":[1,3,5,7,9,11,-1,13,15,17,19,21,23,-1,-1,-1,-1,-1,-1,-1,-1,-1,-1,-1,-1],"loss_changes":[1.8386223E2,4.3406837E1,2.9229195E1,1.2924637E1,1.3373033E1,3.5656982E1,0E0,1.7342932E1,2.2140045E0,5.485716E-1,1.4469818E1,2.2760948E1,1.9174625E1,0E0,0E0,0E0,0E0,0E0,0E0,0E0,0E0,0E0,0E0,0E0,0E0],"parents":[2147483647,0,0,1,1,2,2,3,3,4,4,5,5,7,7,8,8,9,9,10,10,11,11,12,12],"right_children":[2,4,6,8,10,12,-1,14,16,18,20,22,24,-1,-1,-1,-1,-1,-1,-1,-1,-1,-1,-1,-1],"split_conditions":[4.522E3,4E0,4.6065E3,1.1599548E2,4.123E3,1E0,4.4823364E1,4.389E3,4.363E3,4.053E3,5E0,4.5268228E3,7.7E1,-8.799731E0,3.196289E0,-1.1530738E1,-4.8866944E0,-7.9616456E0,-1.3530029E0,5.4952884E0,-1.1580323E0,-5.64541E0,1.545874E0,-1.4125977E-1,7.8458743E0],"split_indices":[39,3,38,49,39,14,0,39,39,40,3,34,4,0,0,0,0,0,0,0,0,0,0,0,0],"split_type":[0,0,0,0,0,0,0,0,0,0,0,0,0,0,0,0,0,0,0,0,0,0,0,0,0],"sum_hessian":[6.5E2,3.55E2,2.95E2,2.2E2,1.35E2,2.04E2,9.1E1,2.6E1,1.94E2,2.2E1,1.13E2,8.7E1,1.17E2,1.5E1,1.1E1,1.33E2,6.1E1,1E1,1.2E1,4.6E1,6.7E1,3.9E1,4.8E1,1.4E1,1.03E2],"tree_param":{"num_deleted":"0","num_feature":"58","num_nodes":"25","size_leaf_vector":"1"}},{"base_weights":[-6.3714065E-2,-5.1476794E-1,4.9220103E-1,-6.844106E-2,-7.750557E-1,2.0183486E-1,8.685259E-1,-4.418605E-2,9.049774E-2,-9.6949154E-1,-4E-1,-7.111111E-2,7.9611653E-1,3.902439E-1,9.5734596E-1,9.547739E-3,-3.9130434E-2,-4.9795922E-2,-4.117647E-2,7.017544E-3,-3.5353538E-2,-4.2857144E-2,3.6649217E-3,2.3076924E-2,4.923077E-2,-9.52381E-3,4.761905E-2,3.846154E-2,4.9710985E-2],"categories":[],"categories_nodes":[],"categories_segments":[],"categories_sizes":[],"default_left":[0,0,0,0,0,0,0,0,0,0,0,0,0,0,0,0,0,0,0,0,0,0,0,0,0,0,0,0,0],"id":8,"left_children":[1,3,5,7,9,11,13,-1,15,17,19,21,23,25,27,-1,-1,-1,-1,-1,-1,-1,-1,-1,-1,-1,-1,-1,-1],"loss_changes":[1.614828E2,4.1273132E1,3.1437332E1,1.7079706E1,1.6177582E1,2.6549116E1,5.144577E0,0E0,9.766642E0,1.5887451E-1,1.2908878E1,1.2801344E1,3.0207596E0,6.782811E0,3.49411E-1,0E0,0E0,0E0,0E0,0E0,0E0,0E0,0E0,0E0,0E0,0E0,0E0,0E0,0E0],"parents":[2147483647,0,0,1,1,2,2,3,3,4,4,5,5,6,6,8,8,9,9,10,10,11,11,12,12,13,13,14,14],"right_children":[2,4,6,8,10,12,14,-1,16,18,20,22,24,26,28,-1,-1,-1,-1,-1,-1,-1,-1,-1,-1,-1,-1,-1,-1],"split_conditions":[4.522E3,0E0,4.815E3,5.5E1,4.347E3,4.6529326E3,4.33E3,-3.2564454E0,4.714857E3,4.298E3,6.234898E-1,4.360143E3,-1.8369701E-16,5.348E3,-9.882014E-2,1.1261231E0,-6.26001E0,-1.1798243E1,-5.815698E0,5.4748535E-1,-6.695508E0,-3.873413E0,3.6857912E-1,3.4381835E0,1.0836841E1,-4.4103026E0,3.6198658E1,1.3289844E1,2.5580372E1],"split_indices":[39,6,39,4,39,32,42,0,46,39,7,46,9,39,11,0,0,0,0,0,0,0,0,0,0,0,0,0,0],"split_type":[0,0,0,0,0,0,0,0,0,0,0,0,0,0,0,0,0,0,0,0,0,0,0,0,0,0,0,0,0],"sum_hessian":[6.43E2,3.55E2,2.88E2,1.31E2,2.24E2,1.63E2,1.25E2,2.1E1,1.1E2,1.47E2,7.7E1,1.12E2,5.1E1,2E1,1.05E2,9.9E1,1.1E1,1.22E2,2.5E1,2.8E1,4.9E1,1.7E1,9.5E1,1.9E1,3.2E1,1E1,1E1,1.9E1,8.6E1],"tree_param":{"num_deleted":"0","num_feature":"58","num_nodes":"29","size_leaf_vector":"1"}},{"base_weights":[-5.8059588E-2,-4.9001816E-1,2.5559947E-1,4.5901638E-2,-6.639511E-1,9.787928E-2,9.1156465E-1,-8E-1,-2.2988506E-2,-4.3243244E-1,3.2634032E-1,4.96063E-2,1.904762E-2,-4.7750868E-2,-2.0512821E-2,-1.4285715E-2,3.2E-2,-3.469388E-2,2.820513E-2,-9.90991E-3,2.539185E-2],"categories":[],"categories_nodes":[],"categories_segments":[],"categories_sizes":[],"default_left":[0,0,0,0,0,0,0,0,0,0,0,0,0,0,0,0,0,0,0,0,0],"id":9,"left_children":[1,3,5,-1,7,9,11,13,15,17,19,-1,-1,-1,-1,-1,-1,-1,-1,-1,-1],"loss_changes":[8.873934E1,6.7776505E1,3.921806E1,0E0,2.1398972E1,3.7204742E1,2.952919E0,1.2038544E1,7.6684403E0,2.4295584E1,2.0471157E1,0E0,0E0,0E0,0E0,0E0,0E0,0E0,0E0,0E0,0E0],"parents":[2147483647,0,0,1,1,2,2,4,4,5,5,6,6,7,7,8,8,9,9,10,10],"right_children":[2,4,6,-1,8,10,12,14,16,18,20,-1,-1,-1,-1,-1,-1,-1,-1,-1,-1],"split_conditions":[4.422E3,2E0,4.732E3,3.532014E1,4E0,-1.9914285E2,3.4E1,-2E1,1.08333336E2,7.935716E-1,3E0,3.616287E1,6.770247E1,-9.864283E0,-5.3976073E0,-1.7937988E0,4.987036E0,-4.3249025E0,5.7422366E0,-4.0268555E-1,4.1304445E0],"split_indices":[42,16,38,0,3,56,18,55,55,11,3,0,0,0,0,0,0,0,0,0,0],"split_type":[0,0,0,0,0,0,0,0,0,0,0,0,0,0,0,0,0,0,0,0,0],"sum_hessian":[6.54E2,2.75E2,3.79E2,3E1,2.45E2,3.06E2,7.3E1,2.02E2,4.3E1,9.2E1,2.14E2,6.3E1,1E1,1.44E2,5.8E1,3.1E1,1.2E1,7.3E1,1.9E1,5.5E1,1.59E2],"tree_param":{"num_deleted":"0","num_feature":"58","num_nodes":"21","size_leaf_vector":"1"}},{"base_weights":[-1.0118577E-1,-2.45266E-1,9.1719747E-1,-5.3292495E-1,1.6630197E-1,2.4E-2,4.9624063E-2,4.871795E-2,-6.276423E-1,-2.9677418E-1,4.0264025E-1,-4.3520782E-2,-7.2463765E-3,-2.8735632E-2,2.8985508E-3,-1.2727273E-2,2.7309237E-2],"categories":[],"categories_nodes":[],"categories_segments":[],"categories_sizes":[],"default_left":[0,0,0,0,0,0,0,0,0,0,0,0,0,0,0,0,0],"id":10,"left_children":[1,3,5,7,9,-1,-1,-1,11,13,15,-1,-1,-1,-1,-1,-1],"loss_changes":[9.29185E1,6.569224E1,2.345543E0,4.691884E1,2.5067387E1,0E0,0E0,0E0,3.5972954E1,7.6579514E0,1.4361326E1,0E0,0E0,0E0,0E0,0E0,0E0],"parents":[2147483647,0,0,1,1,2,2,3,3,4,4,8,8,9,9,10,10],"right_children":[2,4,6,8,10,-1,-1,-1,12,14,16,-1,-1,-1,-1,-1,-1],"split_conditions":[4.732E3,4E0,5E0,2E0,4.238E3,3.7443116E0,2.7580153E1,3.4517773E1,4.5268228E3,5.357143E0,4.3752144E3,-8.048047E0,-6.5668947E-1,-1.3629395E0,1.7233887E-1,-3.7490234E-1,5.0755615E0],"split_indices":[38,3,2,16,40,0,0,0,34,54,47,0,0,0,0,0,0],"split_type":[0,0,0,0,0,0,0,0,0,0,0,0,0,0,0,0,0],"sum_hessian":[6.32E2,5.54E2,7.8E1,3.26E2,2.28E2,1.2E1,6.6E1,1.9E1,3.07E2,7.7E1,1.51E2,2.04E2,1.03E2,4.3E1,3.4E1,2.7E1,1.24E2],"tree_param":{"num_deleted":"0","num_feature":"58","num_nodes":"17","size_leaf_vector":"1"}},{"base_weights":[-8.702175E-2,-4.4264194E-1,5.6475586E-1,-5.79021E-1,2.147651E-1,2.7004218E-1,8.595745E-1,-8.8948786E-1,-2.4347825E-1,4.031008E-1,-4.761905E-2,4.1314554E-1,-4.8E-2,8E-3,9.3838865E-1,-4.9077492E-2,-3.168317E-2,6.4000003E-3,-2.2624435E-2,-6.382979E-3,3.4939762E-2,-1.904762E-3,4.2201836E-2,3.3333335E-2,4.864865E-2],"categories":[],"categories_nodes":[],"categories_segments":[],"categories_sizes":[],"default_left":[0,0,0,0,0,0,0,0,0,0,0,0,0,0,0,0,0,0,0,0,0,0,0,0,0],"id":11,"left_children":[1,3,5,7,9,11,13,15,17,19,-1,21,-1,-1,23,-1,-1,-1,-1,-1,-1,-1,-1,-1,-1],"loss_changes":[1.5460988E2,3.8748978E1,2.034584E1,3.7134247E1,1.6568188E1,2.1057053E1,6.40345E0,4.057846E0,1.3422349E1,1.01674185E1,0E0,2.0723475E1,0E0,0E0,6.6709137E-1,0E0,0E0,0E0,0E0,0E0,0E0,0E0,0E0,0E0,0E0],"parents":[2147483647,0,0,1,1,2,2,3,3,4,4,5,5,6,6,7,7,8,8,9,9,11,11,14,14],"right_children":[2,4,6,8,10,12,14,16,18,20,-1,22,-1,-1,24,-1,-1,-1,-1,-1,-1,-1,-1,-1,-1],"split_conditions":[4.603E3,4.6649517E3,4.824E3,4.364E3,3.0626483E2,5.5680066E2,-1.7733333E2,4.298E3,1.4327347E2,4.168E3,-7.116382E0,4.605E3,-1.9018555E-1,1.3538648E1,4.303E3,-9.918677E0,-5.3466797E0,3.695801E-1,-2.4906006E0,-7.5927734E-2,7.5201416E0,-1.1855469E-1,5.7311525E0,3.259683E1,2.6201147E1],"split_indices":[39,32,39,39,49,37,55,39,49,39,0,42,0,0,42,0,0,0,0,0,0,0,0,0,0],"split_type":[0,0,0,0,0,0,0,0,0,0,0,0,0,0,0,0,0,0,0,0,0,0,0,0,0],"sum_hessian":[6.66E2,4.31E2,2.35E2,3.57E2,7.4E1,1.18E2,1.17E2,1.85E2,1.72E2,6.4E1,1E1,1.06E2,1.2E1,1.2E1,1.05E2,1.35E2,5E1,6.2E1,1.1E2,2.3E1,4.1E1,5.2E1,5.4E1,1.3E1,9.2E1],"tree_param":{"num_deleted":"0","num_feature":"58","num_nodes":"25","size_leaf_vector":"1"}},{"base_weights":[-6.9071375E-2,-6.120482E-1,1.8447694E-1,6.8292683E-1,-7.52E-1,3.2214765E-2,9.655172E-1,4.761905E-2,1.904762E-2,1.6129032E-2,-8.4637684E-1,-4.4334975E-1,2.0994475E-1,3.809524E-2,4.96E-2,-4.5538463E-2,9.52381E-3,-3.636364E-2,-1.2048193E-3,-1.1730206E-3,3.0049263E-2],"categories":[],"categories_nodes":[],"categories_segments":[],"categories_sizes":[],"default_left":[0,0,0,0,0,0,0,0,0,0,0,0,0,0,0,0,0,0,0,0,0],"id":12,"left_children":[1,3,5,7,9,11,13,-1,-1,-1,15,17,19,-1,-1,-1,-1,-1,-1,-1,-1],"loss_changes":[8.974902E1,3.7862854E1,5.284567E1,1.4866428E0,1.9151924E1,3.1531012E1,1.3038635E-2,0E0,0E0,0E0,1.160379E1,1.2073355E1,2.478709E1,0E0,0E0,0E0,0E0,0E0,0E0,0E0,0E0],"parents":[2147483647,0,0,1,1,2,2,3,3,4,4,5,5,6,6,10,10,11,11,12,12],"right_children":[2,4,6,8,10,12,14,-1,-1,-1,16,18,20,-1,-1,-1,-1,-1,-1,-1,-1],"split_conditions":[4.334E3,2E0,3.03E2,4.593E3,1.397935E2,-1.9914285E2,4.489E3,3.796238E1,8.716992E0,3.5109863E-1,4.6529326E3,4.622E3,4.612E3,8.710181E0,2.1354883E1,-8.286328E0,1.8215333E-1,-4.7657228E0,-2.8168947E-1,-7.246094E-2,5.4031253E0],"split_indices":[42,16,57,41,50,56,41,0,0,0,32,44,42,0,0,0,0,0,0,0,0],"split_type":[0,0,0,0,0,0,0,0,0,0,0,0,0,0,0,0,0,0,0,0,0],"sum_hessian":[6.51E2,2.07E2,4.44E2,2E1,1.87E2,3.72E2,7.2E1,1E1,1E1,1.5E1,1.72E2,1.01E2,2.71E2,1E1,6.2E1,1.62E2,1E1,6E1,4.1E1,1.7E2,1.01E2],"tree_param":{"num_deleted":"0","num_feature":"58","num_nodes":"21","size_leaf_vector":"1"}},{"base_weights":[-5.8252428E-2,-4.6854082E-1,4.5868465E-1,-7.288503E-1,-4.8780486E-2,2.2166246E-1,9.3401015E-1,-2.3423423E-1,-8.831909E-1,3.063063E-1,-2.7118644E-1,-2.4E-1,5.8295965E-1,2.5925925E-2,4.9707603E-2,-4.871795E-2,8.219178E-3,-1.818182E-2,-4.6708465E-2,3.478261E-2,-1.627907E-2,-3.3333335E-2,-2.6086958E-3,3.960396E-3,-3.3333335E-2,9.411765E-3,4.1007195E-2],"categories":[],"categories_nodes":[],"categories_segments":[],"categories_sizes":[],"default_left":[0,0,0,0,0,0,0,0,0,0,0,0,0,0,0,0,0,0,0,0,0,0,0,0,0,0,0],"id":13,"left_children":[1,3,5,7,9,11,13,15,17,19,21,23,25,-1,-1,-1,-1,-1,-1,-1,-1,-1,-1,-1,-1,-1,-1],"loss_changes":[1.4210391E2,4.079367E1,3.3300972E1,1.7492783E1,1.1374218E1,3.317923E1,2.203621E0,1.6454077E1,4.4784546E0,1.3767515E1,7.6480484E0,1.1943498E1,1.0361706E1,0E0,0E0,0E0,0E0,0E0,0E0,0E0,0E0,0E0,0E0,0E0,0E0,0E0,0E0],"parents":[2147483647,0,0,1,1,2,2,3,3,4,4,5,5,6,6,7,7,8,8,9,9,10,10,11,11,12,12],"right_children":[2,4,6,8,10,12,14,16,18,20,22,24,26,-1,-1,-1,-1,-1,-1,-1,-1,-1,-1,-1,-1,-1,-1],"split_conditions":[4.522E3,4E0,1E0,1.4251416E2,3.4993277E2,1E0,-2.95E2,4.274E3,-5E-1,5E0,4.533E3,1.8720297E2,4.665E3,5.5410793E1,2.0287134E1,-9.801343E0,1.5495606E-1,-3.2584474E0,-8.7071295E0,6.3101563E0,-4.3789062E-1,-4.225391E0,-1.03938E0,1.4807129E-1,-3.9996827E0,6.2697756E-1,1.1641382E1],"split_indices":[39,3,27,49,35,14,55,39,9,3,44,49,39,0,0,0,0,0,0,0,0,0,0,0,0,0,0],"split_type":[0,0,0,0,0,0,0,0,0,0,0,0,0,0,0,0,0,0,0,0,0,0,0,0,0,0,0],"sum_hessian":[6.69E2,3.73E2,2.96E2,2.3E2,1.43E2,1.98E2,9.8E1,5.5E1,1.75E2,5.5E1,8.8E1,8.7E1,1.11E2,1.3E1,8.5E1,1.9E1,3.6E1,1.6E1,1.59E2,3.4E1,2.1E1,3.1E1,5.7E1,5E1,3.7E1,4.2E1,6.9E1],"tree_param":{"num_deleted":"0","num_feature":"58","num_nodes":"27","size_leaf_vector":"1"}},{"base_weights":[-8.72428E-2,-2.0419325E-1,4.9579833E-2,-4.9289098E-1,1.8924731E-1,7.111111E-1,-5.8404076E-1,-1.6393442E-1,4.1696113E-1,1.904762E-2,4.8E-2,5.7142857E-3,-3.670103E-2,-2.0512821E-2,1.3432837E-2,-3.0303031E-2,2.749004E-2],"categories":[],"categories_nodes":[],"categories_segments":[],"categories_sizes":[],"default_left":[0,0,0,0,0,0,0,0,0,0,0,0,0,0,0,0,0],"id":14,"left_children":[1,3,-1,5,7,9,11,13,15,-1,-1,-1,-1,-1,-1,-1,-1],"loss_changes":[7.674998E1,6.2348236E1,0E0,3.4941788E1,1.8732841E1,1.6660309E0,3.0886375E1,9.805048E0,1.9396158E1,0E0,0E0,0E0,0E0,0E0,0E0,0E0,0E0],"parents":[2147483647,0,0,1,1,3,3,4,4,5,5,6,6,7,7,8,8],"right_children":[2,4,-1,6,8,10,12,14,16,-1,-1,-1,-1,-1,-1,-1,-1],"split_conditions":[4.732E3,4E0,1.927278E1,2E0,4.365E3,2.024E3,1.397935E2,2.7E1,-1.8966667E2,2.2446314E1,3.247012E1,1.472168E-1,-5.9717774E0,-1.3624268E0,7.534424E-1,-5.329248E0,3.9145265E0],"split_indices":[38,3,0,16,46,0,50,16,55,0,0,0,0,0,0,0,0],"split_type":[0,0,0,0,0,0,0,0,0,0,0,0,0,0,0,0,0],"sum_hessian":[6.07E2,5.48E2,5.9E1,3.16E2,2.32E2,2.2E1,2.94E2,9.1E1,1.41E2,1E1,1.2E1,5.2E1,2.42E2,5.8E1,3.3E1,1.6E1,1.25E2],"tree_param":{"num_deleted":"0","num_feature":"58","num_nodes":"17","size_leaf_vector":"1"}},{"base_weights":[-3.7119526E-2,-4.2951253E-1,4.6859083E-1,-6.1080074E-1,8.96861E-3,2.993197E-1,9.6644294E-1,-9.3385214E-1,-3.1316727E-1,1.4507772E-1,-4.1935485E-2,4.152249E-2,7.8431374E-1,3.809524E-2,4.9612403E-2,-3.3333335E-2,-4.805195E-2,8.602151E-3,-2.7513226E-2,-1.9354839E-3,4.3589745E-2,1.0288066E-2,-4.0425535E-2,4.935065E-2,2.857143E-2],"categories":[],"categories_nodes":[],"categories_segments":[],"categories_sizes":[],"default_left":[0,0,0,0,0,0,0,0,0,0,0,0,0,0,0,0,0,0,0,0,0,0,0,0,0],"id":15,"left_children":[1,3,5,7,9,11,13,15,17,19,-1,21,23,-1,-1,-1,-1,-1,-1,-1,-1,-1,-1,-1,-1],"loss_changes":[1.337481E2,3.0169754E1,2.4673462E1,2.5670288E1,1.2925345E1,2.7552855E1,1.5220642E-2,6.130676E-1,1.6210743E1,1.2905554E1,0E0,2.0256601E1,3.0190964E0,0E0,0E0,0E0,0E0,0E0,0E0,0E0,0E0,0E0,0E0,0E0,0E0],"parents":[2147483647,0,0,1,1,2,2,3,3,4,4,5,5,6,6,7,7,8,8,9,9,11,11,12,12],"right_children":[2,4,6,8,10,12,14,16,18,20,-1,22,24,-1,-1,-1,-1,-1,-1,-1,-1,-1,-1,-1,-1],"split_conditions":[4.522E3,4.6529326E3,5.305E3,4.298E3,3.8584082E2,4.6529326E3,4.277E3,5E0,4.4146953E3,4.657E3,-6.428052E0,5.111E3,4E0,2.8826757E1,5.358252E1,-5.527515E0,-8.983398E0,1.3984375E-1,-4.5816407E0,-1.10839844E-1,7.51167E0,1.1134766E0,-6.9028324E-1,1.0765235E1,3.4872558E0],"split_indices":[39,32,39,39,49,32,42,20,32,42,0,41,19,0,0,0,0,0,0,0,0,0,0,0,0],"split_type":[0,0,0,0,0,0,0,0,0,0,0,0,0,0,0,0,0,0,0,0,0,0,0,0,0],"sum_hessian":[6.73E2,3.79E2,2.94E2,2.68E2,1.11E2,2.2E2,7.4E1,1.28E2,1.4E2,9.6E1,1.5E1,1.44E2,7.6E1,1E1,6.4E1,1.3E1,1.15E2,4.6E1,9.4E1,7.7E1,1.9E1,1.21E2,2.3E1,3.8E1,3.8E1],"tree_param":{"num_deleted":"0","num_feature":"58","num_nodes":"25","size_leaf_vector":"1"}},{"base_weights":[-5.4669704E-2,-4.476327E-1,3.8647342E-1,-1.10749185E-1,-7.1099746E-1,1.5521064E-1,4.9707603E-2,2.3622048E-1,-3.5359117E-1,-9.0421456E-1,-3.2061067E-1,-1.6589862E-1,4.5106384E-1,-4.814815E-2,2.7722774E-2,-4.4680852E-2,-8.148148E-3,-4.9704146E-2,-3.6559142E-2,-3.521127E-2,6.5573766E-3,1.8867925E-3,-3.5593223E-2,-2.0930232E-2,3.212435E-2],"categories":[],"categories_nodes":[],"categories_segments":[],"categories_sizes":[],"default_left":[0,0,0,0,0,0,0,0,0,0,0,0,0,0,0,0,0,0,0,0,0,0,0,0,0],"id":16,"left_children":[1,3,5,7,9,11,-1,13,15,17,19,21,23,-1,-1,-1,-1,-1,-1,-1,-1,-1,-1,-1,-1],"loss_changes":[1.1423941E2,3.0880676E1,4.3558483E1,1.2975489E1,1.4601501E1,2.1460184E1,0E0,2.4499964E1,9.243632E0,1.6658554E0,1.1397398E1,1.2076185E1,1.9695255E1,0E0,0E0,0E0,0E0,0E0,0E0,0E0,0E0,0E0,0E0,0E0,0E0],"parents":[2147483647,0,0,1,1,2,2,3,3,4,4,5,5,7,7,8,8,9,9,10,10,11,11,12,12],"right_children":[2,4,6,8,10,12,-1,14,16,18,20,22,24,-1,-1,-1,-1,-1,-1,-1,-1,-1,-1,-1,-1],"split_conditions":[4.522E3,4.3388373E-1,4.732E3,-2.2252093E-1,4.33E3,1E0,3.470657E1,4.121E3,4.347E3,4.494067E3,2E0,5.5958927E-1,7.9E1,-3.6612306E0,3.484082E0,-4.950391E0,-8.986084E-1,-8.525342E0,-7.525342E0,-5.155225E0,4.1650392E-2,1.685547E-1,-3.5326416E0,-6.557617E-1,5.135425E0],"split_indices":[39,6,38,7,39,14,0,39,39,48,3,10,26,0,0,0,0,0,0,0,0,0,0,0,0],"split_type":[0,0,0,0,0,0,0,0,0,0,0,0,0,0,0,0,0,0,0,0,0,0,0,0,0],"sum_hessian":[6.58E2,3.48E2,3.1E2,1.53E2,1.95E2,2.25E2,8.5E1,6.3E1,9E1,1.3E2,6.5E1,1.08E2,1.17E2,1.3E1,5E1,2.3E1,6.7E1,8.4E1,4.6E1,3.5E1,3E1,7.9E1,2.9E1,2.1E1,9.6E1],"tree_param":{"num_deleted":"0","num_feature":"58","num_nodes":"25","size_leaf_vector":"1"}},{"base_weights":[-6.2063616E-2,-2.0622222E-1,9.2121214E-1,-4.7559056E-1,1.4256619E-1,2.4E-2,4.964539E-2,7.804878E-1,-5.6134456E-1,-8.115942E-1,2.9787233E-1,2.857143E-2,4.761905E-2,2.7027028E-3,-3.5051547E-2,-4.897959E-2,-1.904762E-2,-4.782609E-2,1.8453864E-2],"categories":[],"categories_nodes":[],"categories_segments":[],"categories_sizes":[],"default_left":[0,0,0,0,0,0,0,0,0,0,0,0,0,0,0,0,0,0,0],"id":17,"left_children":[1,3,5,7,9,-1,-1,11,13,15,17,-1,-1,-1,-1,-1,-1,-1,-1],"loss_changes":[9.1451355E1,5.288221E1,2.3714218E0,3.4418175E1,3.650078E1,0E0,0E0,4.6457672E-1,2.5592888E1,2.3093758E0,1.9067505E1,0E0,0E0,0E0,0E0,0E0,0E0,0E0,0E0],"parents":[2147483647,0,0,1,1,2,2,3,3,4,4,7,7,8,8,9,9,10,10],"right_children":[2,4,6,8,10,-1,-1,12,14,16,18,-1,-1,-1,-1,-1,-1,-1,-1],"split_conditions":[4.732E3,4E0,2.0890405E2,2E0,4.4E1,3.6989257E0,4.9168068E1,1.595E2,1.397935E2,5.7423456E2,-1.5625E2,1.8388111E1,2.9465185E1,1.3078614E-1,-5.5384035E0,-1.8534669E0,-6.229736E-1,-5.923584E0,2.0583007E0],"split_indices":[38,3,49,16,4,0,0,54,50,49,52,0,0,0,0,0,0,0,0],"split_type":[0,0,0,0,0,0,0,0,0,0,0,0,0,0,0,0,0,0,0],"sum_hessian":[6.44E2,5.62E2,8.2E1,3.17E2,2.45E2,1.2E1,7E1,2E1,2.97E2,3.4E1,2.11E2,1E1,1E1,5.5E1,2.42E2,2.4E1,1E1,1.1E1,2E2],"tree_param":{"num_deleted":"0","num_feature":"58","num_nodes":"19","size_leaf_vector":"1"}},{"base_weights":[-6.661503E-2,-3.4710744E-1,4.6741572E-1,-8.816706E-2,-6.139089E-1,3.0498534E-1,4.952381E-2,-3.9751554E-1,9.594096E-2,-8.0936456E-1,-1.1764706E-1,4.385382E-1,-6.8292683E-1,-0E0,-2.8318584E-2,-1.1304348E-2,1.656051E-2,-4.3773588E-2,-1.4285715E-2,-3.9534885E-2,1.2987013E-2,-2.857143E-2,2.5622776E-2,-4.761905E-2,-1.904762E-2],"categories":[],"categories_nodes":[],"categories_segments":[],"categories_sizes":[],"default_left":[0,0,0,0,0,0,0,0,0,0,0,0,0,0,0,0,0,0,0,0,0,0,0,0,0],"id":18,"left_children":[1,3,5,7,9,11,-1,13,15,17,19,21,23,-1,-1,-1,-1,-1,-1,-1,-1,-1,-1,-1,-1],"loss_changes":[9.677158E1,2.9230717E1,1.8752762E1,1.2292556E1,2.0176308E1,2.264526E1,0E0,5.4033966E0,1.0303364E1,5.0501785E0,1.5215734E1,1.1381845E1,1.4866428E0,0E0,0E0,0E0,0E0,0E0,0E0,0E0,0E0,0E0,0E0,0E0,0E0],"parents":[2147483647,0,0,1,1,2,2,3,3,4,4,5,5,7,7,8,8,9,9,10,10,11,11,12,12],"right_children":[2,4,6,8,10,12,-1,14,16,18,20,22,24,-1,-1,-1,-1,-1,-1,-1,-1,-1,-1,-1,-1],"split_conditions":[4.603E3,4.3388373E-1,4.991E3,4.452E3,4.5E3,5.582E3,4.6809277E1,4.3005713E3,3.175287E2,4.8954165E-1,-1.6133333E2,-1E0,5.305E3,-2.1447754E-1,-2.949292E0,-1.0458252E0,2.9708498E0,-7.3721437E0,-1.6445801E0,-5.199341E0,4.5666504E-1,-3.685669E0,3.5139892E0,-5.918213E-1,-4.416748E-1],"split_indices":[39,6,38,43,46,40,0,47,37,21,55,22,39,0,0,0,0,0,0,0,0,0,0,0,0],"split_type":[0,0,0,0,0,0,0,0,0,0,0,0,0,0,0,0,0,0,0,0,0,0,0,0,0],"sum_hessian":[6.45E2,4.23E2,2.22E2,2.15E2,2.08E2,1.7E2,5.2E1,8E1,1.35E2,1.49E2,5.9E1,1.5E2,2E1,2.4E1,5.6E1,5.7E1,7.8E1,1.32E2,1.7E1,2.1E1,3.8E1,1E1,1.4E2,1E1,1E1],"tree_param":{"num_deleted":"0","num_feature":"58","num_nodes":"25","size_leaf_vector":"1"}},{"base_weights":[-6.928407E-2,-3.5280642E-1,5.1053864E-1,-5.229794E-1,9.053498E-2,3.448276E-1,4.9541287E-2,-8.754717E-1,-2.6702997E-1,-4.8E-2,2.1004567E-1,-7.874016E-2,6.217617E-1,-4.969697E-2,-3.3663366E-2,1.2844036E-2,-2.4324326E-2,-1.4492753E-2,2.1854306E-2,2.0408165E-2,-1.898734E-2,3.699422E-2,-1.904762E-2],"categories":[],"categories_nodes":[],"categories_segments":[],"categories_sizes":[],"default_left":[0,0,0,0,0,0,0,0,0,0,0,0,0,0,0,0,0,0,0,0,0,0,0],"id":19,"left_children":[1,3,5,7,9,11,-1,13,15,-1,17,19,21,-1,-1,-1,-1,-1,-1,-1,-1,-1,-1],"loss_changes":[1.0686311E2,3.2955303E1,1.6821396E1,2.8347588E1,1.5355165E1,1.8733885E1,0E0,2.8394089E0,2.1160507E1,0E0,1.2491341E1,9.384135E0,1.1570713E1,0E0,0E0,0E0,0E0,0E0,0E0,0E0,0E0,0E0,0E0],"parents":[2147483647,0,0,1,1,2,2,3,3,4,4,5,5,7,7,8,8,10,10,11,11,12,12],"right_children":[2,4,6,8,10,12,-1,14,16,-1,18,20,22,-1,-1,-1,-1,-1,-1,-1,-1,-1,-1],"split_conditions":[4.596E3,4.6529326E3,4.991E3,4.298E3,-6.43E2,1E0,4.359619E1,4.206E3,4.4146953E3,-5.775928E0,4.3686E3,1.62E2,5.5680066E2,-8.364161E0,-4.93938E0,7.010986E-1,-3.2823732E0,-1.7500733E0,3.0083253E0,3.0275636E0,-4.1958007E-1,5.049292E0,-1.0824854E1],"split_indices":[39,32,38,39,57,14,0,39,32,0,48,57,37,0,0,0,0,0,0,0,0,0,0],"split_type":[0,0,0,0,0,0,0,0,0,0,0,0,0,0,0,0,0,0,0,0,0,0,0],"sum_hessian":[6.49E2,4.36E2,2.13E2,3.15E2,1.21E2,1.59E2,5.4E1,1.32E2,1.83E2,1.2E1,1.09E2,6.3E1,9.6E1,8.2E1,5E1,5.4E1,1.29E2,3.4E1,7.5E1,2.4E1,3.9E1,8.6E1,1E1],"tree_param":{"num_deleted":"0","num_feature":"58","num_nodes":"23","size_leaf_vector":"1"}},{"base_weights":[-6.978471E-2,-3.7880793E-1,3.237774E-1,1.4869888E-2,-5.954825E-1,1.9793814E-1,8.8073397E-1,-4.814815E-2,1.2345679E-1,1.3333334E-1,-7.2639227E-1,2.7293065E-1,-3.3333335E-2,1.904762E-2,4.9438205E-2,-5.8394163E-3,2.1495327E-2,-4.782609E-2,3.018868E-2,-0E0,-4.0214475E-2,4.269663E-2,6.406685E-3],"categories":[],"categories_nodes":[],"categories_segments":[],"categories_sizes":[],"default_left":[0,0,0,0,0,0,0,0,0,0,0,0,0,0,0,0,0,0,0,0,0,0,0],"id":20,"left_children":[1,3,5,7,9,11,13,-1,15,17,19,21,-1,-1,-1,-1,-1,-1,-1,-1,-1,-1,-1],"loss_changes":[8.197228E1,3.2205173E1,2.0693626E1,1.43406315E1,2.3280533E1,1.5814406E1,2.7542E0,0E0,8.9703045E0,1.9515451E1,1.1684593E1,1.8747746E1,0E0,0E0,0E0,0E0,0E0,0E0,0E0,0E0,0E0,0E0,0E0],"parents":[2147483647,0,0,1,1,2,2,3,3,4,4,5,5,6,6,8,8,9,9,10,10,11,11],"right_children":[2,4,6,8,10,12,14,-1,16,18,20,22,-1,-1,-1,-1,-1,-1,-1,-1,-1,-1,-1],"split_conditions":[4.522E3,0E0,4.991E3,4.9E1,1.2400519E2,5.843E3,-4.3842856E2,-3.9033935E0,5E-1,1.8E1,-9.497178E-1,6E0,-2.0996094E-2,4.664568E1,2.5438135E1,-3.2409668E-1,2.128711E0,-5.744165E0,2.325464E0,-2.4853516E-2,-5.835327E0,1.7040527E1,5.102051E-1],"split_indices":[39,6,38,4,49,40,56,0,31,2,11,16,0,0,0,0,0,0,0,0,0,0,0],"split_type":[0,0,0,0,0,0,0,0,0,0,0,0,0,0,0,0,0,0,0,0,0,0,0],"sum_hessian":[6.73E2,3.77E2,2.96E2,1.34E2,2.43E2,2.42E2,5.4E1,1.3E1,1.21E2,3.7E1,2.06E2,2.23E2,1.9E1,1E1,4.4E1,6.8E1,5.3E1,1.1E1,2.6E1,2E1,1.86E2,4.4E1,1.79E2],"tree_param":{"num_deleted":"0","num_feature":"58","num_nodes":"23","size_leaf_vector":"1"}},{"base_weights":[-8.888889E-2,-2.2867194E-1,8.52071E-1,-5.610278E-1,2.980626E-3,-0E0,4.9655173E-2,-7.4094707E-1,3.6697246E-2,-1.4492753E-1,3.809524E-1,-4.388186E-2,-2.3577236E-2,-4.782609E-2,1.4942529E-2,6.593407E-3,-2.5118483E-2,5.3097345E-3,3.8961038E-2],"categories":[],"categories_nodes":[],"categories_segments":[],"categories_sizes":[],"default_left":[0,0,0,0,0,0,0,0,0,0,0,0,0,0,0,0,0,0,0],"id":21,"left_children":[1,3,5,7,9,-1,-1,11,13,15,17,-1,-1,-1,-1,-1,-1,-1,-1],"loss_changes":[8.592091E1,4.3770275E1,1.0154335E1,2.512471E1,1.878377E1,0E0,0E0,6.4031067E0,1.4333402E1,2.3926756E1,1.0299506E1,0E0,0E0,0E0,0E0,0E0,0E0,0E0,0E0],"parents":[2147483647,0,0,1,1,2,2,3,3,4,4,7,7,8,8,9,9,10,10],"right_children":[2,4,6,8,10,-1,-1,12,14,16,18,-1,-1,-1,-1,-1,-1,-1,-1],"split_conditions":[4.732E3,4.364E3,-1.20666664E2,4.6649517E3,7E0,-2.8275878E0,2.4166235E1,4.28E3,1.1E1,4.491E3,4.694E3,-7.193555E0,-3.110083E0,-5.5935793E0,2.3503664E0,5.1989746E-1,-2.2031496E0,6.9055176E-1,9.20669E0],"split_indices":[38,39,55,32,17,0,0,39,18,41,39,0,0,0,0,0,0,0,0],"split_type":[0,0,0,0,0,0,0,0,0,0,0,0,0,0,0,0,0,0,0],"sum_hessian":[6.52E2,5.68E2,8.4E1,2.33E2,3.35E2,1.2E1,7.2E1,1.79E2,5.4E1,2.41E2,9.4E1,1.18E2,6.1E1,1.1E1,4.3E1,1.36E2,1.05E2,5.6E1,3.8E1],"tree_param":{"num_deleted":"0","num_feature":"58","num_nodes":"19","size_leaf_vector":"1"}},{"base_weights":[-4.88527E-2,-5.1428574E-1,1.8729097E-1,-7.104478E-1,3.305785E-2,5.781866E-2,9.0510947E-1,-9.3430656E-1,-5.527638E-1,2.6262626E-1,-4.782609E-2,-1.9452888E-1,2.4942264E-1,2.7586207E-2,4.9541287E-2,-4.954955E-2,-3.3333335E-2,-4.5762714E-2,-1.9858157E-2,-4.0816325E-3,2.9411767E-2,-1.5017065E-2,3.2432433E-2,1.54963685E-2,-4.761905E-2],"categories":[],"categories_nodes":[],"categories_segments":[],"categories_sizes":[],"default_left":[0,0,0,0,0,0,0,0,0,0,0,0,0,0,0,0,0,0,0,0,0,0,0,0,0],"id":22,"left_children":[1,3,5,7,9,11,13,15,17,19,-1,21,23,-1,-1,-1,-1,-1,-1,-1,-1,-1,-1,-1,-1],"loss_changes":[7.429174E1,2.443797E1,4.1656357E1,5.6543503E0,1.3869765E1,1.8421736E1,1.80159E0,7.088852E-1,5.430422E0,5.572654E0,0E0,1.4773876E1,1.5890339E1,0E0,0E0,0E0,0E0,0E0,0E0,0E0,0E0,0E0,0E0,0E0,0E0],"parents":[2147483647,0,0,1,1,2,2,3,3,4,4,5,5,6,6,7,7,8,8,9,9,11,11,12,12],"right_children":[2,4,6,8,10,12,14,16,18,20,-1,22,24,-1,-1,-1,-1,-1,-1,-1,-1,-1,-1,-1,-1],"split_conditions":[4.343E3,4.6649517E3,1E0,4.19E3,4.6202856E3,4.462E3,5.218192E2,1.201978E1,4.241E3,-1.5E0,-5.313892E0,1.4E1,5.944E3,1.7262232E1,3.9808815E1,-7.133887E0,-6.974683E0,-6.4631104E0,-2.9545898E0,-5.916504E-1,4.3384767E0,-1.2561035E0,1.2353271E0,1.8743652E0,-2.8740236E-1],"split_indices":[39,32,12,44,47,43,49,53,40,54,0,28,40,0,0,0,0,0,0,0,0,0,0,0,0],"split_type":[0,0,0,0,0,0,0,0,0,0,0,0,0,0,0,0,0,0,0,0,0,0,0,0,0],"sum_hessian":[6.75E2,2.27E2,4.48E2,1.67E2,6E1,3.8E2,6.8E1,6.8E1,9.9E1,4.9E1,1.1E1,1.64E2,2.16E2,1.4E1,5.4E1,5.5E1,1.3E1,2.9E1,7E1,2.4E1,2.5E1,1.46E2,1.8E1,2.06E2,1E1],"tree_param":{"num_deleted":"0","num_feature":"58","num_nodes":"25","size_leaf_vector":"1"}},{"base_weights":[-8.2004555E-2,-1.7671347E-1,4.953271E-2,-3.942446E-1,1.16054155E-1,7.111111E-1,-4.7004607E-1,-5.915493E-1,2.2818792E-1,1.904762E-2,4.8E-2,8.411216E-3,-2.9724771E-2,-4.878049E-2,-3.2258064E-3,-5.2287583E-3,2.0000001E-2],"categories":[],"categories_nodes":[],"categories_segments":[],"categories_sizes":[],"default_left":[0,0,0,0,0,0,0,0,0,0,0,0,0,0,0,0,0],"id":23,"left_children":[1,3,-1,5,7,9,11,13,15,-1,-1,-1,-1,-1,-1,-1,-1],"loss_changes":[6.6984764E1,3.8584793E1,0E0,2.9283321E1,2.0578495E1,1.6660309E0,2.590522E1,7.154175E0,1.2799018E1,0E0,0E0,0E0,0E0,0E0,0E0,0E0,0E0],"parents":[2147483647,0,0,1,1,3,3,4,4,5,5,6,6,7,7,8,8],"right_children":[2,4,-1,6,8,10,12,14,16,-1,-1,-1,-1,-1,-1,-1,-1],"split_conditions":[5.2835E3,4E0,3.961548E1,2E0,1E0,2.024E3,1.4056067E2,8E0,4.3644287E3,1.3737744E1,4.0163845E1,2.8588867E-1,-4.1660156E0,-1.9002198E0,-1.5553467E0,-6.004883E-1,2.6635253E0],"split_indices":[38,3,0,16,26,0,50,20,46,0,0,0,0,0,0,0,0],"split_type":[0,0,0,0,0,0,0,0,0,0,0,0,0,0,0,0,0],"sum_hessian":[6.58E2,6.05E2,5.3E1,3.47E2,2.58E2,2.2E1,3.25E2,3.5E1,2.23E2,1E1,1.2E1,5.3E1,2.72E2,2E1,1.5E1,7.6E1,1.47E2],"tree_param":{"num_deleted":"0","num_feature":"58","num_nodes":"17","size_leaf_vector":"1"}},{"base_weights":[-2.4980484E-2,-4.3177894E-1,3.1009957E-1,-5.950783E-1,1.20300755E-1,1.6234888E-1,4.96E-2,3.0434782E-2,-6.5882355E-1,-3.880597E-1,6.268657E-1,-2.8108108E-1,3.6962026E-1,-4.949495E-2,-2.7828747E-2,-3.5555556E-2,1.3043478E-2,4.0000003E-2,1.3043478E-2,-2.0606061E-2,3.809524E-2,7.5376886E-3,2.9441625E-2],"categories":[],"categories_nodes":[],"categories_segments":[],"categories_sizes":[],"default_left":[0,0,0,0,0,0,0,0,0,0,0,0,0,0,0,0,0,0,0,0,0,0,0],"id":24,"left_children":[1,3,5,7,9,11,-1,-1,13,15,17,19,21,-1,-1,-1,-1,-1,-1,-1,-1,-1,-1],"loss_changes":[8.7373535E1,2.6135452E1,3.5333546E1,1.7350754E1,1.724655E1,2.6659988E1,0E0,0E0,6.9180756E0,7.115611E0,2.0184307E0,1.27992525E1,9.431311E0,0E0,0E0,0E0,0E0,0E0,0E0,0E0,0E0,0E0,0E0],"parents":[2147483647,0,0,1,1,2,2,3,3,4,4,5,5,8,8,9,9,10,10,11,11,12,12],"right_children":[2,4,6,8,10,12,-1,-1,14,16,18,20,22,-1,-1,-1,-1,-1,-1,-1,-1,-1,-1],"split_conditions":[4.454E3,4.6649517E3,4.991E3,-8.660254E-1,-1.9228572E2,2E0,3.7634716E1,1.2770996E0,4.15E3,2.65E2,4.5106E3,1E0,4.664E3,-8.668897E0,-3.5095215E0,-3.9303224E0,3.108008E0,3.0517578E0,2.0459473E0,-1.5770019E0,2.2379469E1,6.7416996E-1,4.3009033E0],"split_indices":[39,32,38,9,56,3,0,0,39,4,48,12,39,0,0,0,0,0,0,0,0,0,0],"split_type":[0,0,0,0,0,0,0,0,0,0,0,0,0,0,0,0,0,0,0,0,0,0,0],"sum_hessian":[6.4E2,2.89E2,3.51E2,2.23E2,6.6E1,2.89E2,6.2E1,1.1E1,2.12E2,3.3E1,3.3E1,9.2E1,1.97E2,4.9E1,1.63E2,2.2E1,1.1E1,2.2E1,1.1E1,8.2E1,1E1,9.9E1,9.8E1],"tree_param":{"num_deleted":"0","num_feature":"58","num_nodes":"23","size_leaf_vector":"1"}},{"base_weights":[-8.5649885E-2,-1.6626312E-1,4.9462367E-2,-4.4793713E-1,3.009576E-2,-6.8041235E-1,-1.369863E-1,-4.1409692E-1,2.2970296E-1,-2.5641026E-3,-3.8735177E-2,-1.4054054E-2,3.142857E-2,2.2222223E-2,-3.114754E-2,1.4902808E-2,-2.5581395E-2],"categories":[],"categories_nodes":[],"categories_segments":[],"categories_sizes":[],"default_left":[0,0,0,0,0,0,0,0,0,0,0,0,0,0,0,0,0],"id":25,"left_children":[1,3,-1,5,7,9,11,13,15,-1,-1,-1,-1,-1,-1,-1,-1],"loss_changes":[5.7748436E1,3.427079E1,0E0,1.8350784E1,3.2454273E1,8.611412E0,1.21676E1,2.0490082E1,1.2871009E1,0E0,0E0,0E0,0E0,0E0,0E0,0E0,0E0],"parents":[2147483647,0,0,1,1,3,3,4,4,5,5,6,6,7,7,8,8],"right_children":[2,4,-1,6,8,10,12,14,16,-1,-1,-1,-1,-1,-1,-1,-1],"split_conditions":[5.2835E3,4.417E3,3.575298E1,4E0,-2.0671428E2,6E0,9.483616E-1,4E1,4.7742983E3,-5.605469E-1,-6.018848E0,-6.8742675E-1,1.9452393E0,2.191919E0,-3.2023926E0,1.6529541E0,-3.93042E-1],"split_indices":[38,46,0,3,56,20,10,4,34,0,0,0,0,0,0,0,0],"split_type":[0,0,0,0,0,0,0,0,0,0,0,0,0,0,0,0,0],"sum_hessian":[6.65E2,6.19E2,4.6E1,2.54E2,3.65E2,1.45E2,1.09E2,1.13E2,2.52E2,1.9E1,1.26E2,9.2E1,1.7E1,2.2E1,9.1E1,2.31E2,2.1E1],"tree_param":{"num_deleted":"0","num_feature":"58","num_nodes":"17","size_leaf_vector":"1"}},{"base_weights":[-3.3044845E-2,-4.016563E-1,1.9264892E-1,-1.4652015E-1,-7.298578E-1,-3.3816424E-1,3.80789E-1,-2.8708133E-1,3.0769232E-1,3.7037039E-3,-8.4324324E-1,-5.136612E-1,4.8E-2,2.3841059E-1,8.70229E-1,8.219178E-3,-2.6277373E-2,2.820513E-2,-3.7037039E-3,-1.3043478E-2,-4.601227E-2,-3.267974E-2,9.677419E-3,2.3826716E-2,-6.779661E-3,2.4242425E-2,4.949495E-2],"categories":[],"categories_nodes":[],"categories_segments":[],"categories_sizes":[],"default_left":[0,0,0,0,0,0,0,0,0,0,0,0,0,0,0,0,0,0,0,0,0,0,0,0,0,0,0],"id":26,"left_children":[1,3,5,7,9,11,13,15,17,-1,19,21,-1,23,25,-1,-1,-1,-1,-1,-1,-1,-1,-1,-1,-1,-1],"loss_changes":[5.290804E1,2.0168797E1,3.9462013E1,8.758962E0,9.647995E0,2.3826326E1,2.0209644E1,1.129357E1,3.2022793E0,0E0,4.028038E0,9.118307E0,0E0,2.0204208E1,2.7807846E0,0E0,0E0,0E0,0E0,0E0,0E0,0E0,0E0,0E0,0E0,0E0,0E0],"parents":[2147483647,0,0,1,1,2,2,3,3,4,4,5,5,6,6,7,7,8,8,10,10,11,11,13,13,14,14],"right_children":[2,4,6,8,10,12,14,16,18,-1,20,22,-1,24,26,-1,-1,-1,-1,-1,-1,-1,-1,-1,-1,-1,-1],"split_conditions":[4.396143E3,4.3388373E-1,-2.0671428E2,4.626E3,6E0,1.2E1,2.852857E2,4.3005713E3,4.5556E3,6.684571E-2,2.5E1,8.3355576E-1,2.0823243E0,3.0035715E1,1E0,3.9226076E-1,-1.8759278E0,6.8188477E-1,-1.1496582E0,-3.2310302E0,-6.483716E0,-3.6922853E0,7.0288084E-2,2.1774414E0,-8.61792E-1,3.5506103E0,3.1295607E1],"split_indices":[46,6,56,43,16,29,56,47,48,0,26,11,0,52,14,0,0,0,0,0,0,0,0,0,0,0,0],"split_type":[0,0,0,0,0,0,0,0,0,0,0,0,0,0,0,0,0,0,0,0,0,0,0,0,0,0,0],"sum_hessian":[6.35E2,2.41E2,3.94E2,1.36E2,1.05E2,1.03E2,2.91E2,1.04E2,3.2E1,1.3E1,9.2E1,9.1E1,1.2E1,2.26E2,6.5E1,3.6E1,6.8E1,1.9E1,1.3E1,1.1E1,8.1E1,7.6E1,1.5E1,1.38E2,8.8E1,1.6E1,4.9E1],"tree_param":{"num_deleted":"0","num_feature":"58","num_nodes":"27","size_leaf_vector":"1"}},{"base_weights":[-2.7252082E-2,-1.5223098E-1,7.709497E-1,-3.9388794E-1,1.045045E-1,9.62963E-1,1.7777778E-1,-5.393795E-1,-3.508772E-2,-6.315789E-1,1.8837675E-1,3.809524E-2,4.956522E-2,3.809524E-2,-1.6E-2,-0E0,-3.0790193E-2,1.830986E-2,-1.5841585E-2,-4.3243244E-2,-9.52381E-3,3.911981E-3,3.4065936E-2],"categories":[],"categories_nodes":[],"categories_segments":[],"categories_sizes":[],"default_left":[0,0,0,0,0,0,0,0,0,0,0,0,0,0,0,0,0,0,0,0,0,0,0],"id":27,"left_children":[1,3,5,7,9,11,13,15,17,19,21,-1,-1,-1,-1,-1,-1,-1,-1,-1,-1,-1,-1],"loss_changes":[6.594909E1,3.547754E1,1.0108173E1,1.5364143E1,1.71915E1,6.9885254E-3,6.6641273E0,8.635948E0,9.724607E0,2.8503695E0,1.3519006E1,0E0,0E0,0E0,0E0,0E0,0E0,0E0,0E0,0E0,0E0,0E0,0E0],"parents":[2147483647,0,0,1,1,2,2,3,3,4,4,5,5,6,6,7,7,8,8,9,9,10,10],"right_children":[2,4,6,8,10,12,14,16,18,20,22,-1,-1,-1,-1,-1,-1,-1,-1,-1,-1,-1,-1],"split_conditions":[5.056E3,4.473E3,2.2353572E2,4.5268228E3,4.136E3,2.7195817E-1,4.546E3,5E0,4.282E3,-2.56E1,4.6649517E3,1.0970825E1,3.3787792E1,1.9689697E1,-5.5092776E-1,-3.5627443E-1,-3.6018066E0,1.7295166E0,-5.674805E-1,-9.145728E0,-5.592529E-1,2.28125E-1,4.431372E0],"split_indices":[39,43,52,34,39,10,45,16,43,53,32,0,0,0,0,0,0,0,0,0,0,0,0],"split_type":[0,0,0,0,0,0,0,0,0,0,0,0,0,0,0,0,0,0,0,0,0,0,0],"sum_hessian":[6.6E2,5.71E2,8.9E1,2.94E2,2.77E2,6.7E1,2.2E1,2.09E2,8.5E1,2.8E1,2.49E2,1E1,5.7E1,1E1,1.2E1,2.6E1,1.83E2,3.5E1,5E1,1.8E1,1E1,2.04E2,4.5E1],"tree_param":{"num_deleted":"0","num_feature":"58","num_nodes":"23","size_leaf_vector":"1"}},{"base_weights":[-7.395751E-2,-1.6651905E-1,6.573427E-1,-5.386997E-1,-1.7348204E-2,9.174312E-1,-8.571429E-3,-7.97546E-1,-2.7329192E-1,-4.6575345E-2,7.3469386E-2,4.9438205E-2,2.857143E-2,-1.7777778E-2,-4.789916E-2,1.6129032E-2,-2.0610688E-2,-1.4975846E-2,1.09640835E-2],"categories":[],"categories_nodes":[],"categories_segments":[],"categories_sizes":[],"default_left":[0,0,0,0,0,0,0,0,0,0,0,0,0,0,0,0,0,0,0],"id":28,"left_children":[1,3,5,7,9,11,-1,13,15,-1,17,-1,-1,-1,-1,-1,-1,-1,-1],"loss_changes":[4.3071896E1,3.1335518E1,1.549074E1,1.0986038E1,3.353347E1,1.0626297E0,0E0,5.6089973E0,6.7302513E0,0E0,2.0019688E1,0E0,0E0,0E0,0E0,0E0,0E0,0E0,0E0],"parents":[2147483647,0,0,1,1,2,2,3,3,4,4,5,5,7,7,8,8,10,10],"right_children":[2,4,6,8,10,12,-1,14,16,-1,18,-1,-1,-1,-1,-1,-1,-1,-1],"split_conditions":[5.348E3,4.298E3,4.463E3,4.3315713E3,-2.1333333E2,4E0,-5.233887E-1,4.3388373E-1,1E0,-2.8406007E0,4.365E3,3.2098415E1,1.4659278E1,-4.3093505E0,-6.197168E0,7.101318E-1,-2.4486816E0,-1.2662598E0,7.501221E-1],"split_indices":[39,42,45,46,55,1,0,6,22,0,45,0,0,0,0,0,0,0,0],"split_type":[0,0,0,0,0,0,0,0,0,0,0,0,0,0,0,0,0,0,0],"sum_hessian":[6.35E2,5.64E2,7.1E1,1.61E2,4.03E2,5.4E1,1.7E1,8.1E1,8E1,3.6E1,3.67E2,4.4E1,1E1,2.2E1,5.9E1,1.5E1,6.5E1,1.03E2,2.64E2],"tree_param":{"num_deleted":"0","num_feature":"58","num_nodes":"19","size_leaf_vector":"1"}},{"base_weights":[-6.620477E-2,-1.417972E-1,4.9425285E-2,3.857868E-1,-2.4385448E-1,-8.571429E-3,5.030675E-1,3.089431E-1,-3.1955308E-1,3.6842104E-2,8.695653E-3,3.4736842E-2,-4.8275862E-2,-2.5719771E-2,-2.4E-3],"categories":[],"categories_nodes":[],"categories_segments":[],"categories_sizes":[],"default_left":[0,0,0,0,0,0,0,0,0,0,0,0,0,0,0],"id":29,"left_children":[1,3,-1,5,7,-1,9,11,13,-1,-1,-1,-1,-1,-1],"loss_changes":[5.1853504E1,3.2703293E1,0E0,6.480154E0,2.132805E1,0E0,6.2071857E0,3.0573639E1,2.3664894E1,0E0,0E0,0E0,0E0,0E0,0E0],"parents":[2147483647,0,0,1,1,3,3,4,4,6,6,7,7,8,8],"right_children":[2,4,-1,6,8,-1,10,12,14,-1,-1,-1,-1,-1,-1],"split_conditions":[5.2835E3,2.2315213E2,3.0493483E1,4.378E3,3E0,-6.5803224E-1,2.2E1,1E0,4E0,3.3444092E0,3.7468264E-1,1.7946753E1,-1.5448487E0,-3.2792969E0,-8.085938E-2],"split_indices":[38,35,0,43,16,0,2,27,3,0,0,0,0,0,0],"split_type":[0,0,0,0,0,0,0,0,0,0,0,0,0,0,0],"sum_hessian":[6.49E2,6.06E2,4.3E1,9.8E1,5.08E2,1.7E1,8.1E1,6.1E1,4.47E2,4.7E1,3.4E1,4.7E1,1.4E1,2.6E2,1.87E2],"tree_param":{"num_deleted":"0","num_feature":"58","num_nodes":"15","size_leaf_vector":"1"}},{"base_weights":[-6.598586E-2,-1.6082121E-1,4.952381E-2,-4.2887473E-1,2.0028612E-2,-5.69863E-1,5.6074765E-2,-4.636785E-2,8.301887E-1,-4.9473684E-2,-2.103321E-2,-2.5925925E-2,1.2345679E-2,-4.7154473E-3,4.2424243E-2,4.848485E-2,2.857143E-2],"categories":[],"categories_nodes":[],"categories_segments":[],"categories_sizes":[],"default_left":[0,0,0,0,0,0,0,0,0,0,0,0,0,0,0,0,0],"id":30,"left_children":[1,3,-1,5,7,9,11,13,15,-1,-1,-1,-1,-1,-1,-1,-1],"loss_changes":[6.3850548E1,2.8339355E1,0E0,1.611763E1,1.881947E1,1.1217369E1,5.930541E0,1.3918229E1,6.7957115E-1,0E0,0E0,0E0,0E0,0E0,0E0,0E0,0E0],"parents":[2147483647,0,0,1,1,3,3,4,4,5,5,6,6,7,7,8,8],"right_children":[2,4,-1,6,8,10,12,14,16,-1,-1,-1,-1,-1,-1,-1,-1],"split_conditions":[5.2835E3,4.364E3,2.89688E1,4.6649517E3,4.6649517E3,4.144E3,-8E1,2.54E2,2.6E1,-7.4814944E0,-1.9236816E0,-1.8888184E0,4.7285157E-1,-4.428955E-1,2.0781006E1,3.9865968E0,5.134009E0],"split_indices":[38,39,0,32,32,39,55,55,20,0,0,0,0,0,0,0,0],"split_type":[0,0,0,0,0,0,0,0,0,0,0,0,0,0,0,0,0],"sum_hessian":[6.36E2,5.84E2,5.2E1,2.35E2,3.49E2,1.82E2,5.3E1,3.23E2,2.6E1,4.7E1,1.35E2,1.3E1,4E1,3.07E2,1.6E1,1.6E1,1E1],"tree_param":{"num_deleted":"0","num_feature":"58","num_nodes":"17","size_leaf_vector":"1"}},{"base_weights":[-7.245283E-2,-1.5247364E-1,4.9462367E-2,-5.943775E-1,-4.0609136E-2,1.818182E-2,-7.373272E-1,-7.010309E-1,3.1496063E-2,-4.6086956E-2,-2.6213592E-2,-4.3661974E-2,-1.1111111E-2,-4.3410854E-3,1.7142858E-2],"categories":[],"categories_nodes":[],"categories_segments":[],"categories_sizes":[],"default_left":[0,0,0,0,0,0,0,0,0,0,0,0,0,0,0],"id":31,"left_children":[1,3,-1,5,7,-1,9,11,13,-1,-1,-1,-1,-1,-1],"loss_changes":[5.636016E1,3.04636E1,0E0,1.7184055E1,2.3463814E1,0E0,4.0213394E0,3.9020348E0,1.6390062E1,0E0,0E0,0E0,0E0,0E0,0E0],"parents":[2147483647,0,0,1,1,3,3,4,4,6,6,7,7,8,8],"right_children":[2,4,-1,6,8,-1,10,12,14,-1,-1,-1,-1,-1,-1],"split_conditions":[5.2835E3,4.222E3,3.1295532E1,4E0,-1.8966667E2,4.168677E0,4.274E3,6E0,4.657E3,-4.8181643E0,-3.2364013E0,-2.3398194E0,-1.6497315E0,-5.518066E-1,1.980835E0],"split_indices":[38,44,0,16,55,0,39,18,39,0,0,0,0,0,0],"split_type":[0,0,0,0,0,0,0,0,0,0,0,0,0,0,0],"sum_hessian":[6.62E2,6.16E2,4.6E1,1.24E2,4.92E2,1.6E1,1.08E2,4.8E1,4.44E2,5.7E1,5.1E1,3.5E1,1.3E1,3.22E2,1.22E2],"tree_param":{"num_deleted":"0","num_feature":"58","num_nodes":"15","size_leaf_vector":"1"}},{"base_weights":[-5.3070508E-2,-1.3202934E-1,4.9462367E-2,-5.276873E-1,-0E0,-7.5117373E-1,-2.1052632E-2,1.6523236E-1,-2.8152493E-1,-4.2076502E-2,-9.677419E-3,-3.9130434E-2,1.0958904E-2,1.1720227E-2,-2.6415095E-2,-2.0983607E-2,4.3243244E-2],"categories":[],"categories_nodes":[],"categories_segments":[],"categories_sizes":[],"default_left":[0,0,0,0,0,0,0,0,0,0,0,0,0,0,0,0,0],"id":32,"left_children":[1,3,-1,5,7,9,11,13,15,-1,-1,-1,-1,-1,-1,-1,-1],"loss_changes":[5.4342285E1,3.2048294E1,0E0,1.737228E1,2.1444351E1,5.284561E0,8.775851E0,1.3998155E1,2.7183657E1,0E0,0E0,0E0,0E0,0E0,0E0,0E0,0E0],"parents":[2147483647,0,0,1,1,3,3,4,4,5,5,6,6,7,7,8,8],"right_children":[2,4,-1,6,8,10,12,14,16,-1,-1,-1,-1,-1,-1,-1,-1],"split_conditions":[5.2835E3,4.269E3,2.9730762E1,4.6649517E3,3.8964287E1,9.028571E1,7E0,3.3775826E1,1.052E3,-5.058765E0,-9.4367677E-1,-4.148584E0,4.7680664E-1,6.6359866E-1,-2.2228272E0,-1.525E0,1.700061E1],"split_indices":[38,39,0,32,52,51,20,53,57,0,0,0,0,0,0,0,0],"split_type":[0,0,0,0,0,0,0,0,0,0,0,0,0,0,0,0,0],"sum_hessian":[6.59E2,6.13E2,4.6E1,1.53E2,4.6E2,1.06E2,4.7E1,2.9E2,1.7E2,9.1E1,1.5E1,1.1E1,3.6E1,2.64E2,2.6E1,1.52E2,1.8E1],"tree_param":{"num_deleted":"0","num_feature":"58","num_nodes":"17","size_leaf_vector":"1"}},{"base_weights":[-4.2088855E-2,-1.3593882E-1,4.953271E-2,-3.6399218E-1,3.898051E-2,-6.1209965E-1,-6.0606062E-2,-6.813187E-1,1.52513E-1,1.06382985E-2,-3.8723405E-2,1.818182E-2,-1.3548388E-2,-9.677419E-3,-4.5901638E-2,3.4068138E-3,3.4177214E-2],"categories":[],"categories_nodes":[],"categories_segments":[],"categories_sizes":[],"default_left":[0,0,0,0,0,0,0,0,0,0,0,0,0,0,0,0,0],"id":33,"left_children":[1,3,-1,5,7,9,11,13,15,-1,-1,-1,-1,-1,-1,-1,-1],"loss_changes":[6.224338E1,2.3482914E1,0E0,1.921354E1,2.7324705E1,1.8899853E1,1.0356989E1,5.164686E0,1.2903442E1,0E0,0E0,0E0,0E0,0E0,0E0,0E0,0E0],"parents":[2147483647,0,0,1,1,3,3,4,4,5,5,6,6,7,7,8,8],"right_children":[2,4,-1,6,8,10,12,14,16,-1,-1,-1,-1,-1,-1,-1,-1],"split_conditions":[5.394E3,4.417E3,2.4469044E1,4E0,-2.1333333E2,1.2400519E2,4.443E3,2.024E3,4.6649517E3,1.9481201E0,-4.4754395E0,1.2746338E0,-8.747315E-1,-7.537109E-1,-2.1116943E0,3.248535E-1,3.781665E0],"split_indices":[38,46,0,3,55,49,42,0,32,0,0,0,0,0,0,0,0],"split_type":[0,0,0,0,0,0,0,0,0,0,0,0,0,0,0,0,0],"sum_hessian":[6.41E2,5.88E2,5.3E1,2.55E2,3.33E2,1.4E2,1.15E2,4.5E1,2.88E2,2.3E1,1.17E2,3.8E1,7.7E1,1.5E1,3E1,2.49E2,3.9E1],"tree_param":{"num_deleted":"0","num_feature":"58","num_nodes":"17","size_leaf_vector":"1"}},{"base_weights":[-2.700556E-2,-1.0796915E-1,4.9462367E-2,3.857868E-1,-2.0803295E-1,-2.9268292E-1,5.6050956E-1,-2.4229543E-1,4.1935485E-2,9.52381E-3,-3.809524E-2,3.4710746E-2,5.4054055E-3,-2.1172022E-2,-4.8426152E-4],"categories":[],"categories_nodes":[],"categories_segments":[],"categories_sizes":[],"default_left":[0,0,0,0,0,0,0,0,0,0,0,0,0,0,0],"id":34,"left_children":[1,3,-1,5,7,9,11,13,-1,-1,-1,-1,-1,-1,-1],"loss_changes":[5.1848335E1,2.886917E1,0E0,1.1758619E1,1.7513578E1,4.720093E0,4.710821E0,1.9823023E1,0E0,0E0,0E0,0E0,0E0,0E0,0E0],"parents":[2147483647,0,0,1,1,3,3,4,4,5,5,6,6,7,7],"right_children":[2,4,-1,6,8,10,12,14,-1,-1,-1,-1,-1,-1,-1],"split_conditions":[5.394E3,2.2315213E2,2.324558E1,4.406E3,3.36E2,4.504857E3,2.7E1,4E0,1.8776636E1,1.5039063E-2,-1.5482422E0,2.3648927E0,6.723633E-2,-2.2489746E0,-4.2797852E-2],"split_indices":[38,35,0,43,55,46,2,3,0,0,0,0,0,0,0],"split_type":[0,0,0,0,0,0,0,0,0,0,0,0,0,0,0],"sum_hessian":[6.29E2,5.83E2,4.6E1,9.8E1,4.85E2,2E1,7.8E1,4.7E2,1.5E1,1E1,1E1,6E1,1.8E1,2.64E2,2.06E2],"tree_param":{"num_deleted":"0","num_feature":"58","num_nodes":"15","size_leaf_vector":"1"}},{"base_weights":[-3.0087095E-2,-1.2251941E-1,4.952381E-2,-3.0862328E-1,1.242485E-1,5.614035E-1,-3.9008266E-1,2.1691974E-1,-4.871795E-2,4.2424243E-2,8E-3,-4.161074E-2,-1.2253829E-2,5.774278E-3,3.4567904E-2],"categories":[],"categories_nodes":[],"categories_segments":[],"categories_sizes":[],"default_left":[0,0,0,0,0,0,0,0,0,0,0,0,0,0,0],"id":35,"left_children":[1,3,-1,5,7,9,11,13,-1,-1,-1,-1,-1,-1,-1],"loss_changes":[5.963199E1,2.66324E1,0E0,2.353263E1,2.5507105E1,3.2163305E0,1.9291859E1,1.1052719E1,0E0,0E0,0E0,0E0,0E0,0E0,0E0],"parents":[2147483647,0,0,1,1,3,3,4,4,5,5,6,6,7,7],"right_children":[2,4,-1,6,8,10,12,14,-1,-1,-1,-1,-1,-1,-1],"split_conditions":[5.2835E3,4E0,2.2083302E1,3E0,1E0,2.051045E-1,4.3315713E3,4.67714E3,-8.2905275E-1,1.4832324E1,1.1641601E0,-4.7765136E0,-1.200586E0,3.0786133E-1,1.8597412E0],"split_indices":[38,3,0,16,28,10,46,34,0,0,0,0,0,0,0],"split_type":[0,0,0,0,0,0,0,0,0,0,0,0,0,0,0],"sum_hessian":[6.31E2,5.79E2,5.2E1,3.3E2,2.49E2,2.8E1,3.02E2,2.3E2,1.9E1,1.6E1,1.2E1,7.4E1,2.28E2,1.9E2,4E1],"tree_param":{"num_deleted":"0","num_feature":"58","num_nodes":"15","size_leaf_vector":"1"}},{"base_weights":[-5.603113E-2,-1.4423923E-1,6.1744964E-1,-4.778761E-1,-2.503129E-3,8.440367E-1,-0E0,-7.305389E-1,-2.3121387E-1,2.3100305E-1,-1.656051E-1,1.8518519E-2,4.939759E-2,-3.809524E-2,3.809524E-2,-4.2446043E-2,-6.8965517E-3,-2.0689657E-2,3.448276E-2,-3.9130434E-2,1.5309446E-2,-1.4066497E-2,1.9753087E-2],"categories":[],"categories_nodes":[],"categories_segments":[],"categories_sizes":[],"default_left":[0,0,0,0,0,0,0,0,0,0,0,0,0,0,0,0,0,0,0,0,0,0,0],"id":36,"left_children":[1,3,5,7,9,11,13,15,17,19,21,-1,-1,-1,-1,-1,-1,-1,-1,-1,-1,-1,-1],"loss_changes":[3.821318E1,2.688285E1,1.0423002E1,1.0479191E1,1.5234211E1,3.5321922E0,1.2190476E1,5.79932E0,1.4686068E1,1.2656243E1,1.5335533E1,0E0,0E0,0E0,0E0,0E0,0E0,0E0,0E0,0E0,0E0,0E0,0E0],"parents":[2147483647,0,0,1,1,2,2,3,3,4,4,5,5,6,6,7,7,8,8,9,9,10,10],"right_children":[2,4,6,8,10,12,14,16,18,20,22,-1,-1,-1,-1,-1,-1,-1,-1,-1,-1,-1,-1],"split_conditions":[3.8057144E2,4.297E3,1.8125E2,4.222E3,3.4993277E2,4.462E3,1E0,-3.2666668E1,8.939186E-1,4.3046333E3,1E0,2.7172852E-2,2.4754297E1,-7.8759766E-1,1.4453882E1,-3.9492676E0,-8.0700684E-1,-2.1635742E0,2.0709717E0,-4.1993165E0,9.20166E-1,-1.2374756E0,3.5350587E0],"split_indices":[56,42,52,44,35,42,13,55,11,48,29,0,0,0,0,0,0,0,0,0,0,0,0],"split_type":[0,0,0,0,0,0,0,0,0,0,0,0,0,0,0,0,0,0,0,0,0,0,0],"sum_hessian":[6.42E2,5.68E2,7.4E1,1.69E2,3.99E2,5.4E1,2E1,8.3E1,8.6E1,1.64E2,2.35E2,1.3E1,4.1E1,1E1,1E1,6.9E1,1.4E1,7.2E1,1.4E1,1.1E1,1.53E2,1.95E2,4E1],"tree_param":{"num_deleted":"0","num_feature":"58","num_nodes":"23","size_leaf_vector":"1"}},{"base_weights":[-4.317656E-2,-1.3411568E-1,4.952381E-2,-4.3583536E-1,2.5608195E-2,-8E-1,-2.3791821E-1,-2.7888447E-1,1.6949153E-1,-4.747475E-2,-2.3404256E-2,-4.6948357E-3,-3.8596492E-2,1.6363636E-2,-2.2335026E-2,1.1764706E-2,-3.3333335E-2],"categories":[],"categories_nodes":[],"categories_segments":[],"categories_sizes":[],"default_left":[0,0,0,0,0,0,0,0,0,0,0,0,0,0,0,0,0],"id":37,"left_children":[1,3,-1,5,7,9,11,13,15,-1,-1,-1,-1,-1,-1,-1,-1],"loss_changes":[6.1025074E1,2.8752008E1,0E0,1.4788204E1,1.7131992E1,3.3751984E0,1.0308041E1,1.2839319E1,1.4686605E1,0E0,0E0,0E0,0E0,0E0,0E0,0E0,0E0],"parents":[2147483647,0,0,1,1,3,3,4,4,5,5,6,6,7,7,8,8],"right_children":[2,4,-1,6,8,10,12,14,16,-1,-1,-1,-1,-1,-1,-1,-1],"split_conditions":[5.024E3,4.338E3,1.9741407E1,4.215E3,2E0,2E1,4.991E3,1.2797191E2,5.843E3,-4.743262E0,-2.5495117E0,-6.7353517E-1,-4.1031737E0,2.0238037E0,-1.5318604E0,8.1677246E-1,-7.4821776E-1],"split_indices":[38,39,0,44,3,2,44,49,40,0,0,0,0,0,0,0,0],"split_type":[0,0,0,0,0,0,0,0,0,0,0,0,0,0,0,0,0],"sum_hessian":[6.48E2,5.96E2,5.2E1,2.06E2,3.9E2,7.2E1,1.34E2,1.25E2,2.65E2,4.9E1,2.3E1,1.06E2,2.8E1,2.7E1,9.8E1,2.46E2,1.9E1],"tree_param":{"num_deleted":"0","num_feature":"58","num_nodes":"17","size_leaf_vector":"1"}},{"base_weights":[-4.611837E-2,-1.2044105E-1,6.666667E-1,-2.7769572E-1,9.1451295E-2,-3.2258064E-3,9.032258E-1,-8.6315787E-1,-1.8181819E-1,-5.538462E-1,1.8678816E-1,2.857143E-2,4.931507E-2,-4.9275365E-2,-2.5925925E-2,2.1538462E-2,-1.2909441E-2,1.904762E-2,-4.888889E-2,4.0871934E-3,3.561644E-2],"categories":[],"categories_nodes":[],"categories_segments":[],"categories_sizes":[],"default_left":[0,0,0,0,0,0,0,0,0,0,0,0,0,0,0,0,0,0,0,0,0],"id":38,"left_children":[1,3,5,7,9,-1,11,13,15,17,19,-1,-1,-1,-1,-1,-1,-1,-1,-1,-1],"loss_changes":[3.45011E1,1.9655464E1,1.0666666E1,1.8922443E1,1.5524164E1,0E0,9.9993515E-1,1.747406E0,1.3693056E1,1.3065691E1,1.2088392E1,0E0,0E0,0E0,0E0,0E0,0E0,0E0,0E0,0E0,0E0],"parents":[2147483647,0,0,1,1,2,2,3,3,4,4,6,6,7,7,8,8,9,9,10,10],"right_children":[2,4,6,8,10,-1,12,14,16,18,20,-1,-1,-1,-1,-1,-1,-1,-1,-1,-1],"split_conditions":[5.348E3,4E0,1E0,4.145E3,1E0,-7.108154E-1,2.024E3,7E0,0E0,5E0,4.67714E3,1.1485718E1,1.5917285E1,-7.294385E0,-3.588501E0,1.9974854E0,-1.1099854E0,5.8766603E0,-3.6254394E0,2.0563965E-1,3.317456E0],"split_indices":[39,3,14,39,26,0,0,57,22,3,34,0,0,0,0,0,0,0,0,0,0],"split_type":[0,0,0,0,0,0,0,0,0,0,0,0,0,0,0,0,0,0,0,0,0],"sum_hessian":[6.5E2,5.89E2,6.1E1,3.38E2,2.51E2,1.5E1,4.6E1,4.7E1,2.91E2,3.2E1,2.19E2,1E1,3.6E1,3.4E1,1.3E1,3.2E1,2.59E2,1E1,2.2E1,1.83E2,3.6E1],"tree_param":{"num_deleted":"0","num_feature":"58","num_nodes":"21","size_leaf_vector":"1"}},{"base_weights":[-3.498099E-2,-1.07404396E-1,4.9425285E-2,-4.489796E-1,2.4802705E-2,2.7027026E-2,-5.6677526E-1,9.079754E-2,-7.123288E-1,8E-3,-3.1448763E-2,-2.0879121E-2,7.7241375E-3,-1.6129032E-2,-4.883721E-2],"categories":[],"categories_nodes":[],"categories_segments":[],"categories_sizes":[],"default_left":[0,0,0,0,0,0,0,0,0,0,0,0,0,0,0],"id":39,"left_children":[1,3,-1,5,7,-1,9,11,13,-1,-1,-1,-1,-1,-1],"loss_changes":[4.8789875E1,2.7755571E1,0E0,2.0143421E1,2.1607227E1,0E0,6.989353E0,1.3225591E1,3.603983E0,0E0,0E0,0E0,0E0,0E0,0E0],"parents":[2147483647,0,0,1,1,3,3,4,4,6,6,7,7,8,8],"right_children":[2,4,-1,6,8,-1,10,12,14,-1,-1,-1,-1,-1,-1],"split_conditions":[5.394E3,4.28E3,2.1733643E1,2E0,5.446E3,1.4946777E1,1.4215855E2,4.178E3,5.669E3,1.4414307E0,-3.2442138E0,-2.090332E0,3.2319337E-1,-3.1291504E0,-9.569336E-1],"split_indices":[38,42,0,16,41,0,50,39,40,0,0,0,0,0,0],"split_type":[0,0,0,0,0,0,0,0,0,0,0,0,0,0,0],"sum_hessian":[6.57E2,6.14E2,4.3E1,1.71E2,4.43E2,1.8E1,1.53E2,4.07E2,3.6E1,1.2E1,1.41E2,4.5E1,3.62E2,1.5E1,2.1E1],"tree_param":{"num_deleted":"0","num_feature":"58","num_nodes":"15","size_leaf_vector":"1"}},{"base_weights":[-2.6254827E-2,-1.1989574E-1,7.172414E-1,-3.392E-1,1.4041746E-1,9.230769E-1,-6.8965517E-3,-1.8052256E-1,-6.6341466E-1,2.2505307E-1,-5.614035E-1,4.9462367E-2,3.2E-2,-4.901961E-2,-3.5040432E-3,-3.878788E-2,-9.756098E-3,3.2171581E-3,4.141414E-2,-4.8275862E-2,-6.8965517E-3],"categories":[],"categories_nodes":[],"categories_segments":[],"categories_sizes":[],"default_left":[0,0,0,0,0,0,0,0,0,0,0,0,0,0,0,0,0,0,0,0,0],"id":40,"left_children":[1,3,5,7,9,11,-1,13,15,17,19,-1,-1,-1,-1,-1,-1,-1,-1,-1,-1],"loss_changes":[4.5123028E1,3.287784E1,1.282547E1,1.6016853E1,1.5714825E1,7.792206E-1,0E0,1.8560999E1,5.31678E0,2.2803898E1,4.810647E0,0E0,0E0,0E0,0E0,0E0,0E0,0E0,0E0,0E0,0E0],"parents":[2147483647,0,0,1,1,2,2,3,3,4,4,5,5,7,7,8,8,9,9,10,10],"right_children":[2,4,6,8,10,12,-1,14,16,18,20,-1,-1,-1,-1,-1,-1,-1,-1,-1,-1],"split_conditions":[5.143E3,4E0,1.4E1,5.234156E-1,3.701978E1,4.463E3,-1.916626E0,4.092E3,9.796137E-1,4.452E3,4.376E3,1.7703222E1,1.3649927E1,-4.146875E0,-3.3049318E-1,-3.246875E0,-5.2468753E0,2.0893554E-1,3.6550293E0,-4.5576415E0,-2.5718994E0],"split_indices":[39,3,16,10,53,45,0,45,10,41,45,0,0,0,0,0,0,0,0,0,0],"split_type":[0,0,0,0,0,0,0,0,0,0,0,0,0,0,0,0,0,0,0,0,0],"sum_hessian":[6.47E2,5.75E2,7.2E1,3.12E2,2.63E2,5.8E1,1.4E1,2.1E2,1.02E2,2.35E2,2.8E1,4.6E1,1.2E1,2.5E1,1.85E2,8.2E1,2E1,1.86E2,4.9E1,1.4E1,1.4E1],"tree_param":{"num_deleted":"0","num_feature":"58","num_nodes":"21","size_leaf_vector":"1"}},{"base_weights":[-3.165034E-2,-1.1030008E-1,4.9473684E-2,-2.9260936E-1,1.0157618E-1,-7.398844E-1,-1.3441955E-1,7.733333E-1,-0E0,-1.3793103E-2,-4.1379314E-2,-1.0961968E-2,3.5555556E-2,4.9056605E-2,1.3043478E-2,-9.180328E-3,1.4507772E-2],"categories":[],"categories_nodes":[],"categories_segments":[],"categories_sizes":[],"default_left":[0,0,0,0,0,0,0,0,0,0,0,0,0,0,0,0,0],"id":41,"left_children":[1,3,-1,5,7,9,11,13,15,-1,-1,-1,-1,-1,-1,-1,-1],"loss_changes":[5.334101E1,2.3828411E1,0E0,2.3405338E1,1.9480957E1,3.4060173E0,1.7684662E1,3.8653755E0,1.3265336E1,0E0,0E0,0E0,0E0,0E0,0E0,0E0,0E0],"parents":[2147483647,0,0,1,1,3,3,4,4,5,5,6,6,7,7,8,8],"right_children":[2,4,-1,6,8,10,12,14,16,-1,-1,-1,-1,-1,-1,-1,-1],"split_conditions":[5.4025E3,-7.3333335E0,1.9761816E1,2E0,1.3085677E2,2.2315213E2,5.1802144E3,5.9E1,4.651E3,-1.0267334E0,-4.4133544E0,-8.3979493E-1,1.0587403E0,3.3150635E0,1.4026855E0,-8.4658206E-1,2.2305908E0],"split_indices":[38,55,0,3,50,35,47,16,39,0,0,0,0,0,0,0,0],"split_type":[0,0,0,0,0,0,0,0,0,0,0,0,0,0,0,0,0],"sum_hessian":[6.63E2,6.16E2,4.7E1,3.31E2,2.85E2,8.6E1,2.45E2,3.7E1,2.48E2,1.4E1,7.2E1,2.23E2,2.2E1,2.6E1,1.1E1,1.52E2,9.6E1],"tree_param":{"num_deleted":"0","num_feature":"58","num_nodes":"17","size_leaf_vector":"1"}},{"base_weights":[-2.2140222E-2,-1.0358566E-1,4.950495E-2,-8.4705883E-1,-4.9530316E-2,-4.920635E-2,-2.173913E-2,2.9850745E-1,-1.215242E-1,2.3931624E-2,2.3529413E-3,3.1055901E-3,-1.51329255E-2],"categories":[],"categories_nodes":[],"categories_segments":[],"categories_sizes":[],"default_left":[0,0,0,0,0,0,0,0,0,0,0,0,0],"id":42,"left_children":[1,3,-1,5,7,-1,-1,9,11,-1,-1,-1,-1],"loss_changes":[5.5905914E1,2.519743E1,0E0,2.1877327E0,1.4688773E1,0E0,0E0,4.5406046E0,1.6158476E1,0E0,0E0,0E0,0E0],"parents":[2147483647,0,0,1,1,3,3,4,4,7,7,8,8],"right_children":[2,4,-1,6,8,-1,-1,10,12,-1,-1,-1,-1],"split_conditions":[5.4025E3,4.093E3,1.59104E1,4.22E3,2.2315213E2,-4.1703124E0,-1.6001221E0,4.612E3,4.497067E3,1.764087E0,2.1728517E-3,1.5036622E-1,-1.0578613E0],"split_indices":[38,45,0,44,35,0,0,40,48,0,0,0,0],"split_type":[0,0,0,0,0,0,0,0,0,0,0,0,0],"sum_hessian":[6.77E2,6.27E2,5E1,4.2E1,5.85E2,3.1E1,1.1E1,1E2,4.85E2,5.8E1,4.2E1,2.41E2,2.44E2],"tree_param":{"num_deleted":"0","num_feature":"58","num_nodes":"13","size_leaf_vector":"1"}},{"base_weights":[-6.949807E-2,-1.3246116E-1,4.931507E-2,-3.3082706E-1,1.0375671E-1,-4.4692737E-1,1.5503876E-1,7.0422536E-1,1.6359918E-2,-1.7832957E-2,-4.3157894E-2,-1.818182E-2,1.6494846E-2,4.888889E-2,1.1111111E-2,-2.4608502E-3,3.488372E-2],"categories":[],"categories_nodes":[],"categories_segments":[],"categories_sizes":[],"default_left":[0,0,0,0,0,0,0,0,0,0,0,0,0,0,0,0,0],"id":43,"left_children":[1,3,-1,5,7,9,11,13,15,-1,-1,-1,-1,-1,-1,-1,-1],"loss_changes":[4.3108788E1,2.8670567E1,0E0,1.8790699E1,1.46621275E1,9.934265E0,5.9097815E0,4.5721436E0,1.0941064E1,0E0,0E0,0E0,0E0,0E0,0E0,0E0,0E0],"parents":[2147483647,0,0,1,1,3,3,4,4,5,5,6,6,7,7,8,8],"right_children":[2,4,-1,6,8,10,12,14,16,-1,-1,-1,-1,-1,-1,-1,-1],"split_conditions":[5.515E3,-7.3333335E0,1.9393652E1,4.6649517E3,1.3019522E2,3.6586815E1,4.158E3,5.6E1,4.985E3,-1.5896972E0,-1.6618652E0,-5.4663086E-1,1.0130128E0,3.4865234E0,1.0819336E0,-1.5170899E-1,1.3397901E1],"split_indices":[38,55,0,32,50,53,41,16,36,0,0,0,0,0,0,0,0],"split_type":[0,0,0,0,0,0,0,0,0,0,0,0,0,0,0,0,0],"sum_hessian":[6.47E2,6.11E2,3.6E1,3.32E2,2.79E2,2.68E2,6.4E1,3.5E1,2.44E2,2.21E2,4.7E1,1.6E1,4.8E1,2.2E1,1.3E1,2.23E2,2.1E1],"tree_param":{"num_deleted":"0","num_feature":"58","num_nodes":"17","size_leaf_vector":"1"}},{"base_weights":[-3.0372057E-2,-1.0235581E-1,4.9425285E-2,-5.2038163E-2,-8.35443E-1,-2.6345083E-1,1.3333334E-1,-1.904762E-2,-4.9152542E-2,-3.0769233E-2,-5.121294E-3,1.0516252E-2,-1.5053764E-2],"categories":[],"categories_nodes":[],"categories_segments":[],"categories_sizes":[],"default_left":[0,0,0,0,0,0,0,0,0,0,0,0,0],"id":44,"left_children":[1,3,-1,5,7,9,11,-1,-1,-1,-1,-1,-1],"loss_changes":[4.834672E1,2.2682348E1,0E0,2.261053E1,2.4626637E0,1.5241081E1,1.0316265E1,0E0,0E0,0E0,0E0,0E0,0E0],"parents":[2147483647,0,0,1,1,3,3,4,4,5,5,6,6],"right_children":[2,4,-1,6,8,10,12,-1,-1,-1,-1,-1,-1],"split_conditions":[5.515E3,5.446E3,1.4145215E1,4.417E3,5.8778524E-1,4.222E3,4.741357E3,-1.4370117E0,-1.3609619E0,-2.7545166E0,-4.8850098E-1,1.1880616E0,-1.5787598E0],"split_indices":[38,41,0,46,10,44,47,0,0,0,0,0,0],"split_type":[0,0,0,0,0,0,0,0,0,0,0,0,0],"sum_hessian":[6.58E2,6.15E2,4.3E1,5.76E2,3.9E1,2.69E2,3.07E2,1E1,2.9E1,8.4E1,1.85E2,2.61E2,4.6E1],"tree_param":{"num_deleted":"0","num_feature":"58","num_nodes":"13","size_leaf_vector":"1"}},{"base_weights":[-4.385278E-2,-1.0074319E-1,4.9253732E-2,-4.345048E-1,1.5572859E-2,3.2432433E-2,-5.7761735E-1,-7.906977E-1,5.6009334E-2,2.5641026E-3,-3.3891212E-2,-4.782609E-2,-2.857143E-2,1.8226601E-2,-1.984733E-3],"categories":[],"categories_nodes":[],"categories_segments":[],"categories_sizes":[],"default_left":[0,0,0,0,0,0,0,0,0,0,0,0,0,0,0],"id":45,"left_children":[1,3,-1,5,7,-1,9,11,13,-1,-1,-1,-1,-1,-1],"loss_changes":[3.7424923E1,2.3510002E1,0E0,2.4446842E1,1.4677074E1,0E0,8.745659E0,5.084505E-1,1.2659491E1,0E0,0E0,0E0,0E0,0E0,0E0],"parents":[2147483647,0,0,1,1,3,3,4,4,6,6,7,7,8,8],"right_children":[2,4,-1,6,8,-1,10,12,14,-1,-1,-1,-1,-1,-1],"split_conditions":[5.394E3,-9.7333336E1,1.3357544E1,4E0,4.093E3,1.9488038E0,1.8487032E2,1E0,-2.2252093E-1,3.2905275E-1,-2.616797E0,-3.4718018E0,-3.5117433E0,2.1394289E0,-2.0351563E-1],"split_indices":[38,55,0,2,45,0,50,1,7,0,0,0,0,0,0],"split_type":[0,0,0,0,0,0,0,0,0,0,0,0,0,0,0],"sum_hessian":[6.38E2,6.05E2,3.3E1,1.56E2,4.49E2,1.8E1,1.38E2,2.1E1,4.28E2,1.9E1,1.19E2,1.1E1,1E1,1.01E2,3.27E2],"tree_param":{"num_deleted":"0","num_feature":"58","num_nodes":"15","size_leaf_vector":"1"}},{"base_weights":[-7.049809E-2,-1.3804437E-1,8.5393256E-1,-8.986784E-2,-7.9518074E-1,1.904762E-2,4.9275365E-2,-4.501845E-1,2.3121387E-2,-9.52381E-3,-4.920635E-2,-4.141414E-2,-1.1560693E-2,1.5884478E-2,-5.7724956E-3],"categories":[],"categories_nodes":[],"categories_segments":[],"categories_sizes":[],"default_left":[0,0,0,0,0,0,0,0,0,0,0,0,0,0,0],"id":46,"left_children":[1,3,5,7,9,-1,-1,11,13,-1,-1,-1,-1,-1,-1],"loss_changes":[4.0802254E1,1.9228497E1,2.5816193E0,2.310921E1,4.647928E0,0E0,0E0,1.1122616E1,1.7672422E1,0E0,0E0,0E0,0E0,0E0,0E0],"parents":[2147483647,0,0,1,1,2,2,3,3,4,4,7,7,8,8],"right_children":[2,4,6,8,10,-1,-1,12,14,-1,-1,-1,-1,-1,-1],"split_conditions":[5.515E3,5.446E3,5.698E3,4.361433E3,1.07381344E-1,2.0887573E1,1.2689673E1,4.164E3,4.497067E3,-2.8416994E0,-1.3999023E0,-3.2982178E0,-1.0179199E0,7.2556156E-1,-4.5781252E-1],"split_indices":[38,41,38,48,11,0,0,44,48,0,0,0,0,0,0],"split_type":[0,0,0,0,0,0,0,0,0,0,0,0,0,0,0],"sum_hessian":[6.52E2,6.08E2,4.4E1,5.67E2,4.1E1,1E1,3.4E1,1.35E2,4.32E2,1E1,3.1E1,4.9E1,8.6E1,1.38E2,2.94E2],"tree_param":{"num_deleted":"0","num_feature":"58","num_nodes":"15","size_leaf_vector":"1"}},{"base_weights":[-2.3752969E-2,-7.660283E-2,4.920635E-2,4.171779E-2,-3.255814E-1,-3.6871508E-1,1.5698586E-1,2.9565218E-1,-5.860806E-1,-3.968254E-2,-6.8376074E-3,3.818182E-2,4.974271E-3,4.7058826E-3,4.1935485E-2,-3.3755276E-2,-0E0],"categories":[],"categories_nodes":[],"categories_segments":[],"categories_sizes":[],"default_left":[0,0,0,0,0,0,0,0,0,0,0,0,0,0,0,0,0],"id":47,"left_children":[1,3,-1,5,7,9,11,13,15,-1,-1,-1,-1,-1,-1,-1,-1],"loss_changes":[3.3675377E1,1.7697102E1,0E0,1.930769E1,3.140091E1,8.76769E0,1.1072146E1,6.2536097E0,7.121994E0,0E0,0E0,0E0,0E0,0E0,0E0,0E0,0E0],"parents":[2147483647,0,0,1,1,3,3,4,4,5,5,6,6,7,7,8,8],"right_children":[2,4,-1,6,8,10,12,14,16,-1,-1,-1,-1,-1,-1,-1,-1],"split_conditions":[5.515E3,5.808003E-1,1.499895E1,4.327143E3,4.27E3,-1.3685715E2,4.52558E3,4.2714287E1,9.9421793E-1,-3.2763183E0,-4.406006E-1,1.8914063E0,3.8110352E-1,1.4145508E-1,4.3685794E0,-2.418872E0,-1.0561523E0],"split_indices":[38,10,0,46,41,51,38,54,10,0,0,0,0,0,0,0,0],"split_type":[0,0,0,0,0,0,0,0,0,0,0,0,0,0,0,0,0],"sum_hessian":[6.31E2,6E2,3.1E1,4.07E2,1.93E2,8.9E1,3.18E2,5.7E1,1.36E2,3.1E1,5.8E1,2.7E1,2.91E2,4.2E1,1.5E1,1.18E2,1.8E1],"tree_param":{"num_deleted":"0","num_feature":"58","num_nodes":"17","size_leaf_vector":"1"}},{"base_weights":[-6.16808E-3,-1.0111397E-1,8.396947E-1,-6.3414633E-1,-3.827751E-2,1.818182E-2,4.949495E-2,-7.9518074E-1,-2.9268292E-1,-1.0718114E-1,5.3097343E-1,-4.9122807E-2,-1.8518519E-2,-3.809524E-2,9.52381E-3,-6.6959388E-3,4.782609E-2,9.836066E-3,4.528302E-2],"categories":[],"categories_nodes":[],"categories_segments":[],"categories_sizes":[],"default_left":[0,0,0,0,0,0,0,0,0,0,0,0,0,0,0,0,0,0,0],"id":48,"left_children":[1,3,5,7,9,-1,-1,11,13,15,17,-1,-1,-1,-1,-1,-1,-1,-1],"loss_changes":[5.2124256E1,1.9531536E1,4.503662E0,3.265356E0,2.0522709E1,0E0,0E0,3.1196613E0,4.720093E0,1.3331728E1,6.986974E0,0E0,0E0,0E0,0E0,0E0,0E0,0E0,0E0],"parents":[2147483647,0,0,1,1,2,2,3,3,4,4,7,7,8,8,9,9,10,10],"right_children":[2,4,6,8,10,-1,-1,12,14,16,18,-1,-1,-1,-1,-1,-1,-1,-1],"split_conditions":[4.147143E2,4.145E3,4.5071333E3,4.6649517E3,4.6649517E3,8.296069E0,1.4249E1,7E0,4.086E3,6.063E3,3.2E1,-6.376392E0,-2.2000978E0,-3.666919E0,1.9436036E-1,-3.301758E-1,1.9093237E1,1.34375E-1,5.3621097E0],"split_indices":[56,39,48,32,32,0,0,57,40,41,18,0,0,0,0,0,0,0,0],"split_type":[0,0,0,0,0,0,0,0,0,0,0,0,0,0,0,0,0,0,0],"sum_hessian":[6.48E2,5.83E2,6.5E1,6.1E1,5.22E2,1.6E1,4.9E1,4.1E1,2E1,4.66E2,5.6E1,2.8E1,1.3E1,1E1,1E1,4.55E2,1.1E1,3E1,2.6E1],"tree_param":{"num_deleted":"0","num_feature":"58","num_nodes":"19","size_leaf_vector":"1"}},{"base_weights":[-5.1948052E-2,-1.078037E-1,4.9253732E-2,8.288288E-2,-2.6124817E-1,-7.586207E-1,2.3880596E-1,-8.3168316E-1,-1.6298811E-1,-1.6129032E-2,-4.9122807E-2,4.848485E-2,9.153319E-3,-4.9333334E-2,-1.8518519E-2,-1.0695187E-2,4.1379314E-2],"categories":[],"categories_nodes":[],"categories_segments":[],"categories_sizes":[],"default_left":[0,0,0,0,0,0,0,0,0,0,0,0,0,0,0,0,0],"id":49,"left_children":[1,3,-1,5,7,9,11,13,15,-1,-1,-1,-1,-1,-1,-1,-1],"loss_changes":[3.7964077E1,1.8195797E1,0E0,3.650131E1,1.9241783E1,4.0871925E0,9.464672E0,3.427822E0,1.494183E1,0E0,0E0,0E0,0E0,0E0,0E0,0E0,0E0],"parents":[2147483647,0,0,1,1,3,3,4,4,5,5,6,6,7,7,8,8],"right_children":[2,4,-1,6,8,10,12,14,16,-1,-1,-1,-1,-1,-1,-1,-1],"split_conditions":[5.698E3,0E0,1.0592798E1,1E0,4.166E3,1E0,4.303E3,1.7E1,9.07E2,-1.9214112E0,-2.6428223E0,2.9878418E0,5.6103516E-1,-3.750464E0,-2.090088E0,-5.907715E-1,9.987159E0],"split_indices":[38,6,0,26,39,5,43,57,57,0,0,0,0,0,0,0,0],"split_type":[0,0,0,0,0,0,0,0,0,0,0,0,0,0,0,0,0],"sum_hessian":[6.54E2,6.21E2,3.3E1,2.77E2,3.44E2,4.3E1,2.34E2,5E1,2.94E2,1.5E1,2.8E1,1.6E1,2.18E2,3.7E1,1.3E1,2.8E2,1.4E1],"tree_param":{"num_deleted":"0","num_feature":"58","num_nodes":"17","size_leaf_vector":"1"}},{"base_weights":[-1.2148823E-2,-7.240547E-2,4.9333334E-2,-3.3867276E-1,7.1871124E-2,-2.4403183E-1,-4.5901638E-2,1.442441E-1,-5.2873564E-1,-2.2943724E-2,4.761905E-3,1.3786408E-2,-9.178745E-3,-1.2727273E-2,-4.848485E-2],"categories":[],"categories_nodes":[],"categories_segments":[],"categories_sizes":[],"default_left":[0,0,0,0,0,0,0,0,0,0,0,0,0,0,0],"id":50,"left_children":[1,3,-1,5,7,9,-1,11,13,-1,-1,-1,-1,-1,-1],"loss_changes":[3.966772E1,2.3887804E1,0E0,1.1868597E1,1.757735E1,1.3761549E1,0E0,1.5563928E1,5.1360493E0,0E0,0E0,0E0,0E0,0E0,0E0],"parents":[2147483647,0,0,1,1,3,3,4,4,5,5,7,7,8,8],"right_children":[2,4,-1,6,8,10,-1,12,14,-1,-1,-1,-1,-1,-1],"split_conditions":[5.698E3,4.3644287E3,1.3006909E1,4.504E3,4.949E3,4.339E3,-3.9682128E0,2.3912088E1,4.773E3,-2.3919435E0,1.4824219E-1,8.1853026E-1,-5.313477E-1,-5.207764E-1,-3.5116212E0],"split_indices":[38,46,0,40,44,39,0,53,42,0,0,0,0,0,0],"split_type":[0,0,0,0,0,0,0,0,0,0,0,0,0,0,0],"sum_hessian":[6.58E2,6.21E2,3.7E1,2.18E2,4.03E2,1.88E2,3E1,3.6E2,4.3E1,1.15E2,7.3E1,2.57E2,1.03E2,2.7E1,1.6E1],"tree_param":{"num_deleted":"0","num_feature":"58","num_nodes":"15","size_leaf_vector":"1"}},{"base_weights":[1.0393467E-2,5.7918555E-1,-1.0115351E-1,3.0075186E-1,4.9438205E-2,-6.666667E-1,-4.6647232E-2,4.9557522E-1,-3.809524E-2,-1.7948719E-2,-8.52459E-1,-4.127967E-3,-7.2131145E-1,-6.8965517E-3,3.529412E-2,-2.857143E-2,-4.878049E-2,-2.5301207E-2,2.142052E-3,-9.52381E-3,-4.878049E-2],"categories":[],"categories_nodes":[],"categories_segments":[],"categories_sizes":[],"default_left":[0,0,0,0,0,0,0,0,0,0,0,0,0,0,0,0,0,0,0,0,0],"id":51,"left_children":[1,3,5,7,-1,9,11,13,-1,-1,15,17,19,-1,-1,-1,-1,-1,-1,-1,-1],"loss_changes":[4.276087E1,1.2452782E1,1.7353783E1,1.3956306E1,0E0,2.6767578E0,1.4757576E1,7.576227E0,0E0,0E0,7.768307E-1,1.1432231E1,4.024294E0,0E0,0E0,0E0,0E0,0E0,0E0,0E0,0E0],"parents":[2147483647,0,0,1,1,2,2,3,3,5,5,6,6,7,7,10,10,11,11,12,12],"right_children":[2,4,6,8,-1,10,12,14,-1,-1,16,18,20,-1,-1,-1,-1,-1,-1,-1,-1],"split_conditions":[4E0,5.515E3,4.131E3,4.707E3,1.2356567E1,2.1678572E1,5.183E3,1.4142858E1,-1.7987794E0,-2.3188233E0,4.277E3,4.129E3,5.3073007E-1,-4.0097657E-1,9.514356E0,-5.876831E0,-3.8556886E0,-3.0306642E0,9.211426E-2,-2.482373E0,-8.448316E0],"split_indices":[16,38,42,42,0,54,41,56,0,0,41,39,10,0,0,0,0,0,0,0,0],"split_type":[0,0,0,0,0,0,0,0,0,0,0,0,0,0,0,0,0,0,0,0,0],"sum_hessian":[6.73E2,1.1E2,5.63E2,6.6E1,4.4E1,4.9E1,5.14E2,5.6E1,1E1,1.9E1,3E1,4.84E2,3E1,1.4E1,4.2E1,1E1,2E1,4.1E1,4.43E2,1E1,2E1],"tree_param":{"num_deleted":"0","num_feature":"58","num_nodes":"21","size_leaf_vector":"1"}},{"base_weights":[-4.265042E-2,-9.78348E-2,4.9253732E-2,-6.6611156E-2,-4.4680852E-2,-1.0251955E-1,7.4509805E-1,-2.883721E-3,-3.636364E-2,1.904762E-2,4.8387095E-2],"categories":[],"categories_nodes":[],"categories_segments":[],"categories_sizes":[],"default_left":[0,0,0,0,0,0,0,0,0,0,0],"id":52,"left_children":[1,3,-1,5,-1,7,9,-1,-1,-1,-1],"loss_changes":[3.7281178E1,1.546248E1,0E0,1.754107E1,0E0,1.610289E1,1.8830748E0,0E0,0E0,0E0,0E0],"parents":[2147483647,0,0,1,1,3,3,5,5,6,6],"right_children":[2,4,-1,6,-1,8,10,-1,-1,-1,-1],"split_conditions":[5.698E3,5.843E3,1.1738746E1,1E0,-4.565503E0,4.7835E3,5E0,-2.1386719E-1,-1.7237304E0,1.7451782E1,4.191748E0],"split_indices":[38,42,0,29,0,47,20,0,0,0,0],"split_type":[0,0,0,0,0,0,0,0,0,0,0],"sum_hessian":[6.56E2,6.23E2,3.3E1,6E2,2.3E1,5.75E2,2.5E1,5.37E2,3.8E1,1E1,1.5E1],"tree_param":{"num_deleted":"0","num_feature":"58","num_nodes":"11","size_leaf_vector":"1"}},{"base_weights":[2.158828E-2,5.5707765E-1,-8.71177E-2,7.5151515E-1,-3.6363635E-2,-2.1299254E-3,-6.524823E-1,1.9512194E-1,9.28E-1,2.5714288E-2,-4.761905E-2,-4.9717516E-2,7.6363635E-1,-4.9056605E-2,-4.494382E-1,-9.52381E-3,2.857143E-2,2.857143E-2,4.952381E-2,1.8435754E-2,-7.7793496E-3,2.4E-2,4.8387095E-2,-9.836066E-3,-4.8275862E-2],"categories":[],"categories_nodes":[],"categories_segments":[],"categories_sizes":[],"default_left":[0,0,0,0,0,0,0,0,0,0,0,0,0,0,0,0,0,0,0,0,0,0,0,0,0],"id":53,"left_children":[1,3,5,7,9,11,13,15,17,-1,-1,19,21,-1,23,-1,-1,-1,-1,-1,-1,-1,-1,-1,-1],"loss_changes":[3.7774036E1,1.2648571E1,2.5921783E1,8.010548E0,1.4116017E1,1.712802E1,4.4840145E0,3.029036E0,1.109333E0,0E0,0E0,1.96311E1,1.3597641E0,0E0,5.708805E0,0E0,0E0,0E0,0E0,0E0,0E0,0E0,0E0,0E0,0E0],"parents":[2147483647,0,0,1,1,2,2,3,3,4,4,5,5,6,6,7,7,8,8,11,11,12,12,14,14],"right_children":[2,4,6,8,10,12,14,16,18,-1,-1,20,22,-1,24,-1,-1,-1,-1,-1,-1,-1,-1,-1,-1],"split_conditions":[4E0,4.546E3,5.7142857E1,2.024E3,4.659643E3,8E0,8.328571E1,4.2442093E2,4.383751E2,8.089282E0,-1.6226562E0,2.2315213E2,2E1,-5.25481E0,4.569E3,-6.3117677E-1,7.1710205E0,5.3668213E0,1.1151807E1,1.0984863E0,-7.4538577E-1,1.7631836E-1,2.8510253E0,-1.2238038E0,-4.9870607E-1],"split_indices":[16,45,52,0,47,28,56,35,35,0,0,35,2,0,45,0,0,0,0,0,0,0,0,0,0],"split_type":[0,0,0,0,0,0,0,0,0,0,0,0,0,0,0,0,0,0,0,0,0,0,0,0,0],"sum_hessian":[6.48E2,1.09E2,5.39E2,8.2E1,2.7E1,4.69E2,7E1,2E1,6.2E1,1.7E1,1E1,4.42E2,2.7E1,2.6E1,4.4E1,1E1,1E1,1E1,5.2E1,8.9E1,3.53E2,1.2E1,1.5E1,3E1,1.4E1],"tree_param":{"num_deleted":"0","num_feature":"58","num_nodes":"25","size_leaf_vector":"1"}},{"base_weights":[-3.065134E-2,-7.513989E-2,4.909091E-2,-2.2833562E-1,1.3714285E-1,-8.416834E-2,-5.414847E-1,-7.234042E-1,2.2129436E-1,-2.1818181E-2,4.477612E-3,-3.502825E-2,-0E0,-1.904762E-2,-4.814815E-2,-2.9032258E-2,1.3808464E-2],"categories":[],"categories_nodes":[],"categories_segments":[],"categories_sizes":[],"default_left":[0,0,0,0,0,0,0,0,0,0,0,0,0,0,0,0,0],"id":54,"left_children":[1,3,-1,5,7,9,11,13,15,-1,-1,-1,-1,-1,-1,-1,-1],"loss_changes":[2.9427637E1,2.0357426E1,0E0,1.6387732E1,1.908933E1,1.5284839E1,9.862976E0,1.7444553E0,1.06196995E1,0E0,0E0,0E0,0E0,0E0,0E0,0E0,0E0],"parents":[2147483647,0,0,1,1,3,3,4,4,5,5,6,6,7,7,8,8],"right_children":[2,4,-1,6,8,10,12,14,16,-1,-1,-1,-1,-1,-1,-1,-1],"split_conditions":[5.698E3,4E0,1.0594214E1,5.5243534E-1,4.52558E3,4.312E3,6.442857E1,4.412E3,4.3046333E3,-2.2093751E0,1.782959E-1,-2.7927003E0,-1.496338E-1,-3.1965333E-1,-1.5415283E0,-4.471924E0,8.8325197E-1],"split_indices":[38,3,0,10,38,39,54,45,48,0,0,0,0,0,0,0,0],"split_type":[0,0,0,0,0,0,0,0,0,0,0,0,0,0,0,0,0],"sum_hessian":[6.52E2,6.25E2,2.7E1,3.63E2,2.62E2,2.49E2,1.14E2,2.3E1,2.39E2,8.2E1,1.67E2,8.8E1,2.6E1,1E1,1.3E1,1.5E1,2.24E2],"tree_param":{"num_deleted":"0","num_feature":"58","num_nodes":"17","size_leaf_vector":"1"}},{"base_weights":[-1.9188192E-2,-7.137316E-2,4.9253732E-2,-7.010309E-1,-2.0117352E-2,-8.7323946E-1,-1.1111111E-2,-2.3955432E-1,7.4251495E-2,-4.901961E-2,-2.857143E-2,-1.661442E-2,2.4390245E-2,1.1378003E-3,4.888889E-2],"categories":[],"categories_nodes":[],"categories_segments":[],"categories_sizes":[],"default_left":[0,0,0,0,0,0,0,0,0,0,0,0,0,0,0],"id":55,"left_children":[1,3,-1,5,7,9,-1,11,13,-1,-1,-1,-1,-1,-1],"loss_changes":[3.5541183E1,2.0793295E1,0E0,3.9020348E0,1.2361224E1,8.6795425E-1,0E0,1.21884985E1,1.941412E1,0E0,0E0,0E0,0E0,0E0,0E0],"parents":[2147483647,0,0,1,1,3,3,4,4,5,5,7,7,8,8],"right_children":[2,4,-1,6,8,10,-1,12,14,-1,-1,-1,-1,-1,-1],"split_conditions":[5.698E3,4.121E3,1.0064502E1,-7.0333336E1,2E0,-2.7285715E1,-1.6469727E0,4.3516467E2,1E0,-5.298145E0,-2.930371E0,-1.4606446E0,7.2365725E-1,3.815918E-2,4.2420897E0],"split_indices":[38,39,0,55,3,51,0,49,29,0,0,0,0,0,0],"split_type":[0,0,0,0,0,0,0,0,0,0,0,0,0,0,0],"sum_hessian":[6.77E2,6.44E2,3.3E1,4.8E1,5.96E2,3.5E1,1.3E1,1.79E2,4.17E2,2.5E1,1E1,1.59E2,2E1,3.95E2,2.2E1],"tree_param":{"num_deleted":"0","num_feature":"58","num_nodes":"15","size_leaf_vector":"1"}},{"base_weights":[8.019246E-3,-7.199298E-2,8.440367E-1,-3.866171E-1,2.5258323E-2,1.3043478E-2,4.9425285E-2,-1.037037E-1,-6.666667E-1,6.690562E-2,-4.857143E-2,-1.4018692E-2,2.7586207E-2,-4.909091E-2,-2.2222223E-2,-1.8838305E-3,1.9900499E-2],"categories":[],"categories_nodes":[],"categories_segments":[],"categories_sizes":[],"default_left":[0,0,0,0,0,0,0,0,0,0,0,0,0,0,0,0,0],"id":56,"left_children":[1,3,5,7,9,-1,-1,11,13,15,-1,-1,-1,-1,-1,-1,-1],"loss_changes":[4.1737305E1,1.743022E1,4.4626694E0,1.0621836E1,1.8109802E1,0E0,0E0,7.893474E0,4.5090904E0,1.449916E1,0E0,0E0,0E0,0E0,0E0,0E0,0E0],"parents":[2147483647,0,0,1,1,2,2,3,3,4,4,7,7,8,8,9,9],"right_children":[2,4,6,8,10,-1,-1,12,14,16,-1,-1,-1,-1,-1,-1,-1],"split_conditions":[5.2332144E3,4.267E3,2.024E3,1.970481E2,5.583E3,8.167651E0,9.561279E0,2.06E2,-4E0,4.676E3,-1.4663575E0,-8.109131E-1,4.0754396E-1,-4.136768E0,-2.8838623E0,-2.0141602E-2,2.128296E0],"split_indices":[36,42,0,49,40,0,0,57,51,39,0,0,0,0,0,0,0],"split_type":[0,0,0,0,0,0,0,0,0,0,0,0,0,0,0,0,0],"sum_hessian":[6.23E2,5.69E2,5.4E1,1.34E2,4.35E2,1.1E1,4.3E1,6.7E1,6.7E1,4.18E2,1.7E1,5.3E1,1.4E1,2.7E1,4E1,3.18E2,1E2],"tree_param":{"num_deleted":"0","num_feature":"58","num_nodes":"17","size_leaf_vector":"1"}},{"base_weights":[-7.674597E-3,-8.6021505E-2,4.9473684E-2,4.2105263E-1,-1.4856082E-1,-3.3898305E-2,7.733333E-1,-5.673759E-1,-8.537887E-2,1.6129032E-2,-2.0689657E-2,1.6E-2,4.901961E-2,1.1111111E-2,-3.7391305E-2,-6.090808E-3,4.2857144E-2],"categories":[],"categories_nodes":[],"categories_segments":[],"categories_sizes":[],"default_left":[0,0,0,0,0,0,0,0,0,0,0,0,0,0,0,0,0],"id":57,"left_children":[1,3,-1,5,7,9,11,13,15,-1,-1,-1,-1,-1,-1,-1,-1],"loss_changes":[5.094001E1,1.9201221E1,0E0,1.067109E1,1.4225326E1,4.0617633E0,3.36314E0,1.0128153E1,1.6141878E1,0E0,0E0,0E0,0E0,0E0,0E0,0E0,0E0],"parents":[2147483647,0,0,1,1,3,3,4,4,5,5,6,6,7,7,8,8],"right_children":[2,4,-1,6,8,10,12,14,16,-1,-1,-1,-1,-1,-1,-1,-1],"split_conditions":[5.515E3,1.2933914E2,9.083203E0,-7.3333335E0,1.1E1,2.4571428E1,-1.956044E-1,4.338E3,5.808571E2,1.4140869E0,-1.1675049E0,2.280957E0,2.8435059E0,2.1123047E-1,-1.393042E0,-4.7709963E-1,2.2234472E1],"split_indices":[38,50,0,55,26,51,53,42,56,0,0,0,0,0,0,0,0],"split_type":[0,0,0,0,0,0,0,0,0,0,0,0,0,0,0,0,0],"sum_hessian":[6.51E2,6.04E2,4.7E1,6.6E1,5.38E2,2.9E1,3.7E1,7E1,4.68E2,1.5E1,1.4E1,1.2E1,2.5E1,1.3E1,5.7E1,4.51E2,1.7E1],"tree_param":{"num_deleted":"0","num_feature":"58","num_nodes":"17","size_leaf_vector":"1"}},{"base_weights":[3.1620553E-3,-5.364627E-2,4.6575345E-2,1.9212296E-2,-5.4901963E-1,-3.3170733E-1,1.0513739E-1,-8.3809525E-1,8.163265E-2,1.8644068E-2,-3.0612245E-2,8.677098E-3,-1.2592593E-2,-4.9333334E-2,-2.2580644E-2,4.0000003E-2,-3.2E-2],"categories":[],"categories_nodes":[],"categories_segments":[],"categories_sizes":[],"default_left":[0,0,0,0,0,0,0,0,0,0,0,0,0,0,0,0,0],"id":58,"left_children":[1,3,-1,5,7,9,11,13,15,-1,-1,-1,-1,-1,-1,-1,-1],"loss_changes":[3.3381588E1,2.1534267E1,0E0,1.5711971E1,1.3980633E1,2.0374664E1,1.0241495E1,2.7917633E0,1.2956735E1,0E0,0E0,0E0,0E0,0E0,0E0,0E0,0E0],"parents":[2147483647,0,0,1,1,3,3,4,4,5,5,6,6,7,7,8,8],"right_children":[2,4,-1,6,8,10,12,14,16,-1,-1,-1,-1,-1,-1,-1,-1],"split_conditions":[5.549E3,4.8942856E3,6.8911624E0,4.198E3,6.310263E2,5.4E1,6.082143E1,2E0,4E0,1.1569824E0,-2.6158204E0,3.6462402E-1,-9.352295E-1,-2.4003417E0,-2.392163E0,3.7616456E0,-9.73103E0],"split_indices":[39,46,0,45,50,26,52,1,2,0,0,0,0,0,0,0,0],"split_type":[0,0,0,0,0,0,0,0,0,0,0,0,0,0,0,0,0],"sum_hessian":[6.32E2,5.96E2,3.6E1,5.2E2,7.6E1,1.02E2,4.18E2,5.2E1,2.4E1,2.9E1,7.3E1,3.51E2,6.7E1,3.7E1,1.5E1,1.2E1,1.2E1],"tree_param":{"num_deleted":"0","num_feature":"58","num_nodes":"17","size_leaf_vector":"1"}},{"base_weights":[1.3729977E-2,-3.8554218E-2,4.9253732E-2,2.2747157E-2,-7.184466E-1,-1.7953321E-1,2.1465077E-1,-4.9295776E-2,-6.0606063E-3,-1.55124655E-2,3.0456854E-3,-3.9130434E-2,1.2743363E-2],"categories":[],"categories_nodes":[],"categories_segments":[],"categories_sizes":[],"default_left":[0,0,0,0,0,0,0,0,0,0,0,0,0],"id":59,"left_children":[1,3,-1,5,7,9,11,-1,-1,-1,-1,-1,-1],"loss_changes":[3.3309196E1,2.5952938E1,0E0,2.2203945E1,8.166943E0,8.762782E0,1.1870923E1,0E0,0E0,0E0,0E0,0E0,0E0],"parents":[2147483647,0,0,1,1,3,3,4,4,5,5,6,6],"right_children":[2,4,-1,6,8,10,12,-1,-1,-1,-1,-1,-1],"split_conditions":[5.4025E3,5.183E3,5.7124023E0,4.417E3,6.903956E1,2.024E3,-7.258571E2,-2.220923E0,-2.2734375E-1,-1.8215821E0,3.9746094E-2,-2.2725587E0,9.3151855E-1],"split_indices":[38,41,0,46,53,0,56,0,0,0,0,0,0],"split_type":[0,0,0,0,0,0,0,0,0,0,0,0,0],"sum_hessian":[6.55E2,6.22E2,3.3E1,5.71E2,5.1E1,2.78E2,2.93E2,3.5E1,1.6E1,1.8E2,9.8E1,1.1E1,2.82E2],"tree_param":{"num_deleted":"0","num_feature":"58","num_nodes":"13","size_leaf_vector":"1"}},{"base_weights":[-2.4371669E-2,-2.0092736E-1,1.4692654E-1,5.4545456E-1,-2.698145E-1,2.022117E-1,-4.2857144E-2,-0E0,4.8387095E-2,2.5974026E-1,-3.4816247E-1,2.7288428E-1,-5.4545456E-1,-2.5925925E-2,3.3333335E-2,-3.52E-2,-1.1704835E-2,1.3840831E-3,2.5773196E-2,-4.857143E-2,9.52381E-3],"categories":[],"categories_nodes":[],"categories_segments":[],"categories_sizes":[],"default_left":[0,0,0,0,0,0,0,0,0,0,0,0,0,0,0,0,0,0,0,0,0],"id":60,"left_children":[1,3,5,7,9,11,-1,-1,-1,13,15,17,19,-1,-1,-1,-1,-1,-1,-1,-1],"loss_changes":[1.9869732E1,1.6706701E1,1.859929E1,6.3343105E0,1.2346867E1,1.6798126E1,0E0,0E0,0E0,1.2365561E1,1.0409826E1,1.7212662E1,8.713421E0,0E0,0E0,0E0,0E0,0E0,0E0,0E0,0E0],"parents":[2147483647,0,0,1,1,2,2,3,3,4,4,5,5,9,9,10,10,11,11,12,12],"right_children":[2,4,6,8,10,12,-1,-1,-1,14,16,18,20,-1,-1,-1,-1,-1,-1,-1,-1],"split_conditions":[4.462E3,4.52558E3,5.1896665E3,2E1,4E0,5.583E3,-7.353418E0,-1.6963379E0,1.9413086E0,1.4142858E1,4.3487666E3,-8.25934E0,4.2E1,-5.05835E-1,8.625903E0,-2.7056396E0,-5.564453E-1,1.5891114E-1,2.6364992E0,-1.3838379E0,1.3866211E0],"split_indices":[43,38,48,2,16,40,0,0,0,56,48,53,4,0,0,0,0,0,0,0,0],"split_type":[0,0,0,0,0,0,0,0,0,0,0,0,0,0,0,0,0,0,0,0,0],"sum_hessian":[6.56E2,3.23E2,3.33E2,2.7E1,2.96E2,3.16E2,1.7E1,1.2E1,1.5E1,3.8E1,2.58E2,2.89E2,2.7E1,1.3E1,2.5E1,6.2E1,1.96E2,1.44E2,1.45E2,1.7E1,1E1],"tree_param":{"num_deleted":"0","num_feature":"58","num_nodes":"21","size_leaf_vector":"1"}},{"base_weights":[3.0097817E-3,-4.908947E-2,4.9253732E-2,-5.945946E-1,3.4692108E-3,-8.2666665E-1,-5.4054055E-3,-2.5981873E-1,1.09356016E-1,-4.883721E-2,-3.0303031E-2,-2.122449E-2,1.03448285E-2,-2.0000001E-2,9.590973E-3],"categories":[],"categories_nodes":[],"categories_segments":[],"categories_sizes":[],"default_left":[0,0,0,0,0,0,0,0,0,0,0,0,0,0,0],"id":61,"left_children":[1,3,-1,5,7,9,-1,11,13,-1,-1,-1,-1,-1,-1],"loss_changes":[3.402322E1,1.8106787E1,0E0,6.22126E0,1.6086287E1,9.455662E-1,0E0,1.2763332E1,1.7322704E1,0E0,0E0,0E0,0E0,0E0,0E0],"parents":[2147483647,0,0,1,1,3,3,4,4,5,5,7,7,8,8],"right_children":[2,4,-1,6,8,10,-1,12,14,-1,-1,-1,-1,-1,-1],"split_conditions":[5.698E3,4.126E3,7.929541E0,4.6649517E3,2E0,4.357533E3,-8.203125E-2,2.96E2,1E0,-4.9657717E0,-4.751294E0,-1.6830567E0,4.2023927E-1,-1.4877198E0,6.742188E-1],"split_indices":[38,39,0,32,3,48,0,57,26,0,0,0,0,0,0],"split_type":[0,0,0,0,0,0,0,0,0,0,0,0,0,0,0],"sum_hessian":[6.64E2,6.31E2,3.3E1,5.5E1,5.76E2,3.7E1,1.8E1,1.65E2,4.11E2,2.1E1,1.6E1,1.22E2,4.3E1,5.7E1,3.54E2],"tree_param":{"num_deleted":"0","num_feature":"58","num_nodes":"15","size_leaf_vector":"1"}},{"base_weights":[4.64756E-3,-7.351713E-2,4.9473684E-2,-4.9700085E-2,-4.8387095E-2,-1.4269535E-1,2.3859648E-1,-3.3810143E-3,-3.2173913E-2,-4.761905E-2,1.6603773E-2],"categories":[],"categories_nodes":[],"categories_segments":[],"categories_sizes":[],"default_left":[0,0,0,0,0,0,0,0,0,0,0],"id":62,"left_children":[1,3,-1,5,-1,7,9,-1,-1,-1,-1],"loss_changes":[4.9726074E1,1.2722677E1,0E0,1.5660787E1,0E0,1.6577015E1,1.602285E1,0E0,0E0,0E0,0E0],"parents":[2147483647,0,0,1,1,3,3,5,5,6,6],"right_children":[2,4,-1,6,-1,8,10,-1,-1,-1,-1],"split_conditions":[5.515E3,5.4030713E3,7.5330567E0,4.665E3,-3.2614503E0,5.542857E1,3E1,-1.1369629E-1,-2.5445557E0,-4.5422363E-1,1.9232666E0],"split_indices":[38,47,0,39,0,52,4,0,0,0,0],"split_type":[0,0,0,0,0,0,0,0,0,0,0],"sum_hessian":[6.45E2,5.98E2,4.7E1,5.83E2,1.5E1,4.41E2,1.42E2,3.84E2,5.7E1,1E1,1.32E2],"tree_param":{"num_deleted":"0","num_feature":"58","num_nodes":"11","size_leaf_vector":"1"}},{"base_weights":[1.7843867E-2,-4.4268776E-2,4.9382716E-2,-8.092485E-2,7.6363635E-1,-3.4017596E-1,2.06659E-2,2.4E-2,4.8387095E-2,3.0434782E-2,-2.0376176E-2,-3.5593223E-2,3.6900367E-3],"categories":[],"categories_nodes":[],"categories_segments":[],"categories_sizes":[],"default_left":[0,0,0,0,0,0,0,0,0,0,0,0,0],"id":63,"left_children":[1,3,-1,5,7,9,11,-1,-1,-1,-1,-1,-1],"loss_changes":[4.053157E1,1.8762157E1,0E0,1.5950881E1,1.3597641E0,1.1019693E1,1.6977182E1,0E0,0E0,0E0,0E0,0E0,0E0],"parents":[2147483647,0,0,1,1,3,3,4,4,5,5,6,6],"right_children":[2,4,-1,6,8,10,12,-1,-1,-1,-1,-1,-1],"split_conditions":[5.515E3,1.5E1,4.521802E0,2E0,1.7E1,2E0,9E0,1.1520996E-1,1.934082E0,2.0453566E1,-1.4716797E0,-1.509497E0,1.6713868E-1],"split_indices":[38,28,0,3,20,16,26,0,0,0,0,0,0],"split_type":[0,0,0,0,0,0,0,0,0,0,0,0,0],"sum_hessian":[6.72E2,6.32E2,4E1,6.05E2,2.7E1,1.7E2,4.35E2,1.2E1,1.5E1,1.1E1,1.59E2,2.9E1,4.06E2],"tree_param":{"num_deleted":"0","num_feature":"58","num_nodes":"13","size_leaf_vector":"1"}},{"base_weights":[-1.9359643E-2,-6.411259E-2,8.6153847E-1,-1.3686912E-2,-5.945946E-1,4.888889E-2,2.857143E-2,-2.3234624E-1,1.1764706E-1,1.904762E-2,-8.131868E-1,-1.8566776E-2,4.511278E-3,3.6390105E-3,4.0000003E-2,-2.0689657E-2,-4.920635E-2],"categories":[],"categories_nodes":[],"categories_segments":[],"categories_sizes":[],"default_left":[0,0,0,0,0,0,0,0,0,0,0,0,0,0,0,0,0],"id":64,"left_children":[1,3,5,7,9,-1,-1,11,13,-1,15,-1,-1,-1,-1,-1,-1],"loss_changes":[2.650002E1,1.71025E1,8.166065E-1,1.6798986E1,1.1990101E1,0E0,0E0,9.85782E0,1.1160682E1,0E0,2.9027843E0,0E0,0E0,0E0,0E0,0E0,0E0],"parents":[2147483647,0,0,1,1,2,2,3,3,4,4,7,7,8,8,10,10],"right_children":[2,4,6,8,10,-1,-1,12,14,-1,16,-1,-1,-1,-1,-1,-1],"split_conditions":[3.36E2,5.261E3,4.409E3,4.3582856E3,4.794E3,9.295703E0,8.345728E0,4.421E3,2.1266667E2,3.18042E-1,-1.1060714E2,-1.6281494E0,1.0944825E-1,1.5109864E-1,4.2957034E0,-6.6649413E0,-9.9384767E-1],"split_indices":[55,46,44,46,42,0,0,39,55,0,52,0,0,0,0,0,0],"split_type":[0,0,0,0,0,0,0,0,0,0,0,0,0,0,0,0,0],"sum_hessian":[6.71E2,6.39E2,3.2E1,5.84E2,5.5E1,2.2E1,1E1,2.19E2,3.65E2,1E1,4.5E1,1.53E2,6.6E1,3.43E2,2.2E1,1.4E1,3.1E1],"tree_param":{"num_deleted":"0","num_feature":"58","num_nodes":"17","size_leaf_vector":"1"}},{"base_weights":[-2.3023792E-2,-6.554756E-2,4.9056605E-2,1.9212296E-2,-4.8341233E-1,-6.927374E-2,5.578231E-1,-8.201439E-1,1.6438356E-1,-2.6950354E-2,9.271523E-4,3.6190476E-2,6.9767446E-3,-4.4537816E-2,-1.904762E-2,4.883721E-2,-4.8387095E-2],"categories":[],"categories_nodes":[],"categories_segments":[],"categories_sizes":[],"default_left":[0,0,0,0,0,0,0,0,0,0,0,0,0,0,0,0,0],"id":65,"left_children":[1,3,-1,5,7,9,11,13,15,-1,-1,-1,-1,-1,-1,-1,-1],"loss_changes":[2.7851528E1,2.2158703E1,0E0,2.482611E1,2.3080473E1,1.8464584E1,5.052618E0,1.9856949E0,3.4041454E1,0E0,0E0,0E0,0E0,0E0,0E0,0E0,0E0],"parents":[2147483647,0,0,1,1,3,3,4,4,5,5,6,6,7,7,8,8],"right_children":[2,4,-1,6,8,10,12,14,16,-1,-1,-1,-1,-1,-1,-1,-1],"split_conditions":[5.806E3,4.7439287E3,4.0809083E0,4.6649517E3,1E1,4.211E3,4.706E3,4.961E3,5.052E3,-1.93396E0,5.46875E-3,3.7424562E0,2.239453E0,-1.3843507E0,-1.7427491E0,2.8549316E0,-6.3316894E0],"split_indices":[38,47,0,32,29,39,44,44,44,0,0,0,0,0,0,0,0],"split_type":[0,0,0,0,0,0,0,0,0,0,0,0,0,0,0,0,0],"sum_hessian":[6.51E2,6.25E2,2.6E1,5.2E2,1.05E2,4.47E2,7.3E1,6.9E1,3.6E1,7E1,3.77E2,5.2E1,2.1E1,5.9E1,1E1,2.1E1,1.5E1],"tree_param":{"num_deleted":"0","num_feature":"58","num_nodes":"17","size_leaf_vector":"1"}},{"base_weights":[-2.0917136E-2,6.3225806E-1,-1.13865934E-1,1.5873016E-1,4.7311828E-2,-1.7679557E-2,-5.837838E-1,2.820513E-2,-2.4E-2,2.3014959E-2,-4.864865E-2,-4.878049E-2,-4.6896553E-1,-3.508772E-2,3.6900367E-3,-2.5641026E-3,-3.0841121E-2],"categories":[],"categories_nodes":[],"categories_segments":[],"categories_sizes":[],"default_left":[0,0,0,0,0,0,0,0,0,0,0,0,0,0,0,0,0],"id":66,"left_children":[1,3,5,7,-1,9,11,-1,-1,13,-1,-1,15,-1,-1,-1,-1],"loss_changes":[3.776841E1,1.1447414E1,2.4606071E1,8.291477E0,0E0,1.7602228E1,3.9326954E0,0E0,0E0,1.6018959E1,0E0,0E0,4.4615936E0,0E0,0E0,0E0,0E0],"parents":[2147483647,0,0,1,1,2,2,3,3,5,5,6,6,9,9,12,12],"right_children":[2,4,6,8,-1,10,12,-1,-1,14,-1,-1,16,-1,-1,-1,-1],"split_conditions":[3E0,5.305E3,5.542857E1,2.9922217E2,7.113916E0,5.333E3,1.6571428E1,7.887378E0,-1.6556152E0,4.121E3,-2.9059083E0,-4.1008544E0,5.7666668E1,-2.3738039E0,2.54541E-1,-1.1091064E0,-1.6621094E0],"split_indices":[16,39,52,50,0,41,56,0,0,45,0,0,55,0,0,0,0],"split_type":[0,0,0,0,0,0,0,0,0,0,0,0,0,0,0,0,0],"sum_hessian":[6.21E2,7.7E1,5.44E2,3.1E1,4.6E1,4.52E2,9.2E1,1.9E1,1.2E1,4.34E2,1.8E1,2E1,7.2E1,2.8E1,4.06E2,1.9E1,5.3E1],"tree_param":{"num_deleted":"0","num_feature":"58","num_nodes":"17","size_leaf_vector":"1"}},{"base_weights":[-2.6666667E-2,-7.0781894E-2,8.52459E-1,-3.0769232E-1,3.5756852E-2,4.871795E-2,3.0434782E-2,-6.2015504E-1,-1.4457831E-1,3.899371E-1,-4.698972E-2,-3.809524E-2,-0E0,-3.3962265E-2,-0E0,5.050505E-3,4.262295E-2,9.724474E-4,-3.3846155E-2],"categories":[],"categories_nodes":[],"categories_segments":[],"categories_sizes":[],"default_left":[0,0,0,0,0,0,0,0,0,0,0,0,0,0,0,0,0,0,0],"id":67,"left_children":[1,3,5,7,9,-1,-1,11,13,15,17,-1,-1,-1,-1,-1,-1,-1,-1],"loss_changes":[2.4754225E1,1.5338884E1,6.0975647E-1,9.562458E0,1.2303533E1,0E0,0E0,5.6699905E0,9.624006E0,1.0580937E1,1.4257165E1,0E0,0E0,0E0,0E0,0E0,0E0,0E0,0E0],"parents":[2147483647,0,0,1,1,2,2,3,3,4,4,7,7,8,8,9,9,10,10],"right_children":[2,4,6,8,10,-1,-1,12,14,16,18,-1,-1,-1,-1,-1,-1,-1,-1],"split_conditions":[3.36E2,4.307E3,1.2167857E2,-3.5785713E1,4.4146953E3,7.3687015E0,7.496216E0,6.857143E1,4.122E3,-1.5333333E1,4.147143E2,-3.0957763E0,-3.284668E-1,-3.0852296E0,-9.406739E-2,1.2038574E-1,2.6235352E0,8.481445E-2,-3.2851562E-1],"split_indices":[55,39,54,54,32,0,0,51,42,55,56,0,0,0,0,0,0,0,0],"split_type":[0,0,0,0,0,0,0,0,0,0,0,0,0,0,0,0,0,0,0],"sum_hessian":[6.37E2,6.07E2,3E1,1.88E2,4.19E2,1.9E1,1.1E1,6.4E1,1.24E2,7.9E1,3.4E2,5.2E1,1.2E1,2.6E1,9.8E1,4.9E1,3E1,3.08E2,3.2E1],"tree_param":{"num_deleted":"0","num_feature":"58","num_nodes":"19","size_leaf_vector":"1"}},{"base_weights":[-1.8447349E-2,-5.258964E-2,4.4680852E-2,-6.262626E-1,-3.457217E-3,-4.9122807E-2,-1.3953489E-1,7.0891514E-2,-3.0837005E-1,-2.857143E-2,1.3043478E-2,9.3348895E-4,3.3333335E-2,-2.6035503E-2,1.5254237E-2],"categories":[],"categories_nodes":[],"categories_segments":[],"categories_sizes":[],"default_left":[0,0,0,0,0,0,0,0,0,0,0,0,0,0,0],"id":68,"left_children":[1,3,-1,5,7,-1,9,11,13,-1,-1,-1,-1,-1,-1],"loss_changes":[2.0280046E1,1.7685596E1,0E0,8.513235E0,1.3125457E1,0E0,3.7925756E0,1.4476604E1,1.4864054E1,0E0,0E0,0E0,0E0,0E0,0E0],"parents":[2147483647,0,0,1,1,3,3,4,4,6,6,7,7,8,8],"right_children":[2,4,-1,6,8,-1,10,